	0	1	2	3	4	5	6	7	8	9	10	11	12	13	14	15	16	17	18	19	20	21	22	23	24	25	26	27	28	29	30	31	32	33	34	35	36	37	38	39	40	41	42	43	44	45	46	47	48	49	50	51	52	53	54	55	56	57	58	59	60	61	62	63	64	65	66	67	68	69	70	71	72	73	74	75	76	77	78	79	80	81	82	83	84	85	86	87	88	89	90	91	92	93	94	95	96	97	98	99	100	101	102	103	104	105	106	107	108	109	110	111	112	113	114	115	116	117	118	119	120	121	122	123	124	125	126	127	128	129	130	131	132	133	134	135	136	137	138	139	140	141	142	143	144	145	146	147	148	149	150	151	152	153	154	155	156	157	158	159	160	161	162	163	164	165	166	167	168	169	170	171	172	173	174	175	176	177	178	179	180	181	182	183	184	185	186	187	188	189	190	191	192	193	194	195	196	197	198	199
ABAT	0.053163793	0.06466734	-0.21593073	0.2349698	0.07718503	0.2619362	-0.24147068	-0.18841012	0.09349047	0.00045301544	-0.018874865	-0.28716114	-0.21264017	-0.103386424	-0.14512503	0.2177522	0.07137922	-0.24219283	-0.04985054	-0.106206365	-0.14141816	0.11250699	-0.110001065	0.30509925	-0.21891122	-0.11920276	0.2248891	-0.16232325	0.19822341	-0.13510486	0.28817454	0.10288108	0.08004706	0.38689718	0.024072388	0.09619142	0.057164904	0.05586675	-0.061289545	-0.10270944	0.065009624	-0.2996673	-0.0740385	-0.17952646	0.44984618	-0.17198364	0.04230857	-0.15888083	-0.3276407	-0.008989699	0.3501651	-0.66870064	-0.08305853	-0.03352834	-0.19157544	-0.1504936	0.203988	-0.13779026	-0.16800818	0.31070042	0.08336565	0.20918436	0.1261262	0.08764744	-0.08387675	-0.012826948	0.14798045	0.091237426	-0.09681106	-0.13830619	-0.14419447	-0.07267608	-0.21860653	-0.11815332	-0.004299688	0.036554266	0.00016267531	0.18425374	0.08109969	-0.09798586	-0.085538626	-0.4377801	0.07510086	-0.31710038	0.14840962	0.16926013	-0.15354484	-0.18182729	-0.2449772	0.13188066	-0.2812613	-0.025251525	0.047800075	-0.12521987	0.24528232	-0.017158128	0.1310669	0.13131575	0.12413241	-0.25441235	-0.19462143	0.37089872	0.34244344	0.14627701	0.13277996	-0.08418231	0.06390299	0.1512926	0.2445002	0.25994274	-0.26266173	0.22792329	-0.016125558	-0.30107805	0.5422209	-0.08068512	0.22130632	0.3018646	-0.013288225	0.39085785	0.15946686	0.14072122	-0.0037413468	-0.15899819	0.36234894	-0.03645449	-0.03928043	0.08452303	0.08483497	-0.1651907	-0.06878506	0.17773627	-0.4505843	-0.01760734	-0.058856092	0.24511857	0.27958697	-0.22514325	0.1489991	-0.2403446	0.002892116	0.051322132	0.3040559	-0.25578576	0.21638963	0.21096675	0.13969842	0.24729209	-0.38890597	0.09951739	-0.08136495	0.34742516	-0.17764126	0.17198905	0.05814792	0.10011868	-0.14581107	-0.15676558	-0.020993704	0.48286763	-0.3128981	0.34558323	0.00885424	-0.09885511	0.44366726	-0.036527034	0.271912	0.06202579	0.1843297	-0.4583597	0.09160224	-0.24932823	-0.2663479	-0.22331436	-0.084374525	-0.23130578	-0.12743558	0.010230603	-0.19707891	-0.22111127	0.021232335	0.023993192	-0.37914896	0.17584677	-0.09291861	0.118749775	-0.27980042	0.004318268	-0.053014193	0.1189381	0.009560545	-0.12857439	0.034886654	0.026151862	-0.28062034	0.07333306	0.13952118	-0.033559628	-0.17653638	0.070914485
ABCA1	-0.056907486	0.1337972	0.19741972	0.0010106292	-0.061334956	0.3446994	-0.2062539	0.025532957	-0.09672715	-0.056395315	-0.339548	0.12653461	0.2952334	0.24815404	0.09703119	-0.09420797	-0.62955385	-0.41411597	0.13729572	-0.03906129	-0.5138616	0.020255782	-0.2251488	0.35132217	0.5621902	-0.3597808	-0.2387264	-0.3533586	0.01160404	-0.35484278	0.15523021	0.36882415	0.08166995	0.07809102	0.3177141	0.06451163	0.13635758	-0.06635021	0.19989301	-0.6461511	0.2008205	-0.4022499	0.27826273	-0.3058741	0.27786857	-0.109968804	-0.37800142	-0.36735207	0.2835742	0.07322058	0.23886624	-0.07169135	-0.21105063	0.30811676	-0.04275995	0.29976696	0.01550905	0.12611178	-0.14531967	0.3932617	0.37052763	-0.014989227	-0.012092936	0.09616648	0.035594523	-0.22141406	0.1913525	0.11390788	-0.14781685	-0.30666694	0.07274347	-0.18927051	0.10295758	0.10629107	-0.16715464	0.00358128	-0.11442128	-0.28481504	-0.22252446	0.27652833	-0.08878007	-0.06866711	0.061751533	-0.0936802	0.07571447	0.0010745176	-0.08937477	-0.0054437565	-0.0751339	0.19050676	0.16838701	-0.12622125	0.070788465	-0.06305273	-0.12174359	-0.31199324	-0.11792955	0.19814317	-0.2188185	-0.17994995	0.053104818	0.3411804	-0.082345985	-0.2029259	-0.15688057	0.15569815	-0.005963893	0.24131913	0.19204044	0.28261927	-0.115645364	0.26918843	-0.19585592	0.29405612	0.68253136	-0.08550931	-0.037697487	-0.11811417	-0.30083615	-0.038865305	0.1325759	0.48254392	0.13630311	-0.031916447	0.16001855	-0.10781974	-0.066929005	-0.26396427	-0.03093088	0.22330014	0.07871879	0.33443016	-0.33144486	0.10334242	-0.5577348	0.09569883	-0.34319466	-0.33880746	0.25706956	-0.34174776	-0.29098862	0.60263115	0.20213397	-0.15225834	-0.024315177	0.3795308	0.21629795	0.11761658	0.35008863	-0.37181523	0.07759432	0.6067823	0.07705869	0.07530585	-0.39706326	-0.3033095	-0.6193873	0.010751398	-0.37464124	-0.08185958	0.12819786	0.47400498	0.17827378	0.25311592	0.5627966	-0.075201586	0.12427435	-0.21307607	0.48021638	0.289876	-0.38365978	-0.43023974	-0.10705646	-0.24218059	-0.26773688	-0.27729625	-0.16163623	0.01220861	-0.042336326	0.10574398	0.03103686	-0.09975732	-0.30566382	0.45383573	-0.41768828	0.17820841	-0.45014226	-0.18908183	0.524926	-0.14197706	0.67837214	0.1310623	-0.0008797023	0.40580997	0.05800691	0.02074463	0.13668889	0.17562512	-0.33939433	0.25594407
ABL1	0.077222615	0.010567042	0.49120882	0.08453061	0.1352175	-0.36644703	0.21963976	-0.28907734	0.3616892	-0.027663654	-0.32640556	-0.67248726	-0.013874785	0.4027337	-0.18955551	0.13184707	-0.19340967	0.005127567	0.3223052	-0.12774771	-0.26784095	-0.23760702	-0.1761352	-0.08372493	0.16124214	-0.23042326	-0.16921756	0.18545349	0.27697757	-0.45020702	0.14332825	-0.010351959	-0.3158752	0.18547904	-0.17635547	-0.034472197	-0.61996514	-0.2436418	-0.4462717	0.047469232	0.17549033	-0.15186435	-0.13398555	0.15351996	0.1806928	-0.15939604	-0.07003373	0.060750697	0.016502347	-0.073646195	0.47581252	-0.024733474	-0.024310917	0.066477634	0.13262306	0.15558901	0.06409871	0.15950066	0.23559141	0.04442555	-0.09795736	0.088881165	0.0821732	-0.14010245	-0.4631217	0.019241862	0.18341272	-0.07950087	-0.05923932	-0.029517448	-0.21886928	-0.35029852	0.35525495	-0.1675351	-0.05617624	0.3475753	-0.5189654	0.45430642	-0.34772104	0.17574254	0.3234567	-0.04956229	0.07580786	-0.13794525	-0.18828838	-0.3711408	0.045857437	0.0094032325	0.12735687	0.07295776	-0.178105	-0.119198546	-0.40881753	-0.17600653	0.20846957	-0.538574	0.102467164	0.006495878	0.04267914	-0.2545014	0.30963078	0.22042225	0.14655593	-0.32934427	0.20461793	-0.42036816	-0.084135026	0.019470116	0.2973281	-0.19047159	-0.061686885	0.12842548	0.12601824	-0.5257321	0.30548096	0.092969306	0.048305653	0.028759386	0.47627333	-0.4874174	-0.32322845	0.10267684	0.44721946	-0.003017743	0.21560754	-0.19547632	-0.058964945	-0.063799925	0.034994245	-0.5228408	0.0025307247	0.22968143	-0.2643752	0.3372848	-0.115248844	0.21984792	0.39888552	-0.18511985	-0.019634089	0.08643923	0.027561003	0.08616924	0.07876599	-0.061241783	0.051309004	0.054775763	-0.20325704	0.017629761	0.028839976	0.13972156	0.2638785	0.20342138	-0.24937703	0.018982207	-0.5069342	0.06569573	0.017010463	0.13219172	-0.18089612	-0.0098656	-0.07272793	0.2639089	-0.39009273	0.26037982	0.20327125	0.087238565	-0.037753344	0.010188061	0.13158073	-0.32848898	0.06890299	-0.6687345	-0.5699961	-0.15155236	-0.4580031	-0.0047633005	-0.44890904	0.07367262	0.02492374	-0.0779831	0.33562666	0.042669278	0.17236069	-0.12223346	-0.06545087	-0.07729237	-0.2937004	-0.01700314	0.158987	0.098575465	-0.007543854	0.047329046	0.12043513	0.2301664	-0.23208533	-0.023402382	0.04746411	-0.06636092	-0.35668224	-0.16505672
ACE	0.03638522	0.17327532	0.23036559	0.07921908	0.13033716	0.3319448	-0.19368203	0.08252036	-0.07929268	0.31085852	-0.13605583	-0.0038593188	0.11721106	-0.31042856	-0.05825362	-0.2631862	-0.16518007	-0.25096756	-0.22380763	-0.5570693	-0.11993968	0.15506561	-0.1567717	-0.28532708	0.14467523	-0.7386235	-0.12941453	-0.25343138	-0.18698137	-0.070728295	0.20662135	-0.44363707	-0.28060126	0.21812238	0.46426955	-0.06581959	-0.46441415	0.15204437	-0.037429094	0.0015839932	-0.41776118	-0.095896505	0.07211777	0.3381846	0.13897833	-0.25975057	-0.035193156	0.013416303	0.29649532	-0.5950176	-0.27355105	-0.007934083	-0.6843662	-0.53953886	0.082752444	0.23805168	0.17147402	-0.35327435	0.04628594	0.36842152	0.16634108	-0.033688817	0.08070638	-0.22507523	-0.05696535	-0.3314746	-0.13215166	0.15254979	0.26018688	0.043632712	0.30973822	0.3094435	0.22217917	-0.39446217	-0.15990594	-0.015755927	-0.24203253	-0.04491016	0.16317023	-0.15401474	0.02276542	0.17419006	0.0018330605	-0.31075704	-0.02926823	-0.23353101	-0.07377191	-0.33894357	0.16523202	-0.13120091	0.03892205	-0.2599635	-0.2677775	0.17530243	0.20543782	-0.23991215	0.008113613	-0.24417438	-0.10802903	-0.045331463	0.00039581113	-0.24057053	0.06896695	-0.37940904	-0.19656219	0.067453	-0.10628159	-0.0021015082	0.26469618	0.50217056	-0.047023293	-0.29630727	0.21165597	-0.4606724	-0.19981074	0.20850658	-0.43688202	0.34536514	-0.068189025	-0.11208658	0.08683249	-0.033663485	0.003946661	0.28617102	0.20296444	-0.20585167	0.23171373	-0.032759126	-0.5267415	0.29127333	0.05993957	0.44112474	0.02589559	-0.074776016	-0.41702062	0.06268214	0.29546762	-0.123538956	-0.0038426688	-0.07012869	-0.20926595	-0.33963192	0.02082501	-0.17298025	-0.15798835	0.12629837	0.26648104	-0.33970147	-0.520419	-0.023082906	-0.07717843	0.1501202	0.28623748	0.06516452	-0.1362276	-0.3792604	-0.11477888	-0.7905027	-0.10303921	-0.010262571	-0.28299725	0.031119913	-0.14188944	0.08227211	-0.0042335237	0.389066	0.36710197	0.2525942	0.28314131	-0.2926937	0.28908685	0.28142712	0.22491145	0.25238633	0.23011303	0.082915254	-0.10138213	-0.3464561	-0.05338448	-0.15415387	-0.41096398	-0.09963956	-0.22269428	0.10603185	0.027015163	-0.42999867	0.22254734	-0.064329416	0.12828645	-0.024432395	0.06449517	-0.11530932	0.17480029	-0.15640897	-0.080724716	0.09657301	0.11859116	-0.06542403	-0.18085667	0.22797216
ACHE	-0.026483878	-0.249057	0.12046543	0.15882821	0.18679452	-0.119518794	-0.09277005	-0.19508791	-0.23386599	0.12804504	-0.061642163	-0.38634387	-0.03130241	-0.039197613	-0.028218979	0.15019539	-0.06949649	0.286233	-0.20302214	-0.2788366	-0.23238862	-0.3273568	-0.008177814	0.029193765	0.2569399	-0.38964453	0.1665672	-0.022487171	-0.045085236	-0.0009411899	0.37503687	0.083384305	-0.20848764	0.123571225	-0.08422334	0.1128743	-0.13502334	-0.03452373	-0.054450553	0.09782133	0.15324983	-0.09412825	-0.020348607	0.12762558	0.467513	0.14476949	0.115655355	-0.11641466	-0.046575442	0.025408491	0.13555534	-0.13794151	-0.30200562	0.008929455	0.5417738	0.14952506	0.18587153	-0.20700993	0.00016833626	0.014258221	-0.049409833	-0.11932189	0.0035726875	0.14488174	-0.1134915	-0.12557578	0.12802432	-0.18032415	-0.028786883	0.038281716	-0.016415207	0.066515565	0.21934	-0.18901882	0.21315135	-0.036727134	-0.1332368	0.42374098	0.2642084	-0.41019365	0.18556139	-0.13351126	0.06997882	-0.13188426	0.059434358	0.15973175	-0.20254886	0.0511775	0.2540136	-0.20807736	-0.31555226	-0.13884985	-0.15792078	-0.09443664	-0.3359695	0.030553631	0.2296134	-0.32401648	0.06621138	-0.40511924	-0.41068792	0.15811406	0.14806072	0.0013752739	0.10779798	-0.1329316	-0.0659918	-0.01721804	0.21587116	0.062156238	0.0596119	0.014250984	-0.13364278	-0.24877183	0.24836269	-0.2576454	-0.10852991	0.39070526	-0.072506204	-0.3709809	0.19801664	-0.103314	-0.020844556	0.04590689	0.2782136	-0.082742155	-0.24582767	0.035142254	0.073616065	0.13780093	0.0025485798	0.21902831	-0.050995983	0.051875092	-0.21898912	-0.10771331	0.30361465	-0.3234058	0.033509426	-0.39255974	0.18125665	-0.30387288	0.034183	-0.2761242	0.05468433	-0.06208902	-0.07498135	0.20847474	0.1874501	-0.039555393	-0.20955765	-0.19146815	0.15321383	0.15287487	0.08395041	0.039583273	0.0074678524	-0.088790774	-0.047146305	0.2708493	-0.24298391	0.2950845	-0.18984683	0.10095637	0.32505724	0.23102573	-0.054286435	0.107267916	0.13090308	-0.12736176	-0.036894206	-0.17058036	-0.29104045	-0.21688183	0.17529581	0.33155677	0.1240832	0.18946066	-0.13010132	0.27855125	0.054390866	-0.025603488	0.13535571	0.12792869	-0.24810617	-0.3334377	-0.24176382	-0.041107178	0.23492381	0.14323573	0.39019558	0.023261275	0.05066556	0.19089185	-0.27281085	-0.068406016	-0.0079987375	-0.3212871	0.05736263	0.1845288
ADA	0.15463857	-0.10538642	0.29925972	0.08630677	0.122294284	0.2135273	0.02583523	0.01008264	-0.39326555	0.06348295	-0.022487454	-0.16645384	0.07653698	0.07653316	0.17006105	-0.047726426	-0.218294	-0.11863919	0.1736411	-0.17235291	0.37283307	0.07340405	-0.26743945	0.18212149	-0.27771255	-0.55036896	0.2663096	-0.23864248	0.12573649	-0.2621946	0.49186555	-0.18442051	-0.22001196	-0.23158926	0.4460049	0.26034856	-0.2206723	0.02851007	-0.10991341	-0.14194947	-0.19594385	-0.06241188	0.18693186	-0.15417628	0.2450226	-0.07486523	0.043880202	-0.034128666	-0.1190964	-0.14718445	-0.2321397	-0.07827737	0.19537099	0.15640713	0.020920826	-0.052073285	0.13254936	-0.030787325	0.24703267	-0.16681725	-0.22573015	-0.10125463	-0.21099451	-0.04686119	0.012366312	0.041379675	-0.015294551	-0.0629935	0.18797243	0.32913163	-0.13107896	0.45184562	-0.116369374	0.07439177	0.11701011	-0.19887346	0.19790353	-0.059112716	0.08290138	0.2129311	0.05401602	0.058150325	0.16430533	0.012830705	0.24583405	0.060951296	-0.053199533	-0.1526903	0.29332682	-0.17857419	-0.22183435	-0.31663215	-0.23574115	0.14418544	0.14533338	-0.095437594	-0.2319977	-0.29924506	-0.55038154	-0.3564007	-0.07500951	0.35948524	-0.36786667	0.1996706	0.53687346	-0.031159522	-0.027263416	0.17282142	0.095091514	0.12248257	0.00048364012	0.04078756	-0.19893913	0.14836253	0.129963	-0.2087912	-0.04799711	-0.025677828	-0.100386575	-0.0814477	0.38578534	0.06011493	0.03003869	0.06074312	0.1845676	0.24076644	-0.034535807	-0.31973627	-0.066932015	0.12820518	-0.10362582	0.015178838	-0.1597856	0.03675493	-0.31085837	0.48338872	0.1473569	-0.11213179	0.20392522	-0.1471959	-0.17043568	-0.26695397	0.13658676	-0.039177697	0.33015665	0.013850055	-0.23398447	-0.21823327	-0.30397546	-0.13126384	-0.3585098	-0.061547622	-0.041561525	0.18184578	-0.30941236	-0.19661751	0.033640593	-0.33453417	-0.050342564	0.07128439	-0.38842964	0.3262693	-0.00506686	-0.039507244	-0.056392465	0.31588453	-0.13361499	-0.24063331	-0.12908354	0.081848614	-0.037288804	-0.16448128	-0.1794964	0.07273393	0.31144822	0.15874088	0.3679287	0.3937026	-0.18867175	-0.024493426	0.31958824	0.04185322	-0.12414974	0.12008731	0.048265412	-0.15277037	-0.21571134	-0.085170604	0.22995259	0.13720788	0.07157058	-0.19899264	0.10368426	0.112661526	-0.35010988	-0.10047996	-0.094233185	0.085133806	-0.06274028	0.4536579
ADORA2A	-0.09703371	0.2191614	-0.064514145	-0.16772386	-0.0053560077	-0.10946986	-0.38950145	-0.16474022	0.047116145	0.20125638	0.09210375	-0.24096526	-0.072405964	-0.08235224	-0.0893316	-0.26780307	-0.33559242	-0.46770388	-0.109486036	-0.12260291	0.2664949	0.21130346	-0.23279893	-0.020556197	0.24598722	-0.7437118	-0.15655288	-0.03901482	0.33706853	-0.5269575	0.3429971	0.07344312	-0.24414794	0.29752654	0.32880822	-0.08599977	-0.2067663	0.22863546	-0.26456514	0.22009201	0.27760684	-0.18144117	0.35427892	0.3761571	0.34677064	-0.1646635	-0.12013485	-0.32678097	0.034968603	-0.024340523	0.007836242	-0.21377702	-0.26940674	0.06828313	-0.20653158	0.1516498	-0.38531855	-0.05057303	-0.55043554	0.40577027	0.15169178	-0.1701451	0.01730836	0.0465052	-0.15725687	-0.14954546	-0.096115015	0.47574618	-0.0031456153	0.41322663	0.33958885	0.010426452	-0.07509168	-0.33931398	0.016094552	0.11935837	0.2034819	-0.07673406	-0.25499475	0.16148695	0.13268913	0.08562403	-0.30804095	-0.62846607	0.16167317	-0.15930988	-0.36365932	-0.026351279	0.19768496	0.24024516	-0.09090014	-0.059485964	-0.13905853	-0.14515166	-0.027730502	-0.40558502	0.14472939	0.018061467	0.36518747	-0.28710422	-0.15632948	0.3252931	0.3134948	0.10456507	-0.24146895	-0.002076915	0.20017189	0.031968184	0.31739277	0.17685977	-0.514443	0.3936319	-0.24265073	-0.19200459	0.41711435	-0.13477723	-0.02444311	0.19051859	-0.26326543	-0.04017554	-0.07966656	0.07715244	0.11917179	-0.0051395413	0.21324919	0.21939525	0.2475635	-0.21221218	0.046879094	-0.24577625	0.0574856	0.32717487	-0.17551374	0.06947032	-0.18806523	-0.03734306	-0.16918087	-0.4837343	0.21272604	-0.39308658	-0.13976988	0.18119672	0.02808162	-0.0076143146	0.13732678	-0.021082217	-0.13836984	0.3175606	-0.33462945	0.032126088	-0.14176707	0.39507174	-0.06018249	0.1707282	0.011722861	-0.11404539	0.07925834	-0.0014616876	-0.39077252	0.2824486	-0.071266964	0.5642762	-0.40095747	0.25236896	0.3604231	-0.074205235	0.27482808	0.21894872	-0.047525264	-0.30621728	-0.19010597	-0.25212044	-0.047808673	-0.3710682	-0.089281835	-0.06908917	-0.3893935	0.14693777	0.08866834	0.091456145	-0.23407221	0.26912296	-0.06989358	0.3164418	-0.2878483	0.0005143577	-0.30524123	-0.15104553	0.26869285	-0.1580972	0.037540987	-0.5075171	0.07399199	0.45700967	0.08834028	-0.07422739	0.27993897	-0.060712975	0.08461273	0.31783652
ADRA1A	0.018416423	0.064756624	0.088763796	-0.16746706	0.13268329	0.034683242	-0.12911774	-0.047439564	0.23813957	0.21471518	-0.031338204	-0.2093093	-0.22016141	-0.057451252	-0.24479607	0.08399743	-0.15361561	-0.15364878	-0.05845878	-0.2519042	-0.1462194	0.14225447	-0.05010054	0.11243309	0.2357702	-0.39358813	-0.05132966	-0.09273749	0.347504	-0.3495877	0.36340806	0.04991723	0.022397162	0.4525468	0.06377008	-0.030230014	0.16563265	0.05168629	-0.29733256	0.028777324	0.26941815	0.09852894	0.28272265	0.24227159	0.26706237	-0.17053658	-0.24677198	-0.22838497	0.03372173	-0.023721823	0.0726625	-0.11573839	-0.24047299	-0.17807843	-0.18974455	-0.01670901	-0.25526655	-0.24225427	-0.08586469	0.53597146	-0.0540813	-0.111630626	0.062761724	-0.071508035	-0.14665803	-0.16590169	0.395313	-0.09077668	-0.20206653	0.16169696	0.07259802	-0.13670045	-0.09935844	-0.1319529	-0.25847703	0.02793138	-0.022023229	0.0027119198	-0.092067316	-0.056636926	0.14776365	0.03234534	-0.31596524	-0.43407145	0.114550576	-0.6334741	-0.25991744	0.06772307	-0.10954729	0.056526847	-0.1640335	0.11549402	-0.24859548	-0.30660692	0.15234712	-0.19418593	0.15861855	-0.04174203	0.23535164	-0.06218064	-0.183649	0.2330723	0.12818955	0.14909108	-0.085300766	-0.17674561	0.08926998	0.082967535	0.13798892	-0.13729884	-0.21563315	-0.044188417	-0.08701754	-0.054978237	0.24389185	-0.09892436	-0.27363598	0.41707885	0.08008576	-0.35414848	0.03708802	-0.0037270854	-0.013960561	0.16221827	-0.032595094	-0.08325385	-0.27674446	0.00067152106	0.05952468	-0.22076716	-0.04866871	0.29622266	-0.23642364	0.09683908	-0.18966967	0.15020487	-0.02102755	-0.45911157	0.17659265	0.0057051578	-0.34730026	0.10237537	0.22415999	-0.17359966	0.30872217	-0.08901605	0.06308428	0.25527334	-0.056756996	0.29427958	0.05135388	0.108255304	0.03327302	0.06891282	-0.16723025	0.057218105	-0.16918154	-0.025658429	-0.060828336	-0.035710108	0.05657187	0.33556533	-0.4023197	0.18859373	0.21621193	0.04089149	0.41157526	0.37583557	0.011848696	-0.34608042	-0.25336483	-0.22151504	0.1262564	-0.2651704	-0.053963847	-0.16210027	-0.08413285	-0.09103583	-0.18995391	0.05327078	-0.21950582	0.21696675	0.016798241	0.12977849	0.16382867	0.12225016	0.06249577	-0.09301048	0.07121396	-0.18216984	0.41793248	-0.30198452	0.12008823	0.16887179	-0.008499517	0.18786007	-0.19959302	-0.03536487	0.024815029	0.06982876
ADRB2	0.04028801	-0.2283851	0.2154077	-0.48323822	0.0333354	0.031172084	-0.039330475	0.062327247	-0.08599692	0.20171499	0.018944664	-0.47748575	0.19384803	0.3039463	0.0067833723	-0.20060146	-0.062793806	-0.26804867	-0.008011328	-0.37957343	0.05825071	0.38210782	-0.5985871	0.032400593	0.32263786	-0.7330661	0.014696183	-0.17539005	0.2308013	-0.46749264	0.5252154	-0.053538408	0.074253455	0.26819715	0.13879934	-0.1321314	-0.08224863	-0.0527126	-0.182877	0.25779957	0.23417415	-0.20652331	0.58891124	0.2923735	-0.07479097	-0.758261	-0.34400818	-0.14941967	-0.11757909	-0.025826702	-0.18334116	-0.101214774	-0.054694403	-0.19596149	-0.51686984	0.18762937	-0.42393988	-0.17995484	-0.21728075	0.73210067	0.098600365	-0.016140893	0.1263031	-0.06205923	-0.08086596	-0.17033957	0.08895934	0.2972757	0.10660863	0.39240175	0.2784636	0.025679646	-0.30370155	0.0045115636	-0.3933607	-0.30546096	-0.07090046	-0.25097102	-0.18980877	0.088308394	-0.14325681	0.025219904	-0.40368602	-0.50515544	0.19297671	-0.44134006	-0.50238395	0.04793699	0.25693977	-0.08534041	-0.10561321	0.30006465	-0.4472367	-0.37623304	0.4806245	-0.13791203	0.27850756	-0.31650147	0.31047443	-0.15133391	-0.33957016	0.3775807	0.17315157	-0.086797625	0.11410309	-0.15881778	0.16010825	0.06709011	0.25649568	0.0008179966	-0.2963901	0.10264837	-0.0181193	-0.0837728	0.3521984	0.053694237	-0.12162768	0.43443102	-0.24872357	-0.2906527	0.20238385	0.10415611	0.06041977	0.15063408	0.053404078	-0.29005313	0.25023302	-0.5014743	0.22687642	-0.19734643	-0.034169625	0.10320208	-0.5872157	-0.027298681	-0.11938273	-0.043091338	-0.07232623	-0.3126642	0.42175227	-0.27495855	-0.16167015	-0.06709947	0.3751507	0.08570041	0.16188428	0.1883411	-0.048292525	0.22941604	-0.35883793	0.18328059	0.068187974	0.5197862	-0.0023316003	0.34160134	-0.16831948	-0.21434098	-0.021067116	-0.41076764	-0.34626716	-0.04343279	-0.31586424	0.55801296	-0.5269744	0.44401515	0.34469122	-0.014249149	0.33389655	0.32702222	0.1946158	-0.485399	-0.19003148	-0.31556135	0.2180727	-0.5441425	0.10079801	-0.14679366	-0.15597276	-0.30006415	0.06945753	0.29376173	-0.18411529	0.062093787	-0.25298527	0.19068886	-0.087406956	0.104885936	-0.022644823	-0.05915535	0.61256963	-0.3822085	0.15393895	-0.30854344	0.20752479	0.102431916	-0.059309334	0.15898006	-0.09076012	-0.12354259	0.049759258	0.5239645
ADRB3	-0.031757377	-0.22190887	0.07228108	-0.36265838	0.034588274	-0.1568264	0.1378462	-0.06389317	0.13959081	0.34380302	-0.15429953	-0.2705644	0.014671798	0.59024054	-0.01973447	-0.021787284	0.037705753	-0.18955065	0.06226011	-0.5042236	0.21477443	0.3393214	-0.46103558	0.012650722	0.34069958	-0.80675226	-0.24510936	-0.17519112	0.2915774	-0.39884722	0.3438086	-0.0021321888	0.0012722492	0.05502766	0.34782657	0.22772881	0.064515404	0.0053197118	-0.35848102	-0.11185168	0.15749371	-0.382268	0.13882461	0.15943101	-0.049463607	-0.61521345	-0.27079457	-0.20742261	-0.2064513	-0.2581063	-0.082713164	0.08888276	-0.03397361	-0.025405182	-0.42169997	0.44226092	-0.575114	-0.60653853	-0.30463174	0.49149573	0.0056080213	-0.18490852	0.49299726	-0.06285188	-0.05065971	-0.12842388	0.41145575	0.28915054	-0.15693505	0.123323366	0.39479274	-0.09106013	-0.5902687	0.13515028	-0.4844471	-0.13182157	-0.0041966145	-0.25577182	-0.088481314	0.041125994	-0.03433225	0.08055475	-0.48229274	-0.7494348	0.2634871	-0.70975155	-0.16454497	0.05628003	0.4311248	-0.28342548	-0.17474891	0.08565673	-0.38136157	-0.27513662	0.15506439	-0.41624376	0.4513237	-0.48634875	0.38167164	-0.085522905	-0.24317756	0.58570176	0.20640294	0.10354558	-0.19960815	0.026976913	0.38188818	0.16505323	0.7742978	0.15142693	-0.42776015	0.026540155	0.2186442	-0.16218778	0.47835568	-0.17009598	-0.23617995	0.5886821	-0.32772806	-0.6467235	0.056164265	0.059121564	0.060248245	0.36308455	0.057415586	-0.25374937	0.5701767	-0.2851722	0.28286827	-0.07730054	-0.06995714	0.08624568	-0.34623393	-0.08599523	-0.24312662	-0.19782081	-0.3471478	-0.113103725	0.5762103	-0.22971755	-0.41010502	0.034766372	0.13894461	-0.0243469	0.22434078	0.14362925	0.05415898	0.004856581	-0.18914026	0.16543786	-0.21481964	0.49576795	0.14803572	0.2538174	-0.4398711	-0.4240378	-0.29428366	-0.27413076	-0.24706188	-0.07241201	-0.31624052	0.2783556	-0.6169061	0.23360236	0.335548	0.08180261	0.4943184	0.5606009	0.102512635	-0.5954021	-0.19302407	-0.30163652	0.41644207	-0.2119419	0.19989242	-0.1147644	0.2101291	-0.55283207	0.15963726	0.36022198	-0.46947563	0.3136965	-0.4272085	0.32722092	0.090051815	-0.099018	0.32952142	-0.14806026	0.23360664	-0.34385332	0.48372352	-0.4782378	0.35626537	0.1464793	-0.2965919	0.108816095	-0.15082312	-0.07798838	-0.053934284	0.27604768
AGTR1	0.06961768	-0.33358222	0.16367657	0.017030114	0.37616503	0.08201565	-0.058623362	0.10386489	-0.028850494	0.29852936	-0.13589875	-0.4386914	0.16513725	0.1899896	0.16047633	-0.2418498	-0.14194667	-0.41189826	-0.11603177	-0.34151343	-0.02397519	0.3631251	0.08829304	0.07888741	0.18242694	-0.6105998	-0.08743327	-0.38308626	-0.28919536	-0.31182286	0.30310348	-0.0070179794	-0.17511064	0.3800556	0.13721475	0.07056643	-0.038245235	0.13450192	-0.04889439	0.2714215	0.104494415	-0.37739635	0.32908067	0.31053287	-0.12095515	-0.41923752	-0.022874339	-0.15827657	0.027575279	-0.19768639	-0.51706606	-0.05746019	-0.2862975	-0.09407751	-0.17394473	0.17299432	-0.2667239	-0.343234	-0.22718273	0.7942924	0.45658892	0.07758478	0.32815388	0.19491863	-0.22538468	-0.3422929	0.065286934	0.4170848	0.056717638	-0.08720308	0.3012332	0.34347188	-0.2729407	-0.2148129	-0.1940396	-0.17761473	0.10565303	-0.22813644	-0.34537128	-0.034014333	-0.17496711	0.016970348	-0.41131195	-0.6390317	0.32322788	-1.0431205	-0.5175325	-0.1416532	0.105114	-0.18464793	0.07698633	0.26329866	-0.35395753	0.14015208	0.0590635	-0.5066761	0.20401457	-0.07118584	0.09986538	-0.41967312	0.11609252	0.21837133	0.108965956	-0.2886026	-0.27082294	-0.19264485	-0.16990755	-0.02107859	0.3827652	0.27536452	-0.14228176	-0.29737583	0.3058776	-0.35927182	0.40415165	-0.13388424	-0.35129255	0.6588732	-0.044268996	-0.4295478	0.22018422	-0.14650722	0.04413401	0.49384803	0.44516045	-0.060876053	-0.017754361	-0.3548766	0.10161324	0.12714462	0.007119213	0.30007505	-0.42918625	-0.2185146	-0.22136062	0.16101561	0.6026191	-0.11766143	0.3809744	-0.2809002	-0.34817687	0.038917843	0.069029085	-0.119348176	0.19073926	-0.09101941	0.14489315	0.12364861	-0.15820828	0.08098021	0.13744925	0.2799785	0.18950766	0.19086285	-0.26175195	-0.15849221	-0.43245992	-0.45979676	-0.22878306	0.23264611	-0.21683004	0.5319744	-0.4327927	0.4913912	0.10130104	0.56629276	0.7134641	0.29335877	0.22940405	-0.49135292	-0.30295056	-0.19146699	0.3877212	-0.30816254	0.025279438	-0.18754351	-0.45553663	-0.19538523	-0.11230591	0.41209003	-0.6715282	0.595949	-0.40555817	0.3599168	0.07158064	-0.13072187	0.11853307	-0.1254639	0.73462707	0.0968635	0.48886815	-0.14266218	0.32231423	0.06677991	-0.09037775	0.15265457	-0.16539486	0.15473244	0.06452006	0.31400025
ALDH2	0.08362653	0.023474691	0.3058729	-0.14416055	0.110701546	0.35923776	-0.2374368	-0.08334385	-0.026434066	0.22904362	-0.6034788	-0.3082486	-0.12025501	0.11710535	-0.05614654	-0.10671074	-0.2819325	0.17531377	0.101041704	-0.037098724	-0.029554589	0.074005984	-0.28707376	-0.2768906	0.17786965	-0.36277574	-0.09209382	-0.6132567	0.119057864	-0.1324483	0.016135216	-0.16798286	-0.36899328	0.0370067	0.14373603	0.06921621	-0.13401714	0.1954806	-0.059659928	0.07325898	0.1757286	-0.3977404	0.47692975	0.09059896	0.12377371	-0.2576621	0.05168908	-0.15644975	-0.46527034	-0.051600732	-0.31317627	-0.14299351	-0.32538316	-0.023034066	-0.5207518	0.024194947	0.16058783	-0.1965834	0.27098998	0.06444904	-0.35947993	-0.07459542	0.012013285	0.026520316	-0.36745164	-0.2436628	-0.34494865	0.30482772	0.2793421	-0.13103339	0.044709884	0.10788611	0.13743307	-0.16270271	-0.0150987385	0.36682317	-0.01787164	0.06486377	0.16956383	-0.055054855	0.25439832	0.19309193	-0.24493214	0.083432145	0.39444637	-0.10656835	-0.18440972	-0.17184888	-0.1045551	0.02922665	-0.066872194	-0.12925683	-0.15733017	-0.10877366	0.12876266	-0.16672279	0.4289641	-0.08673047	-0.54941326	0.08562132	-0.1555516	0.5043935	0.2512926	0.20054363	-0.5764697	0.09182273	-0.012334872	0.003839291	0.07456732	-0.017834142	-0.16013359	-0.027906593	-0.14359193	-0.30292085	0.25312376	-0.06737114	-0.2331323	0.37614548	-0.21117952	-0.08565431	0.43388247	-0.19479297	0.053801913	0.0503486	0.2976051	-0.1527869	-0.06274617	-0.30317548	-0.16687748	-0.14157295	-0.15914017	0.0021055706	-0.36432052	0.1548923	-0.3851398	-0.15706521	-0.14534533	-0.17651547	0.41136864	-0.2690695	-0.3839392	0.09905846	0.10532865	0.024640998	-0.2881751	0.27183032	-0.34224856	-0.26246554	-0.16771388	0.046879847	-0.14119689	0.023302425	-0.080940105	0.20117699	-0.1889756	-0.0049525187	-0.16360733	-0.5043034	0.0013797466	0.27469155	0.07438354	0.23936762	-0.44690824	0.07687542	0.22759491	-0.21816248	0.39634648	0.4005969	-0.24182905	-0.31160912	-0.18331458	-0.27959058	0.014740228	0.031838186	-0.10069384	-0.23744982	-0.044641472	-0.18741605	-0.18455766	0.17341956	-0.1486526	-0.21947545	-0.015726358	0.006927312	-0.16266383	-0.09928256	0.33487847	-0.14458428	0.14184698	-0.03765423	0.26206926	-0.21743558	0.2000834	-0.04787427	0.055748142	0.029816598	0.0725077	0.04935907	-0.30843914	0.3642399
ALDH5A1	-0.053147197	0.06658965	0.121059224	-0.23794606	0.048507363	0.18993591	-0.3235201	-0.3303588	-0.13824548	0.1901025	-0.61760867	-0.5779821	-0.17524265	0.043433994	0.057773203	0.007042857	-0.105622806	0.24154839	-0.07743613	0.087852776	-0.082099475	-0.12344275	-0.16244163	0.049798567	0.1483493	-0.24399477	0.019985404	-0.13284865	0.27616644	0.002502983	0.38809332	-0.082305595	-0.37256938	0.11762207	0.042257767	-0.032203417	-0.08722187	0.10361868	0.16055305	0.024802562	0.13627058	-0.3862076	0.30576447	0.31609803	0.517416	-0.110713005	0.035933163	-0.1824118	-0.39020488	0.06245439	-0.086312935	-0.3497067	-0.29494965	0.2872073	0.1722799	0.089789465	0.2199318	0.024236154	0.18369257	0.12527971	0.14424357	0.11454173	-0.0929881	0.07316862	-0.0049748975	-0.12947217	0.030122967	0.4644512	-0.0023442195	0.02873225	-0.034967802	0.084002994	0.030211184	-0.31264874	-0.089334436	-0.17233886	0.1203591	0.11829866	0.07822545	0.08565066	0.32185596	0.0062229955	0.039946914	-0.21626647	0.037024375	-0.05896336	-0.12582143	-0.13674939	-0.1499324	0.24947163	-0.11641257	-0.005596212	-0.22779103	-0.0011340274	-0.01872753	0.016800689	0.33234215	-0.15651576	-0.0757733	-0.09149527	0.027237913	0.41512814	0.15016493	-0.019550687	-0.46130937	-0.06968762	0.05727271	0.07206772	-0.002087996	-0.34630713	-0.16239432	-0.092168726	-0.14659813	-0.35569516	0.42079648	-0.025459914	-0.011580766	0.2992163	-0.29230964	-0.00886045	0.071064696	0.071643814	0.12686218	0.09212142	0.0844684	-0.08869801	-0.12934627	0.0012911701	0.12027615	-0.3140462	-0.06747743	0.19324817	-0.19420615	0.15454572	-0.051700998	0.17793149	0.4803457	-0.2389168	0.5605494	-0.0824318	-0.25178468	-0.09067955	0.26604402	0.03012167	-0.18424594	0.1092971	-0.03911443	0.09348429	-0.03318664	0.17923795	-0.027313517	0.2585335	0.04871523	0.072640985	-0.062849835	0.12722023	-0.2417693	-0.22484481	-0.008672605	0.07429033	-0.05811059	0.43138313	-0.40967673	0.17306058	0.2770332	0.03362008	0.17859462	0.21501048	-0.12718198	-0.2726493	0.048069995	-0.31170276	0.07851825	0.011428949	-0.34695053	-0.09521106	0.0135784075	0.17479362	-0.09276928	-0.016675722	-0.19548598	-0.10990552	-0.08149244	0.23575537	0.13326278	0.28058586	-0.052508518	-0.15521227	0.29338402	0.09343562	0.26348007	-0.027844597	0.1973575	-0.045318555	-0.13239637	-0.27903402	-0.16871864	-0.21789148	-0.24236608	0.078475714
ALK	0.026525151	0.17542563	0.53130203	0.4407724	0.25699943	0.053079665	0.10438548	-0.1721029	0.17902836	-0.11188561	-0.15711457	-0.5612797	0.3383	0.30999303	-0.023480643	-0.019023985	-0.08109707	-0.16219264	0.50819397	-0.13418405	-0.3252739	0.012513802	-0.25515258	-0.0786902	0.049061622	-0.5629857	-0.4415965	0.14104459	-0.013526191	-7.600654e-05	-0.28898254	0.18068428	-0.18798013	0.1682766	-0.03370102	-0.3230575	-0.4110164	-0.14583844	-0.45233873	-0.16295758	-0.073153645	0.051548865	-0.34912455	0.24641432	0.24566618	-0.0973647	0.076092064	0.30835333	0.16422878	0.15439166	0.26496238	-0.13344608	0.0036498632	-0.08011495	-0.057391025	0.16525446	0.31597936	0.042380683	0.09071675	-0.080741554	-0.12286632	-0.044671718	0.30750054	-0.25763127	-0.19122554	0.25505632	0.35323042	-0.097360335	-0.052160583	0.40930673	-0.0605855	0.2051942	0.09224992	-0.30014294	-0.12214911	0.2960511	-0.34864154	0.48765498	0.15667674	0.024988433	0.14891867	0.052201103	0.024254968	0.03439706	-0.2438939	-0.060755957	0.080524415	0.119223915	0.37348926	0.19588341	-0.024244558	-0.12598915	-0.1411519	-0.3906081	0.020661755	-0.4976866	0.2126461	-0.016977957	-0.03360413	-0.33881995	0.64498246	0.12860428	0.011281659	-0.43590254	0.3549864	-0.21182846	-0.13536179	0.112325564	0.17802222	-0.11115797	-0.11530665	0.13694653	0.08554439	-0.3276544	0.08184955	0.1520364	0.14281893	0.07425113	0.11816528	-0.38374355	-0.26127678	-0.16376735	0.20812236	0.053936306	0.013963768	0.15198311	-0.14650738	0.06745297	-0.23683001	-0.41772497	0.22241732	-0.0630318	-0.4230029	0.23273711	-0.3187921	0.17100096	0.25778437	-0.06689072	0.1745795	-0.058876295	-0.16490707	-0.2527108	0.25678626	0.04322876	-0.2740072	-0.114591345	0.05045573	0.081070386	0.061907597	-0.036621585	0.14812963	-0.16409142	-0.18959388	-0.29354826	-0.384703	0.0614068	-0.105970666	-0.32658806	-0.35402188	0.037412383	-0.38471305	0.021967255	-0.29932204	0.0496013	0.10026913	0.07346027	0.036782105	-0.26021507	0.16276786	-0.39735368	0.35234064	-0.5171484	-0.5887034	-0.07256629	-0.18436192	0.19787186	-0.39347786	0.17785525	-0.0004892901	-0.2164033	0.20017773	0.108593896	-0.116581336	-0.11089829	0.21242623	-0.049569592	-0.12060981	0.00996225	0.14615692	0.0945501	-0.23556906	0.10386215	0.3361495	0.15489939	-0.26308247	0.20078573	-0.027404157	0.25822586	0.0573827	-0.01119639
ALOX5	0.05602647	-0.015433215	0.07218171	-0.26663375	-0.17967004	0.19822457	-0.17663938	-0.3489269	-0.09779679	-0.24335209	-0.46667057	-0.57762635	-0.04937729	0.25280863	0.0580739	-0.06710837	0.26108196	-0.17868884	-0.09054188	-0.12596226	0.046534516	0.15290385	-0.27713454	-0.20599818	0.18403713	-0.65429133	0.01508696	-0.210044	0.14440908	-0.49241608	0.32118466	0.2574336	-0.10892106	0.18633656	0.15085828	0.03468651	0.09242116	0.032380924	-0.12421078	0.23208836	0.28249303	-0.3111005	0.17813009	0.3788625	0.06110802	-0.4177264	-0.61018187	-0.317941	-0.48402902	-0.12127934	-0.24365269	-0.31249693	-0.30545756	-0.04698345	-0.47441465	0.5510303	-0.37092668	-0.4250616	0.071054935	0.67128533	0.5237327	-0.2044812	-0.19925137	0.15089451	-0.035104927	-0.47855672	-0.0684855	0.12426866	-0.19958916	-0.20686825	0.060025547	0.077703826	0.050122507	-0.29107162	0.10411048	-0.24936734	-0.08645317	0.08028475	-0.093352325	0.08680221	-0.008121036	-0.018306078	0.005727153	-0.37261286	0.1437816	-0.37205634	-0.24726495	-0.35667896	0.39612162	-0.08209797	-0.32211885	0.05109689	-0.1426387	-0.30355385	0.02920945	-0.3031862	0.122680336	0.14062785	-0.06329476	-0.10359378	-0.18560268	0.7458886	0.15987557	0.058941003	0.4559025	-0.3769167	0.27440467	-0.083904505	-0.112328395	0.38931817	-0.3158106	0.09808377	0.11050569	0.045952745	0.30420592	0.057342082	-0.27822608	0.29336405	-0.2721439	-0.24954225	-0.16162162	0.1744105	0.14582367	-0.08090854	0.11016308	-0.4197319	0.16786854	-0.17065582	-0.025441619	-0.41693625	-0.11342609	0.32182467	-0.47594917	-0.07887628	-0.4083797	0.32786554	-0.24161585	-0.5766875	0.4549917	-0.12698442	-0.1397013	0.4207672	0.0543592	0.07766694	0.14775723	0.020024762	0.18575862	0.16942325	-0.27001095	0.16357735	-0.175982	0.44352487	-0.009942029	0.1578846	-0.24202916	0.2247948	-0.23412979	-0.17115057	-0.118733674	0.051194556	-0.102041185	0.50779325	-0.48544112	0.40766412	0.23794477	0.17325784	0.37019855	0.14237408	0.0047349897	-0.104860835	-0.23790373	-0.17275421	0.11006901	-0.040038574	-0.08348622	-0.28486207	-0.30450314	0.06744448	-0.27851766	-0.051987637	-0.16456701	0.032457978	-0.13333435	0.28502992	-0.11526519	0.0007319765	-0.13873082	-0.05827601	0.4669158	-0.15919067	0.15079471	0.02266289	0.012679134	0.29774094	-0.07679888	0.03055873	-0.10633067	-0.038813487	0.11383503	0.07232837
AMY2A	0.2058625	-0.08301482	-0.020783614	-0.066174984	-0.32487753	0.22094324	-0.15286686	0.12668818	0.015893953	-0.2294527	-0.27035484	-0.10401885	-0.040619195	-0.38528857	-0.5223042	0.082890995	0.014747578	-0.21448423	0.31162417	0.07777361	-0.48197496	-0.30893663	-0.015124819	0.20782895	0.17418559	-0.2605256	-0.24306354	0.085325114	0.36208594	-0.52237743	0.15884733	-0.01801869	0.01165364	0.1538475	0.1869516	0.10535368	-0.27349716	-0.042675234	-0.11777108	0.149248	0.18073606	-0.26584077	0.019620294	0.23992686	0.12184093	0.010755164	0.06154145	-0.4178638	-0.24800916	0.3450512	0.21010087	-0.20137098	-0.05543771	0.17060179	0.22051741	-0.056267608	0.24100527	-0.24962509	-0.11744827	0.24386127	-0.042997897	-0.19156426	0.28939763	-0.07372415	-0.40342224	-0.0059849108	0.20628092	-0.009313578	0.12343208	-0.024839211	-0.05030391	-0.07892511	0.14674352	-0.25746453	0.037442762	-0.057358928	0.023995535	-0.024528395	0.25165117	-0.25659946	0.33007827	-0.18879966	-0.04152293	-0.06806373	0.19104043	-0.10089974	-0.1601014	-0.21710135	-0.015099453	0.08968959	-0.06037595	0.09463081	-0.32743287	-0.2834363	-0.03305309	-4.019431e-05	0.45122102	0.26251146	0.2219268	0.013130926	-0.15698767	0.11931099	-0.17643708	-0.07882668	-0.37022206	-0.2616547	-0.17053342	-0.12668532	0.20505981	-0.06268022	-0.58147717	-0.14026786	0.30862585	0.09840917	0.3292741	-0.0025071986	-0.013880739	0.06437525	0.16165234	0.13054301	0.005752506	0.0042161257	0.36328393	-0.37464452	-0.45276913	-0.2626266	-0.071420826	0.047850527	0.048815824	-0.21802945	-0.03529313	-0.035887696	-0.58535385	-0.0040039592	-0.3192438	0.101091065	0.16379781	-0.6283673	0.1836811	-0.22612022	-0.41621885	0.01169308	0.2056524	0.014000149	-0.31300855	-0.330827	-0.04847419	0.32587135	0.10383307	0.18485075	0.05914487	0.34651494	0.13557091	-0.13152051	-0.19362113	0.31814906	-0.19369523	-0.04430696	-0.19933502	-0.15352604	0.21868613	0.19654128	0.060339883	0.2518506	0.44539556	0.22909003	0.09990208	0.12500533	0.43093657	-0.19034481	-0.22534163	-0.2632839	-0.49899665	0.10490193	-0.31511694	-0.38781485	-0.16488992	0.10014679	-0.40232706	0.020399928	0.012016467	-0.15225823	-0.28719535	-0.020046778	-0.027608512	0.14736715	0.047274515	-0.24807958	0.13463673	-0.128959	0.36064273	-0.042330477	0.09528605	0.16530597	-0.17411026	0.011444235	-0.046444587	-0.013505342	-0.25220534	-0.5438129
ANO1	0.14093496	0.23794621	-0.119414546	-0.121750176	0.13909239	-0.2291826	0.08951689	0.10240568	-0.09144651	-0.6912617	-0.25123242	-0.15200448	0.108110026	-0.31066397	0.16767257	0.056392662	-0.36449426	-0.2822052	-0.2322743	-0.2814835	-0.20539749	-0.17502618	0.077422015	-0.27335462	0.021406202	-0.44866037	-0.30700853	0.2965164	0.44437736	-0.0445866	0.41278267	0.24875462	-0.059628706	-0.058634445	0.18538418	-0.11285421	-0.37991473	0.3510121	-0.13892263	-0.21675566	0.2574808	-0.40270904	0.12910151	-0.124382384	-0.08311719	-0.050324034	-0.36568123	0.0126882605	-0.24240112	-0.14741784	-0.46626016	-0.4428599	-0.23607163	0.09956991	-0.2639947	0.25916815	0.3053027	0.036347117	-0.16800746	-0.058980044	-0.014285495	-0.020073552	0.11130749	-0.11964383	-0.4007866	-0.022407537	0.27480856	0.2030383	-0.20635709	0.06202311	-0.057030432	0.09181308	0.28474727	-0.01910709	0.21292345	-0.04407847	-0.06547575	0.7650031	0.44591334	0.19481339	0.15543945	-0.05346828	0.06986523	-0.19733894	-0.2920175	-0.11241263	-0.48864093	0.22506379	0.06908257	0.05592099	0.20081651	0.39169627	0.15339667	-0.18287869	-0.24462709	-0.76925695	0.45166478	-0.07108902	0.08461545	0.19818695	0.017965773	-0.014480313	-0.009034869	-0.11458041	-0.2594597	-0.22670902	-0.24393836	-0.08050632	-0.16069704	-0.014002366	0.10824551	0.15113091	-0.18905655	0.012241472	0.14594233	-0.13318129	0.19515286	0.33861583	0.10617875	-0.034860913	-0.03909364	-0.025523534	0.41988814	-0.2472912	0.13420777	0.3598018	-0.022881087	0.21583612	-0.31227913	-0.3882815	0.0040463256	-0.07299859	-0.16889824	-0.115060516	-0.2487475	0.07985366	-0.042796608	-0.15618871	0.357022	0.16202608	0.04399343	-0.010477026	0.03637468	-0.00826191	-0.08828098	0.05510807	0.35945463	-0.20136474	0.16179457	0.061974876	-0.11499748	0.23143731	-0.25947353	0.19657388	0.19176555	0.02760946	-0.43763778	-0.2607765	-0.18886569	0.00120878	-0.07376405	0.010086206	-0.0016744129	-0.030736541	0.35365963	-0.26080647	-0.01912159	0.095864296	0.24585824	-0.4111929	0.07410153	-0.301024	-0.58293253	-0.16123185	-0.18140824	-0.08556947	-0.26132643	-0.059156314	0.15469499	0.083317965	-0.3480509	-0.19009538	0.15070044	0.09937452	-0.11231338	0.22998157	0.050171588	0.13222173	0.27888998	-0.12799895	0.02971474	-0.024102595	0.38342246	-0.06899806	-0.048923545	0.22968863	-0.13719884	-0.26638255	0.14434244	-0.052665923
AR	-0.024663167	0.20358825	0.24251716	0.117414795	-0.004442142	0.022514308	-0.117663376	-0.24709964	-0.17082539	0.16013405	0.042874217	-0.1529022	0.38313383	-0.01589962	-0.0068766777	-0.1964085	-0.066584185	-0.21030611	-0.1282409	0.0012784408	-0.37070963	0.0065905266	-0.072227664	-0.21522196	0.30053726	0.076076314	-0.23709886	-0.05380262	0.04573621	-0.1412124	0.05506873	0.03378266	0.052201215	0.027853683	0.08068332	-0.08969446	-0.090969145	0.0001999784	-0.06987771	0.013226823	-0.3115178	0.14073141	0.08955374	0.21023507	0.03179776	-0.20218773	-0.20577243	-0.06555604	0.18117115	-0.16495341	0.080908634	-0.12929492	-0.13465415	0.08905585	0.02195248	0.013009748	0.1744058	0.060038492	-0.16485754	-0.05483821	-0.22151741	0.07106341	0.0545435	0.099107414	-0.24222282	0.016490532	0.0315931	0.1667585	-0.25883526	-0.046082623	0.08140686	0.035371985	-0.09204034	-0.0023280864	0.020912895	0.122722805	-0.0021089138	0.12919113	-0.16947532	0.085785285	0.024616698	0.09709996	-0.077731624	0.026328553	0.17053401	-0.06628429	-0.24981685	0.10500768	0.2801348	0.026746586	-0.26436788	0.09981841	-0.12589443	-0.045334835	0.1759035	-0.0918895	0.08626984	-0.1650304	0.09767336	0.12719359	-0.19092238	0.09832303	-0.008843461	-0.05121395	-0.030737368	0.06338629	-0.011933985	0.36276492	0.18748689	0.05708347	0.027250838	-0.013448974	-0.23006234	0.13608679	0.12274884	-0.16628149	-0.14892913	0.009289814	-0.34947124	-0.37637222	-0.06745624	-0.012466865	0.04995004	-0.048866592	-0.06296947	-0.089680694	0.09597347	-0.20845759	0.0016532562	-0.2174098	0.03773747	-0.015970241	-0.03335845	0.1373045	0.01797832	0.32262722	-0.11603988	-0.23780054	0.17424993	-0.0032574798	-0.027047338	0.074555136	0.20057456	-0.09854554	-0.025332894	-0.04059747	0.010872699	0.04640467	-0.1664618	0.051761426	-0.0030637695	0.15626444	0.050890416	0.0835411	-0.16247219	0.024056263	-0.079590134	-0.260848	-0.09429242	0.18526423	-0.16301326	-0.11123348	-0.1399236	0.11183956	0.21376255	-0.039278448	0.015743924	0.09202746	0.08133428	-0.050012067	-0.12021498	-0.3086254	-0.2119766	-0.23739988	-0.15147251	-0.10557794	0.025080603	-0.08922525	0.09562304	0.00019622949	-0.34717625	0.2351889	-0.10341551	-0.11703493	0.036398325	0.0062973443	0.17491543	-0.24650155	-0.10452423	0.0593162	-0.057212148	-0.0736006	-0.012097046	0.032284845	-0.07965078	0.12465384	0.1965861	-0.06534362	-0.050999176	-0.18873733
ATP1B3	0.16521993	0.034163155	-0.006317452	0.041280586	-0.0010418517	-0.1409938	-0.006288143	0.07187742	0.088992834	-0.12526074	-0.040411573	-0.20258537	-0.080669686	0.018283645	0.05519673	-0.11336877	-0.12822773	-0.07932277	-0.04331077	0.010132668	-0.0897704	-0.05681162	0.056245644	-0.05829169	-0.021485636	-0.11791886	-0.06522054	0.049475767	0.106191166	-0.11214418	0.12921108	-0.06155446	-0.059048958	0.22353286	0.08392692	-0.024330243	-0.047192775	0.039517637	-0.035029285	0.06794976	0.0110157095	-0.18455471	0.15203966	0.10835227	0.213416	0.1037803	-0.083243385	-0.1680539	0.01250295	-0.029723758	0.058441788	-0.06267126	-0.052958246	0.039434243	0.11586354	-0.097249664	0.11267906	0.0059711044	0.04764407	0.12733763	0.0035869344	-0.059639536	-0.029739954	0.043341815	-0.08903614	-0.10178093	-0.041368887	-0.14364022	-0.15333134	-0.12806377	-0.118843794	-0.06021227	-0.008556404	0.0021966107	0.0038374586	0.14989224	0.00014197975	-1.9704807e-05	0.064057	0.07492266	0.08737121	-0.18004526	0.039600316	-0.16642447	0.10469568	-0.055216298	-0.103232995	-0.003642366	0.041878108	0.12216534	-0.11845173	0.26211566	0.08566373	-0.21634974	-0.14675619	-0.14095618	0.055222113	0.012906057	-0.105234355	0.044904567	-0.023762003	0.07447402	0.024147749	0.017015519	-0.09049942	-0.16776304	-0.0187633	0.10537853	0.110790186	-0.20784551	-0.18193643	0.04586737	0.034007158	-0.013085877	0.038304932	-0.11835603	-0.17904876	0.051948518	0.025712525	-0.12178213	0.06079892	0.22092779	0.18426687	-0.097711705	0.100727655	-0.037680585	0.15642646	0.04863137	-0.1169572	0.028472466	-0.042356037	0.07500229	-0.18313599	-0.022292556	-0.05168771	0.08431722	0.10808664	-0.17699334	0.07482011	0.0074971314	-0.22001061	-0.08611713	0.0025901766	0.04026303	0.07472766	-0.021355916	0.110325165	0.21737885	-0.068117395	0.005893696	0.010349893	0.24840502	0.033861626	0.0993943	-0.08312355	0.02398003	-0.12596498	-0.053170044	-0.063823245	-0.010967135	0.06311991	0.13994771	-0.0951942	0.14965713	0.13345931	0.048660044	-0.024058502	0.039674193	-0.05018982	-0.06060731	-0.09418013	-0.0957789	0.003947666	0.06220829	-0.13821605	-0.09161937	-0.23533906	0.04609283	-0.012482465	0.08321249	-0.12735288	0.008217783	-0.20236085	0.08963953	0.04506456	-0.020952199	-0.03597279	-0.030946242	0.08632316	-0.21346302	0.097401515	-0.036182884	0.05266693	0.10402773	-0.040698994	0.19146007	-0.050382227	0.18420458	0.0524055	-0.07198403
ATP4B	0.2795565	0.026925717	-0.1626393	-0.021057222	0.06582257	-0.04856296	-0.029927436	0.1313498	-0.05391188	-0.067554474	0.039817363	-0.26535437	-0.018391142	-0.028032018	0.026299452	0.059353746	0.084880434	-0.045440253	0.06564267	-0.04374273	-0.18922974	-0.060905304	-0.07583356	-0.03743156	0.11802352	-0.12468306	-0.083327055	-0.01876764	0.07796291	-0.1485766	0.0764216	-0.081993915	-0.11160824	0.1898917	0.112704046	-0.023301123	-0.14612013	-0.032193772	0.016342292	0.07361617	0.017968802	-0.13958003	0.1147698	0.047580108	0.23890333	0.09494922	-0.06745786	-0.084988646	-0.119333595	-0.051180374	0.037756465	-0.09455541	-0.052741513	0.07874037	0.03353712	-0.041471574	0.065417595	-0.03188425	0.015754262	0.22542995	-0.048141614	-0.123470694	0.11622668	-0.11771694	-0.08156764	-0.18280222	0.0302437	0.08892057	-0.09737286	-0.058149915	0.0011888207	-0.0065699355	0.045378022	-0.14977099	0.010975077	0.07679492	-0.04458589	0.0009715156	0.015112133	-0.03365715	0.009363217	-0.04286384	-0.15624501	-0.09840465	0.008326441	-0.15642267	-0.041720804	-0.006809295	-0.04504164	0.013772811	-0.059049673	0.17232145	-0.15103471	0.00030781375	-0.031032905	0.035477556	0.12403089	0.17532787	-0.037223134	-0.07803982	-0.120310076	0.17656142	-0.05574009	0.03430456	0.06738097	-0.10621956	0.0553801	-0.054573014	0.038281813	-0.07388069	-0.18187521	0.16338703	0.04551795	-0.035483763	0.2929277	0.053756993	0.070482895	0.103083335	0.0036349015	0.08904713	0.031038022	-0.041813303	0.20568903	-0.0042348127	0.07365474	-0.04119151	-0.088476956	0.024709778	-0.0031661938	-0.1753731	-0.014482627	0.035385698	-0.042727143	0.10137996	-0.06637463	0.12196353	0.11093617	-0.15645602	0.072621174	-0.13928193	-0.13740572	0.043352462	0.22774929	-0.048248496	0.09728902	-0.09506549	0.05309295	0.1848656	0.06887129	-0.01119253	0.054021895	0.24529539	0.08528362	0.090289906	-0.21116507	0.009114059	-0.075804524	-0.24293613	0.083712645	0.1852592	0.020979233	0.12868191	-0.028049758	0.17568745	0.099679574	0.045895856	0.061995443	0.012366079	0.09401403	-0.11950646	-0.124324866	-0.02250679	-0.054374322	-0.18596312	-0.010817534	-0.03033913	-0.17210852	0.1290831	-0.037419442	-0.05104015	-0.20465288	-0.003317138	-0.08356262	-0.008016129	0.14725293	0.13992092	-0.07201227	-0.102226354	-0.026854299	-0.19562449	0.05529262	-0.011327319	0.013400359	0.12837516	-0.09309323	0.019252038	0.024329118	-0.046186987	0.017432056	-0.10492987
AVPR1A	-0.15787028	-0.10199253	0.1765336	-0.27592635	0.08910566	-0.0025265876	-0.23176754	-0.46582156	0.034756098	0.21107052	0.00052531745	-0.23408082	0.10564382	0.094250426	0.102154784	0.06441434	-0.26182875	-0.17961352	-0.02584605	-0.059592035	0.12232855	0.22694549	-0.23589869	-0.06456751	0.16563249	-0.45508307	-0.026955826	-0.06972116	0.17222951	-0.15339169	0.16187751	0.11029663	-0.24547121	0.23376754	0.34086117	0.019803196	-0.11179651	0.1741252	-0.25930738	0.29811752	0.31478688	-0.34839937	0.013541273	0.32104674	0.17349847	-0.575623	-0.08399649	-0.22604972	-0.07886581	-0.026346682	0.36742342	-0.2204462	0.041866817	0.17575285	0.06451316	0.31952438	-0.11338067	-0.051448967	-0.13274871	0.40354547	0.25498015	-0.10477112	-0.12872253	-0.14029185	0.07367133	-0.20806493	0.09384551	0.34530997	-0.20213811	0.088736445	-0.02592641	-0.05996445	0.07154183	-0.06828314	-0.403206	-0.23254319	-0.15107936	-0.1796517	0.06549331	0.08155332	0.3438381	-0.0011144213	-0.17247552	-0.46698868	0.005240214	-0.52674574	-0.29627556	0.08875452	0.08484437	0.14112665	0.061277222	0.17695586	-0.11601157	-0.3440968	0.035302956	-0.33651626	-0.11248569	0.13966948	0.27732807	-0.19452712	-0.23269755	0.24999243	0.21233277	0.08240586	-0.07662163	-0.18548252	0.26267606	0.044288687	0.35101494	0.2344884	-0.12812817	0.15926592	0.07376734	-0.1897242	0.5141964	-0.06382021	0.081372485	0.25022623	0.16355145	-0.29412696	-0.12240403	0.0014590017	0.16315776	0.051923282	0.054534603	-0.04571908	0.022465406	-0.2367544	0.18195106	-0.3255616	-0.13140431	0.01185488	-0.3516035	-0.012682738	-0.10628158	0.065108776	0.34248772	-0.47415873	0.31687748	0.023958923	-0.39060685	0.14217761	0.07762503	-0.077483185	0.5012467	-0.05199079	0.20195822	0.21518713	-0.124140345	0.039818365	-0.11335962	0.1094307	-0.017688619	0.14275602	-0.022044754	0.11147584	-0.16992287	0.098593935	-0.11913182	-0.06582858	-0.10318621	0.20167841	-0.53967905	0.30119643	0.13508187	0.117389776	0.045484852	0.05551832	0.20349646	-0.3502854	-0.025295036	-0.24055265	0.094710454	-0.33077917	0.019367373	-0.18838032	-0.10238495	-0.12865815	-0.20851652	0.09848176	-0.367016	0.4538209	0.19891566	-0.101851024	0.062061004	0.06423165	0.09787019	-0.09899986	0.21015379	-0.20518142	0.34138554	-0.20937243	0.03306347	0.009473083	-0.1674896	0.08505634	0.050531894	-0.31094137	-0.12333568	0.4589825
AVPR1B	0.037537746	0.076352805	-0.007641163	-0.10543683	-0.2149521	-0.086036935	-0.18873319	-0.27867386	0.06752676	0.100675985	0.039845876	-0.39340192	0.002530392	-0.047522724	0.20048055	0.025871547	-0.14162059	-0.16200794	0.074514344	-0.09561856	0.20818955	0.04314987	0.07931381	0.089938596	0.19220752	-0.27903625	-0.13327408	0.1052869	0.24712059	0.045199484	0.21974848	-0.017647982	0.0064254254	0.2687388	0.15097468	-0.20864318	-0.047998518	-0.10569725	-0.18548565	0.19294463	0.2521113	-0.34904405	0.25689828	0.16576278	0.10073158	-0.40767857	-0.15298863	-0.2810725	0.031635266	-0.31590286	0.12245735	-0.053180404	0.01964835	0.02931101	-0.15590759	0.16512585	-0.11966156	-0.1404834	-0.18822223	0.50139123	-0.009598633	-0.015305009	0.35991308	-0.09162876	-0.1652396	-0.2503263	0.12238582	0.2670447	0.069924235	0.16796152	0.084316	-0.039773725	-0.21415588	-0.13043374	-0.30207276	0.05463059	-0.31131896	-0.21262275	-0.3350008	0.12852566	0.31181443	0.123824164	-0.17634718	-0.5238916	-0.030838966	-0.33362058	-0.16655676	0.058888353	0.031680144	-0.01913156	-0.014995256	0.06289537	-0.10565326	-0.28720158	-0.07011173	-0.37052384	0.041136142	0.23131922	0.38795197	0.111416996	-0.016248146	0.17583172	0.05549591	0.2769532	0.007801221	-0.26652834	0.2890241	-0.10518516	0.26849073	0.40982836	-0.17016159	0.1109808	0.051999882	-0.08307703	0.25002402	-0.16414228	-0.0537036	0.17028323	0.032382227	-0.48481676	-0.14831558	0.15180163	0.15953898	0.19805253	0.17944662	-0.101391286	-0.33792657	-0.22673768	0.12258909	-0.46371245	-0.103307575	0.16028653	-0.42244238	-0.20975843	0.05849321	-0.114783674	0.17714617	-0.36570525	0.4353734	-0.1361344	-0.38707194	0.25045773	0.24154897	0.16344154	0.22438577	-0.17894581	-0.15821275	-0.066373624	-0.09520046	-0.0025654645	-0.24642415	0.31655788	0.088362	0.1097227	0.10056806	0.14973168	-0.05706168	-0.1284228	-0.21599236	0.035546858	0.14422192	0.1679736	-0.39656532	0.110276915	0.19753435	0.10744368	0.06991227	0.056672394	0.06962158	-0.13023037	0.06645054	-0.13364697	0.07647737	-0.24431422	-0.16715236	-0.21013734	-0.1540242	-0.055488627	-0.04905565	0.13303594	-0.6654327	0.26294714	-0.15934797	-0.018898658	0.067393675	-0.06584576	0.04671829	-0.20525251	0.314493	-0.32566878	0.19894028	-0.19005942	-0.07504063	0.0879792	-0.071391806	0.16778973	0.071723826	-0.03415919	-0.13934045	0.39812127
AVPR2	0.022664774	0.10419569	0.17565536	-0.20554066	0.1671885	-0.015707703	0.048140857	-0.102419846	-0.04956142	0.3768093	-0.16477287	-0.31849808	0.1964325	-0.21053277	0.30188775	0.28505266	-0.17508972	-0.28399518	0.095378384	-0.31875953	0.16275881	0.4000598	-0.32084695	-0.02885968	0.22884643	-0.57570356	-0.075286806	-0.031385493	0.18528959	0.12265461	0.4033478	0.19821289	-0.13453549	0.15894935	0.10213147	-0.19221678	-0.38447163	0.19484173	-0.0047455067	0.2933902	0.34921387	-0.2780864	-0.07088275	-0.1550992	0.25454763	-0.25891545	0.39995006	0.33892193	-0.15475398	-0.43698692	0.21771197	-0.18281902	0.23067895	-0.006966922	0.046945382	0.13356757	0.35580713	0.08898763	-0.051116455	0.18953104	-0.26221958	0.007722502	0.28151637	0.13411796	-0.21527776	-0.293198	0.51148784	0.2744743	-0.3116862	-0.24013662	-0.024477141	0.124977246	-0.014620441	0.02297131	-0.2929724	-0.10323029	-0.16599439	-0.14965911	0.063554265	0.12015814	0.08672017	-0.007999627	-0.008521003	-0.017730039	0.0006113723	-0.46948138	-0.1673337	0.057823498	-0.06946905	0.1531395	0.365037	0.35207453	-0.17829834	-0.13505413	-0.08738177	-0.92517287	0.2612713	-0.15891467	0.14968762	-0.3286531	-0.1489828	0.04336088	0.0543819	-0.3266528	-0.16457924	-0.2656313	-0.05250536	0.10739482	0.28882235	0.4018761	-0.21393183	0.17945683	0.014543187	-0.28059688	0.7836798	-0.2693015	-0.14311123	0.37144658	-0.17080547	-0.5197942	-0.33990029	0.016658822	0.18181701	0.23545243	0.116576195	-0.071389385	0.1867215	-0.018215481	-0.03690965	-0.27147186	-0.021520337	0.119627565	-0.05884159	0.11518612	0.43581012	0.24943356	0.4480525	-0.41193816	0.00030958318	-0.22185092	-0.24530688	0.3001321	0.063766345	-0.3967722	0.340707	-0.07697586	-0.14242084	0.22674029	-0.08129356	0.43882692	0.009052465	0.19050314	-0.044960808	-0.21810466	-0.20408611	0.3630393	-0.31292534	-0.2075572	0.04610752	-0.17092858	-0.29663378	0.019793723	-0.39602765	0.44102138	0.23553513	0.49260703	0.04433023	-0.0671425	-0.048977833	-0.30825758	0.14991625	-0.69756114	-0.05943013	-0.12766458	-0.10108415	-0.048462797	-0.020872634	0.12835407	-0.12668444	0.20882316	-0.37983647	0.52830625	-0.27683914	-0.2685058	-0.25383466	0.21229798	-0.034098383	-0.085679114	0.44590735	-0.27661854	0.22354794	-0.12596586	0.14240207	0.12652482	-0.112168275	0.28255132	0.25142628	-0.18949006	-0.23798516	0.0031972209
BCR	0.08358708	-0.11608569	0.15178394	0.15405704	-0.029472368	0.5556317	-0.13613257	0.029800892	-0.24436884	-0.024903597	0.1336226	-0.06696665	0.4347414	0.16848022	-0.2875369	-0.049509358	-0.31723693	-0.4727339	0.29082185	-0.20958658	-0.0842863	0.05075871	-0.15080121	0.14070287	0.34023872	-0.25032985	-0.29729688	0.24989468	-0.081903614	-0.1837409	0.12152305	0.020341493	-0.32556298	0.18764803	-0.21353193	-0.23914951	0.17488468	-0.3262276	-0.5617025	-0.031009227	-0.24104653	0.088575386	0.09273611	-0.07010915	-0.18279865	-0.44849586	-0.21608289	-0.21790755	0.1417366	0.19298984	0.3173758	0.25123972	0.14550778	-0.0279923	-0.2630551	0.035257295	0.057848513	0.30938262	0.114580415	-0.1252399	7.865217e-06	0.28766304	0.14708617	-0.037998613	-0.13976452	0.39049378	0.094290584	-0.31741178	-0.28807604	-0.035899132	-0.035827413	-0.27441242	-0.30110902	0.0880581	0.17047986	0.45949113	-0.634757	0.11634758	-0.1306231	-0.058461353	-0.21771924	0.19538696	-0.31791028	0.20897867	-0.009074724	-0.38386503	-0.024688417	0.0047781565	0.24686377	-0.13524742	0.25257042	-0.29749042	-0.09694106	0.051548857	0.44845203	-0.22618428	0.1335107	0.11008966	0.29054272	-0.3958348	0.27680317	0.11710914	0.12155615	0.21391106	0.049859945	0.045531493	-0.44198105	0.23945731	0.6452466	-0.05968417	0.23869011	0.19190527	0.074571766	0.09721475	0.18880068	-0.058612857	0.122055784	0.1779706	0.122501306	-0.39707345	-0.16503224	-0.13850906	0.10869014	-0.29883575	-0.17756003	-0.10698392	0.12397757	-0.23082834	-0.14675401	-0.70960104	-0.00088124594	0.2951554	0.19170587	0.22375742	-0.09997914	-0.105243884	-0.028677026	-0.011227161	-0.11204172	0.3520381	-0.050092105	0.21565504	0.3688078	0.12163903	0.27800396	0.13541627	-0.032406736	-0.13574028	-0.28929833	-0.068645224	-0.00016163907	0.10002647	-0.024407953	0.11063756	-0.3557151	0.19562851	-0.308695	0.024491597	-0.2652138	-0.12742308	-0.21059391	-0.04107624	-0.19950075	0.07295941	0.11730728	-0.2075435	-0.19475444	0.11371169	0.032374762	0.04522245	0.09074192	-0.27357128	-0.37132734	-0.23871762	0.052339684	-0.029689522	-0.25690904	0.028340336	0.010464469	-0.14937304	0.13832359	0.28328884	-0.06135432	-0.28188497	-0.022981212	0.13309066	-0.15594685	0.08631287	-0.19888425	-0.23246452	-0.12080638	0.017803138	0.025623314	0.071010925	0.047922723	0.037138645	0.026643028	0.20788795	-0.11042286	-0.07445883
BDKRB2	0.16594028	-0.16227618	0.30844706	-0.045645535	-0.020316258	0.34625807	-0.22678655	-0.49909252	-0.038171373	0.05919459	0.031461477	-0.63352567	-0.033564992	0.24386598	-0.15946089	-0.3663296	0.106862605	-0.43096644	-0.2058583	-0.35212627	0.009416852	0.22775051	-0.16607487	0.05943372	0.1955872	-0.7955251	-0.046260983	-0.36128476	0.12522788	-0.52766	0.10871859	0.37548456	-0.4130587	0.34991714	0.10717502	-0.094604425	-0.27501395	-0.010152351	-0.21457277	0.47534502	0.47462702	-0.35950923	0.4658389	0.5801907	-0.024082374	-0.42718762	-0.1923965	-0.2705182	-0.11660281	-0.07884644	-0.2825428	-0.3095481	-0.4859351	-0.03030339	-0.32122692	0.40759352	-0.44145402	-0.41377392	-0.41099367	0.6551821	0.22046183	0.060432434	0.0071971854	0.15329364	-0.13691577	-0.17348742	0.011793129	0.29595318	-0.04047943	0.2622749	0.32859576	0.23117171	-0.03811501	-0.26258293	-0.18904632	-0.028914113	0.011497306	-0.1502436	-0.124637805	-0.0749262	0.2492571	0.020633547	-0.47637814	-0.5877238	0.4038678	-0.5071973	-0.59481215	-0.20535001	0.004847859	0.069569275	-0.07299167	-0.025825854	-0.3856067	-0.3619807	0.10590822	-0.47716156	0.07940206	-0.070129976	0.5348501	-0.12034013	-0.27491853	0.1312954	0.16189922	0.053912263	0.011088031	-0.29049712	0.29537418	0.12356902	0.2764432	0.37539873	-0.3790187	-0.14564118	0.2274877	-0.15678123	0.13940307	-0.05668096	-0.28515577	0.47768354	-0.12268883	-0.25733203	0.08630574	0.066197485	0.27910274	0.030079097	0.4652482	-0.28504452	0.2161472	-0.39176846	-0.43973026	0.033425227	-0.33746508	0.45210314	-0.6892942	0.00777303	-0.17439982	0.16683987	0.14690126	-0.5235999	0.3770498	-0.09076625	-0.19801664	0.060590394	-0.21027178	-0.060440857	0.20566964	-0.16564563	-0.02443084	0.44368201	-0.44657716	0.3217512	-0.10687962	0.32977182	0.18591115	0.44183478	-0.3569087	0.007369943	-0.40642968	-0.3965442	-0.15747376	0.11841497	-0.23571594	0.38813263	-0.67234707	0.5318164	0.19947176	0.33177388	0.5332583	0.315072	0.06519005	-0.54358554	0.06480946	-0.5875492	0.40421966	-0.14890203	-0.3304386	-0.013725893	-0.4254885	-0.20680638	-0.10920436	0.068446085	-0.6360876	-0.01321612	-0.006830898	0.18448615	0.31621087	0.025245156	0.070012994	-0.021049267	0.35880545	-0.1300572	0.6198243	-0.3017605	0.18163688	0.24251343	0.007658797	0.18690594	0.06244374	-0.08884566	0.028860763	0.25454435
BRAF	-0.5049576	0.17889027	0.34015712	-0.060894884	0.5197957	-0.05096739	-0.2187022	0.43407404	-0.06745866	0.1180204	-0.33347937	-0.44043487	0.29792994	0.3237929	0.10001877	-0.11604429	0.0433845	-0.30267754	0.7521333	-0.080425	-0.28232834	-0.42122012	-0.5039047	-0.40865934	0.19244945	-0.40390733	-0.13869132	0.020707749	0.32642868	-0.113872446	-0.35551092	0.29013067	-0.42606398	0.098727174	0.20425507	0.10521881	-0.7143256	-0.32396823	-0.48873118	-0.16076672	0.35148868	0.028899569	-0.45213336	0.15841188	0.49774295	-0.48668593	-0.07573689	0.008750257	-0.3733743	-0.18810399	-0.0028706451	-0.2321196	0.26743817	0.0043059825	-0.36314902	0.04068868	0.75768846	-0.0034853024	0.4536782	-0.3614636	-0.20735875	-0.03419382	-0.13284902	0.11170966	-0.40296862	0.3762826	0.34523448	-0.047050662	0.17729102	-0.06489752	0.1507644	0.45190176	-0.19801988	-0.3276933	0.006207388	0.27187714	0.026980054	0.19469792	0.34472203	-0.08935602	0.1205965	0.3933127	-0.011911526	0.045167234	-0.30000666	-0.32233083	-0.15157525	-0.11587246	0.42206913	0.78068036	0.19425826	-0.26988927	-0.24390927	-0.5363138	-0.34704193	-0.4865119	-0.12438021	0.09604623	-0.1500639	-0.21309948	0.1684125	-0.20975937	0.051336754	-0.5736359	0.46962866	-0.5764949	0.040421434	-0.10945987	0.5272793	0.26626483	-0.4877004	0.0899665	0.17220244	-0.29278523	0.32263973	0.3949838	0.43390992	0.21287823	0.22450766	-0.08637534	-0.026905917	-0.03199192	0.409945	0.2742374	-0.46854255	-0.44319248	0.06886117	0.2929841	-0.32300818	0.062894374	0.19405809	-0.020011213	-0.32982704	0.14290224	0.08642352	0.019441918	0.120372035	0.014517229	0.3343951	0.16117004	-0.35261288	0.28847066	0.42343673	0.03690828	-0.5591983	-0.105679646	-0.39819932	0.15751313	-0.056927685	0.1765687	0.4489996	0.23253024	-0.19667691	-0.6464263	-0.572405	0.19664559	-0.08203395	-0.261339	-0.44684798	-0.185956	-0.5942353	0.033504613	-0.65229344	0.18712658	0.17481963	0.008657986	-0.24046834	-0.1848982	0.19418237	-0.4555231	0.21583019	-0.41288945	-0.07384055	-0.1217967	-0.29085097	-0.1514908	-0.25815386	-0.13536248	0.10565916	-0.08591213	-0.049742743	-0.18406232	-0.5611542	0.14941107	0.12944867	-0.060293857	-0.10828571	-0.14724268	0.26544032	-0.2180503	-0.15668406	-0.084247276	0.5609329	0.21518178	0.08566687	0.3573443	-0.10680364	-0.041696206	-0.36892113	-0.034673687
BTK	-0.05479081	0.0004023129	0.33932215	0.012862797	0.27337727	0.17044722	-0.25834352	-0.09433641	0.083181076	-0.12391809	-0.32329538	-0.3434325	0.16615343	0.0730929	-0.15751435	-0.0019136932	-0.14668642	-0.29800674	0.09118687	-0.36048087	-0.30352086	-0.3511626	0.030319588	-0.11219788	0.218898	-0.2549896	-0.089356415	-0.03409238	0.233772	-0.28843608	0.04206778	0.118727796	-0.2596482	0.18840474	0.17060925	-0.25218064	-0.36133802	-0.20777808	-0.4111489	-0.040788945	0.28521848	-0.032406777	-0.053039365	0.2868419	0.17834723	-0.29199335	0.24070482	-0.22079624	0.15351067	-0.28531635	0.37190416	0.1227944	-0.06549148	-0.07361803	-0.31857142	0.11771921	0.14999345	0.017122604	0.13799556	-0.09678579	0.2913019	0.09191675	0.18677664	0.16228329	-0.2517077	0.11270935	0.3845362	0.0741152	0.10250336	0.05939901	-0.14185238	-0.15067002	0.22343674	-0.26633462	0.18565437	0.3301251	-0.60745853	0.23181853	0.18213496	-0.032746475	-0.10144343	0.25964192	-0.14103886	0.14342618	0.08580477	-0.27653936	0.29679033	-0.24657358	0.08770862	-0.46909052	0.061253652	-0.17709322	-0.15301019	-0.07408205	0.3386845	-0.4373542	0.17256811	0.026953729	0.0043232837	-0.14295165	0.35391876	0.10785358	0.25141016	-0.30930156	0.37291783	0.057555612	-0.114050314	0.051141273	0.5001934	0.23661724	0.18497859	0.38653308	0.16117653	-0.22761352	0.2998374	0.06497233	-0.0344073	0.3086751	0.09293653	-0.5100409	-0.19414434	-0.17068145	0.42409754	-0.18566534	0.041297417	0.021901915	-0.07442026	0.19012031	-0.1203504	-0.2707494	0.2673322	0.30395004	-0.10934724	0.30858225	-0.2333272	-0.019191666	0.17463706	-0.07849755	0.23680215	0.21294685	-0.13691054	0.26404682	0.24682401	0.061960354	-0.05610654	0.3038307	-0.11237408	0.03896983	0.036822755	0.08512236	0.1973857	0.040300474	-0.08731525	0.22108518	-0.49722663	0.33224353	-0.23431127	0.2599152	-0.4584427	-0.022601208	-0.24889849	0.13489541	-0.1277166	0.3560566	0.21155447	-0.14164776	0.14596698	-0.088574804	0.14606702	-0.018383158	0.34570906	-0.29467207	-0.38135427	-0.09458315	-0.13411002	-0.042821147	-0.4003995	0.307928	-0.112323105	-0.257613	0.34769166	-0.075315945	0.12127644	-0.4988281	-0.028794214	-0.017659778	-0.25346056	0.097562924	0.17742191	-0.1880976	0.079700306	0.11860066	0.20817862	0.43782756	-0.20336635	0.22342373	0.31330723	-0.0010273266	-0.30525115	0.18164025
C5	-0.005264199	0.1908897	-0.31902015	0.20975244	0.006794133	0.49735135	-0.091714844	0.21019025	-0.03025245	0.1305556	-0.4735469	0.11362903	-0.22342366	0.053532314	-0.36391675	0.1504402	0.22020665	-0.23671496	0.09669354	-0.09042524	0.26005143	-0.009908655	0.10758042	0.3130782	0.4147548	-0.14479926	0.18251333	-0.14701685	-0.2961049	-0.004578477	0.22591789	0.33844933	-0.15451537	0.10926237	0.03572238	0.42006472	0.112649396	-0.25599906	-0.17243835	-0.05833677	0.04773298	0.20462973	0.23535933	-0.07608395	0.10213216	-0.09776922	0.13115963	0.096990384	0.0920506	-0.44285294	0.11024968	-0.0024061652	-0.26089904	0.1228127	-0.2297334	0.3974322	0.11974564	0.022721503	0.05219794	-0.17462437	-0.027582183	-0.24277437	-0.16781113	-0.008149944	-0.18500467	0.030313674	-0.12571834	-0.04668534	0.18639354	-0.4920761	-0.11113275	0.04841722	-0.23379818	0.20081921	0.02391555	0.08005629	-0.46209002	0.013124942	0.057771523	0.2567427	0.20905453	-0.08571836	-0.116093814	0.031999998	-0.23989208	0.067022406	-0.31001657	0.22361957	0.044938635	0.11043868	-0.09199748	0.27022	-0.13949212	0.16198488	0.36117688	0.08333356	-0.14729223	-0.32232547	0.042773146	-0.20815673	-0.07301643	0.34301367	-0.12673311	-0.22151503	-0.23796257	-0.38943043	-0.26759538	0.25391653	0.3899334	0.30653232	-0.38964507	0.19611378	0.27608863	0.1346228	0.126859	0.07708414	0.13072616	0.14297701	0.28451738	-0.17336392	0.00436453	0.20752543	-0.20481187	0.030675976	0.13063468	-0.20586336	0.046961546	-0.2746759	0.10175592	0.03380534	0.031215984	0.008615669	0.23596314	0.33714157	-0.08933288	0.18007717	-0.07987577	-0.36959043	0.22929685	0.06367586	-0.37832615	0.047026545	-0.0032953662	0.26891276	0.097687155	0.09247314	0.024378706	0.020254673	-0.43090865	-0.20629036	0.32557103	-0.29128745	0.1728199	-0.0072751367	0.11535596	0.2127928	0.20575185	0.2708337	0.2917507	-0.18665828	-0.1716597	-0.21307628	0.16158709	0.03599057	-0.021412922	0.26157203	-0.16645783	0.0024494939	-0.22901268	0.102486245	0.056625847	0.0710778	-0.13048202	0.012320104	-0.23612034	-0.20986028	-0.08365371	-0.00031225357	0.044400815	-0.1916517	0.22616468	0.10233561	-0.17259753	0.01846016	0.24532934	-0.03651823	-0.107340425	0.2975328	-0.013872942	-0.061893247	0.06754484	-0.09374463	0.36011243	0.046114814	0.041441288	-0.16416088	-0.074688695	-0.35116452	0.04840678	-0.119296305
CA1	-0.7452534	0.055745736	0.12425002	0.25799152	0.10679376	-0.048770387	0.4358659	0.27848148	0.3168144	-0.4361662	-0.046791773	0.44748178	0.61835337	-0.5436176	0.008561658	0.285921	-0.18959785	0.13792035	-0.21179326	0.52770495	0.04107692	0.34962127	0.09075752	-0.10225581	-0.34412563	-0.82611275	-0.33586523	0.14791553	0.11638834	0.37499505	0.11778109	-0.026696945	0.20947303	0.101221696	-0.3722627	-0.59744173	0.37707543	0.7692374	-0.20283437	-0.23892173	0.3655023	-0.398861	-0.2877103	0.066272035	0.5939369	0.32213822	-0.26013497	-0.05693524	-0.14075348	-0.50365573	0.29847428	-0.03967129	-0.13435587	0.39682063	-0.20036724	0.0051808297	0.49619627	-0.2658092	-0.5232139	0.6499682	-0.13970686	-0.21355039	-0.39320582	0.16294421	0.5647833	0.045449242	-0.107245676	-0.033780564	-0.6067854	-0.05586021	0.04611885	0.30504432	0.10533143	-0.20077644	0.38483942	-0.46179438	-0.2567071	-0.026565993	0.4949923	0.19895785	0.42864147	-0.032678824	0.27980685	-0.066012226	-0.61517173	0.18570262	-0.006588792	0.15826182	0.02641769	0.2099269	0.14763474	-0.11894316	0.010094674	-1.1011581	-0.19051805	0.587363	-0.46320462	-0.11101552	0.37118983	-0.07070301	-0.19434652	-0.36925268	0.5595518	0.088951685	-0.079041325	0.067842685	-0.12686782	0.09864379	0.35270992	0.5053172	-0.3740313	-0.22152863	-0.40589857	-0.032769468	-0.016888749	-0.5139858	0.15819936	0.31173426	0.46474376	-0.29066926	0.4293815	-0.20341748	0.6286999	-0.46710014	-0.07435438	-0.07271408	0.18208869	-0.0959817	0.3478367	-0.3403135	-0.16811314	0.65355116	-0.11569605	-0.26856807	-0.120030664	-0.056245305	0.20878221	-0.19207236	-0.23176816	-0.022143189	0.24022749	0.6067052	0.15291259	-0.24901731	0.13443837	-0.12154671	-0.2009258	-0.74401975	0.29991233	-0.6309273	-0.0052418197	-0.30617017	-0.4957134	-0.10718668	-0.018847678	0.07125674	-0.62189865	0.77405924	0.05583195	0.061069157	-0.23243248	0.16075654	-0.015063494	-0.479433	0.61721385	-0.03092548	-0.39476094	-0.051046398	-0.25715855	0.38877067	-0.23710778	-0.07470074	0.0360699	-0.6508744	-0.50518227	-0.13492253	0.19034228	-0.17747663	-0.2174548	-0.142739	0.047404762	0.2761622	0.20785236	0.045517646	0.21308577	-0.112926304	-0.0074621392	0.19245294	-0.03466686	0.5576373	-0.17355932	-0.10434146	0.15559886	-0.10536596	-0.3467611	-0.071604595	0.21330595	-0.083286576	0.238173	0.80742985
CA12	0.15707244	-0.28351328	-0.07676024	-0.08951292	-0.114500314	0.12985764	0.24619815	-0.008646998	-0.027965426	-0.47033036	-0.17674123	-0.11906263	0.08953656	-0.03386196	-0.33084315	-0.025250103	0.20345584	-0.104122415	-0.14581071	0.1267118	-0.25686207	-0.21965405	-0.12268841	0.15311186	0.22719355	-0.38041738	-0.25413817	0.37286368	0.238959	-0.17206857	-0.056360386	0.24409641	-0.07639236	0.11432621	0.23510742	-0.076768704	-0.24552791	0.09111371	0.0002955718	0.24064443	0.0060308725	-0.30111298	0.009561961	0.17410302	0.30487874	0.19050314	-0.23103417	-0.26938632	-0.24793488	0.024610238	0.0056901886	-0.3164363	0.020475643	0.114593506	-0.14201431	0.08090035	0.09072616	-0.1044005	-0.22143094	0.26524234	-0.013279349	0.024276877	0.0983236	0.24183835	-0.25263265	0.09011269	-0.23078853	0.21125682	-0.011143063	-0.11868692	0.24530853	0.40035164	0.21449372	-0.4526672	-0.0054419287	0.12132831	0.32906768	0.42934188	0.18310519	-0.24324466	0.1599394	-0.15595666	-0.3587609	-0.074417464	0.06212427	-0.1095024	-0.38495228	0.1597618	-0.09752519	0.4917197	-0.032505117	0.39012322	-0.0806721	0.02678701	0.15027761	-0.045682017	0.12754199	-0.15456322	0.30644953	0.035190348	-0.21006659	0.5197322	-0.09251697	-0.06697746	-0.15921374	-0.29088068	0.15784185	-0.053343605	-0.017815378	-0.31388962	-0.3691622	-0.1005463	0.089167506	0.015009487	0.3400831	-0.1334695	0.06774635	0.16221368	-0.014978399	-0.20152627	-0.34455255	0.087335765	-0.22545148	0.00061804184	-0.017672025	0.06023044	-0.08432401	0.2793107	-0.035304103	-0.20692651	-0.18721087	-0.09453916	-0.5733081	-0.014681359	-0.063259095	0.25263444	-0.07340923	-0.33663893	0.25807834	-0.12907265	-0.66598135	0.0008804026	0.34532204	-0.029444024	0.110946156	0.110176995	0.23000422	0.07320656	0.35468823	-0.048789922	0.36251092	0.31236023	-0.07179427	-0.2579872	-0.1130072	0.4080089	-0.23606211	-0.015173	0.003019461	-0.08390348	-0.08869759	0.48492414	-0.20415175	0.021578362	-0.022585226	0.00010248242	0.11083327	-0.08551029	0.05314708	-0.31081945	-0.25475708	0.0034864643	-0.3647142	0.032786854	-0.102040425	-0.43342534	0.0774736	0.24027263	-0.2620523	0.18376176	-0.03246905	-0.28128698	0.23658486	0.17425403	-0.010972877	0.13655534	-0.32158813	-0.059768457	0.16079769	0.29838434	0.3501027	0.25682107	0.20167062	0.29712084	-0.32531354	-0.022338597	-0.20495598	-0.09412191	-0.08901908	-0.22572249
CA2	-0.57024467	0.12387143	-0.12608379	0.24616554	-0.019196695	0.028418932	0.36730906	0.17582712	0.42687562	-0.27241668	-0.024409473	0.11449333	0.3794092	-0.08870475	0.077622004	0.5069456	0.056991108	-0.034283113	-0.1353777	0.73401314	-0.25771853	0.46735066	0.11863168	0.14228557	-0.14368658	-0.83181125	-0.25374487	-0.018171642	0.05197058	0.3481862	-0.0734597	0.055954743	0.21617088	0.051958017	-0.37564063	-0.77434915	0.12523097	0.6563855	-0.09652145	-0.24855751	0.19562341	-0.42079437	-0.28785822	0.0848029	0.55847543	0.31490585	-0.26921707	-0.2739652	-0.11177116	-0.21008234	0.24496022	-0.14760171	-0.48856148	0.4006374	0.012824909	0.29477164	0.21388668	-0.23739678	-0.7395431	0.8851736	-0.21216683	-0.10208113	-0.18377951	0.27515644	0.48919442	0.32380953	0.079171866	-0.046322778	-0.4569619	-0.05069701	0.32806796	0.46955523	0.3414508	-0.19081558	0.2405498	-0.690832	0.036263824	0.07027581	0.57858765	0.3469845	-0.027170504	-0.35391745	0.16159435	-0.16730815	-0.4178034	-0.122127034	-0.17457344	0.12424884	0.147018	0.35145053	-0.022653755	0.17563255	-0.12340466	-1.0064425	-0.1427297	0.503712	-0.32647303	-0.19104382	0.08704126	0.10866767	-0.15370724	-0.28799763	0.2437304	-0.18126082	-0.015902441	-0.14036296	-0.14288603	-0.20545968	0.30400497	0.2604549	-0.70672625	-0.4239404	0.1440877	0.18012385	0.30595708	-0.44229245	0.21403706	0.21164249	0.58531666	-0.27909097	0.2952828	-0.1736268	0.4733518	-0.38707802	-0.091847055	0.026428914	-0.03195756	0.010565548	0.40252557	-0.15580581	-0.31676844	0.29900187	-0.11440736	-0.585306	-0.078047864	0.10084899	0.20298071	-0.2758392	-0.2488625	0.0060413554	-0.043936696	0.51626444	0.0594386	-0.257803	0.20802823	0.04371596	0.017423423	-0.53830785	0.31709656	-0.18531424	-0.091154344	-0.17271858	-0.21233971	-0.25676724	-0.25190932	-0.013728051	-0.6167596	0.5289621	-0.16875792	0.053423308	-0.0733476	0.4864831	-0.095975615	-0.1921801	0.15439126	0.035161622	-0.08525502	0.17581156	-0.3910433	0.4767209	0.09470241	-0.26117876	0.19759592	-0.61613613	-0.35192004	-0.14543699	-0.022255752	0.09673171	-0.5169659	0.17235412	-0.093394	0.014142793	0.13149635	-0.04906617	0.20589893	-0.10982121	-0.08996292	-0.14177911	0.096203655	0.30033505	0.030179089	0.15190238	0.36147574	-0.3160007	-0.13785626	0.036417566	0.3395573	-0.28431982	-0.048372608	0.5702329
CA4	-0.4121831	0.15560037	-0.041887105	0.32063323	0.26480827	-0.2835039	0.37613532	0.19412667	0.4525872	-0.2568519	0.050655544	0.13211426	0.23107965	-0.33709106	0.009157258	0.48155904	-0.10819445	-0.09859729	-0.12942992	0.6338656	-0.48191988	0.5237001	0.12786935	0.0889524	0.15970613	-0.66524464	-0.09631826	-0.20692304	0.08525592	0.41721702	-0.1568434	0.12505732	0.20019445	-0.02191516	-0.46157146	-0.7709006	0.11627147	0.4725268	-0.06684283	-0.13163777	0.19140464	-0.31445625	-0.23856242	0.23242518	0.5288054	0.19057415	-0.31037483	-0.060132395	-0.111885086	-0.23243356	0.2240229	-0.116857536	-0.31496233	0.27319384	0.08868221	0.34836245	0.39754146	-0.23735955	-0.2788719	0.8584067	0.14724082	-0.15010168	-0.13919595	0.17382655	0.42535502	0.2594709	0.066181004	-0.38968128	-0.39270526	-0.21421704	0.42680174	0.510442	-0.036367636	0.12707084	0.22198516	-0.5209509	0.12537819	-0.05059209	0.6035032	0.30183566	-0.0475681	-0.26520857	0.20440423	-0.0721213	-0.4170344	-0.04436996	-0.13611028	0.15904738	0.47492903	0.294031	0.12607789	0.29994005	-0.08710439	-0.5000105	0.1070652	0.51799476	-0.3616863	-0.31794572	0.019057782	0.12411089	0.028554413	-0.10314999	0.44618416	0.013404249	-0.18748103	0.09312108	-0.0052292394	-0.25978473	-0.03919056	0.2472074	-0.8040856	-0.22362083	0.018249432	0.19401728	0.37329698	-0.35420805	0.16576771	0.2104442	0.5429332	-0.54897165	0.006761493	-0.22553459	0.20142677	-0.18384963	-0.13845587	0.001025839	-0.0095134955	0.015049913	0.2534749	-0.18723184	-0.18504804	0.16169772	-0.015921196	-0.40259647	-0.106032625	0.05704509	0.27249324	-0.1977502	-0.14172207	0.039615646	-0.13479377	0.33535096	0.30490947	-0.35299107	0.03913669	0.081869505	-0.1518612	-0.65457875	0.18777648	-0.100512944	-0.18972826	-0.09166335	-0.0048425505	-0.25370204	-0.09884738	0.043380544	-0.3398391	0.69497144	-0.0522793	0.25184345	-0.2148731	0.6099064	-0.14206271	-0.21051683	0.078083955	0.12728073	-0.10860956	0.019208292	-0.2457063	0.2377716	-0.018604917	-0.38124517	0.039087247	-0.5190495	-0.2658982	0.0236394	0.09401819	-0.09177935	-0.67979455	-0.05834136	0.040701035	-0.09397709	0.12793729	-0.03486391	0.20366223	-0.039382115	-0.023611574	-0.06252587	-0.022220574	0.5141696	-0.28825006	0.11611562	0.085266955	-0.31992656	-0.30572113	-0.016955938	-0.011242687	-0.3076047	-0.0709609	0.43903786
CA7	0.2944619	-0.16081586	-0.27300686	0.08335871	-0.11871579	0.21096736	-0.048500482	-0.030678011	0.29025602	-0.096447326	-0.08572104	-0.021141324	-0.04068858	-0.11908608	-0.09454307	0.3142764	-0.0058971583	0.021430224	-0.062298432	0.21747828	0.04981504	0.08580279	-0.10433264	0.00014999413	0.09055132	-0.30052716	-0.14528438	0.3425157	0.0762275	-0.046896767	0.15769553	0.004226221	0.26274	0.03164662	0.06417316	-0.018643826	-0.23695327	0.08251376	0.09754388	-0.009151546	-0.020318868	-0.36193216	0.08191305	-0.030734146	0.13759403	0.13485709	-0.12278361	-0.17703027	0.07107805	-0.05764592	-0.03083427	-0.07293702	-0.13347657	0.11345875	-0.022414263	-0.08772915	-0.2578097	-0.08632804	-0.066648886	0.08367877	0.036344606	-0.2384543	-0.027514389	-0.14756505	0.015112996	-0.06772727	-0.077589475	-0.023831874	-0.11214761	-0.10164748	0.05249748	0.31694913	0.057517365	-0.1377383	-0.058764756	-0.15834464	-0.08999068	0.013244838	0.2376706	0.020887733	-0.042977065	-0.15629147	-0.2408706	-0.0004824636	-0.31515455	-0.026283646	-0.08057352	-0.28543276	-0.1928996	0.09767886	0.15054874	0.382922	0.06102887	-0.11168522	-0.023714408	0.111826025	-0.033198174	-0.072047114	-0.022934416	0.05284697	-0.16910487	0.16567098	0.16765526	-0.0520147	-0.2713511	-0.32959014	-0.14480343	-0.022120578	-0.044560995	-0.14503533	-0.32341734	0.028058706	0.062704705	-0.035526846	0.24599025	-0.1126243	-0.14222865	0.2400716	0.19412497	-0.07693425	-0.12958218	-0.06085135	-0.100763	-0.017411316	-0.24165346	-0.017740548	0.04237219	-0.021972148	0.04375171	0.09412853	-0.29687053	0.18924473	-0.010377539	-0.08605149	0.052830897	0.26597473	-0.15660754	-0.2325611	0.17026336	-0.010932515	-0.35015732	0.011553199	0.2496958	-0.10962839	-0.06871676	-0.2579381	0.1256376	0.17274763	0.12651978	0.09475251	0.03197616	-0.095158756	-0.06303207	0.2787064	0.23828258	0.14525327	-0.15466683	0.23630235	-0.04745716	0.13198535	0.12864932	0.39000785	-0.3033967	0.0474056	0.07530811	0.32752192	-0.013502344	-0.00361276	0.15480225	-0.3766582	0.056880485	-0.10284679	-0.12983803	-0.3098707	-0.10513769	-0.074936114	-0.17887035	0.015509133	-0.34804907	-0.08450497	-0.038362954	-0.0972821	0.19744326	0.063359246	0.15547162	0.17969356	-0.13810134	-0.04602369	0.096346505	0.12686801	0.01656504	0.06133021	0.15751395	0.1968769	-0.25100762	0.043318894	-0.22725083	0.030351914	0.18363869	0.16891481
CACNA1B	0.026962714	0.12218286	-0.016193701	-0.13705067	0.13960078	-0.10360535	-0.1074025	-0.081217185	0.050645676	-0.0013960248	-0.024563145	0.020932699	-0.11763101	-0.16913426	0.04181592	0.05678651	-0.13105135	-0.11422912	-0.20830593	-0.07145477	0.025039732	-0.021927934	0.06495603	-0.031731438	0.037688598	-0.16621007	-0.07068265	0.05383772	0.07980459	-0.18630032	0.1977071	0.020739956	-0.052445464	0.048819643	0.1384233	-0.031840112	-0.19761305	0.17118973	-0.09073129	-0.126497	0.1505453	-0.0943036	0.01479118	-0.033210464	0.022671552	0.05919422	-0.14970753	-0.050322823	-0.09056244	-0.084321305	-0.029370643	-0.17180131	-0.04411548	0.0004648611	-0.088272095	0.028527893	0.014519656	-0.24265958	-0.20308788	0.05949289	-0.040520426	0.09651714	-0.047826447	-0.0695384	-0.04176092	-0.054335468	0.11531071	0.04425436	-0.15499756	-0.02195101	0.045027357	-0.011232864	0.11060518	-0.007941984	-0.14888756	-0.10092683	-0.15414046	-0.0057619396	0.13920064	0.001913056	0.14422473	-0.13323013	-0.16427274	-0.17770325	-0.030119264	-0.07912963	-0.33773857	0.07555081	-0.031651497	0.012457937	0.050805714	0.25663775	-0.06436183	-0.091506794	-0.08269905	-0.10145151	0.239784	-0.0024256802	0.109554306	0.0034013295	-0.095223084	0.11292489	-0.01524377	-0.15519863	-0.16402209	-0.09131907	-0.0077593704	0.08887771	-0.034934077	0.047371015	-0.046955246	-0.0041886303	0.047042742	-0.01013155	0.05626964	-0.052913312	0.17339177	0.3462849	0.0021004642	-0.03702372	0.11893549	0.105177484	0.19018388	-0.066071264	0.03328204	-0.020524478	0.03037828	0.04176511	-0.15061238	-0.19897199	-0.13004763	0.15174326	-0.097060636	-0.022232937	-0.18068868	0.044325512	0.108579084	-0.13608079	0.028680764	0.037898503	-0.22396787	0.050839875	0.042211317	0.14707203	0.11970094	-0.030687137	0.07926757	0.14095348	-0.040745746	-0.003268655	0.0062633613	0.15344185	0.032791	0.031379875	-0.1856221	0.012878369	-0.20227934	-0.050233044	-0.044191323	-0.08454749	-0.084421374	0.16144979	0.047209546	0.24760908	0.18389153	-0.028622018	0.0035143588	0.028336171	0.014652514	-0.120858096	0.11094258	-0.21540423	0.01967486	0.106730804	-0.20569788	-0.21851239	-0.08394549	0.072626896	-0.021567047	-0.036042515	-0.16454187	-0.1127823	0.05016631	0.07282904	0.08496374	0.1887578	-0.10796945	0.18616611	-0.076866314	0.078346826	0.14656965	0.07806872	0.03740438	0.1852051	0.06091173	0.15069763	0.008229385	-0.017479653	0.07851293	0.03814791
CACNA2D4	0.32067847	-0.028732328	0.054887246	-0.1421081	-0.016690293	0.11996006	-0.10391045	0.013122832	-0.026396606	-0.030408058	-0.22349192	-0.13392967	-0.1443723	-0.11985357	0.05857774	0.00023771776	-0.002024096	-0.0062538115	-0.09459445	-0.006201747	-0.12072404	-0.017865457	0.008400876	-0.09099894	0.11682797	-0.025729261	0.009624724	0.22366492	0.12744163	-0.18793358	0.27467796	0.073920056	-0.121622205	0.08692191	0.19974735	0.05417456	-0.11704321	0.12315019	-0.026747352	0.16282994	0.28259915	-0.17891157	-0.031315506	0.08095843	0.10985782	0.01573028	-0.15998526	-0.1635546	-0.07544459	-0.05089381	0.06271261	-0.1719909	0.09173615	0.2612472	0.029249135	0.06297613	-0.15745488	-0.19250871	-0.07742146	0.14815854	-0.05923495	-0.009665409	-0.13530557	-0.090269454	-0.06345564	-0.063059404	0.10691304	0.061291847	-0.017493093	-0.08621378	0.019669332	-0.0010602642	-0.07100163	0.017440625	-0.24324651	-0.053091835	0.010196146	0.06855717	0.1687429	-0.017569022	0.10652527	0.006345921	-0.035282414	-0.2117645	-0.0090972	-0.23913287	-0.14597914	-0.03281015	-0.0042301165	0.032687325	-0.07710692	0.16351289	-0.0577016	-0.1871444	-0.11833499	-0.13336404	0.15812421	-0.019105632	0.06333039	-0.15063691	-0.07960735	0.15440492	-0.02512697	-0.13779686	-0.22862299	-0.23883106	0.15545559	0.06915694	0.17577788	-0.1193473	-0.029168539	0.13787521	-0.093682945	-0.09316534	0.17746164	0.030310713	0.10786042	0.24784958	0.02644925	-0.079490915	0.04757189	0.11736337	0.16280827	-0.12519863	-0.035360698	0.04352756	0.110016085	0.11184615	0.00022460264	-0.2776109	-0.15152088	0.1693169	-0.185333	-0.019724429	0.03265889	0.22751662	0.20573062	-0.10265522	0.17552468	0.058173917	-0.16707413	-0.026621478	0.088055365	-0.03125743	0.20493743	0.035689708	0.074101515	0.13632578	-0.010218881	0.031248089	-0.024710093	0.18157955	0.008512471	0.06383531	-0.09451267	0.078216754	-0.049085565	0.101588964	0.12675136	-0.12565254	0.16442277	0.10744787	-0.16173689	0.15024894	0.28613734	0.2198838	0.09012006	0.15668124	-0.036006846	-0.19495586	-0.07599256	-0.15754732	-0.07695621	-0.06700045	-0.2338285	-0.06909306	-0.15285112	0.1447777	-0.019941093	-0.025927667	-0.19865994	-0.20768371	-0.06878552	-0.095000096	0.23143475	0.11298187	-0.00075445976	-0.03180688	0.061222807	-0.079472825	0.093697965	0.017042516	0.04077723	0.18386827	-0.018875478	0.27234632	0.04367556	0.13425036	-0.07417941	0.14271483
CASR	0.052248426	0.07838498	0.41497508	-0.56756705	0.06878275	-0.009119127	-0.33991256	-0.0530798	-0.10998201	0.1878469	0.009460946	-0.22252338	0.25454965	-0.06926054	0.35184848	0.15486288	-0.12606418	-0.066612914	0.19501074	-0.21247956	0.14602415	-0.007979946	-0.21878594	0.055763457	0.17289382	-0.5866531	-0.24300838	0.12747629	0.1340704	-0.021614945	0.33301157	-0.0072745495	0.0060375566	0.20069984	0.32596242	0.08180814	0.01918137	0.08745752	-0.15681459	0.036318295	0.32540554	0.052359335	0.10235342	0.11492038	0.25408345	-0.32780197	0.087482184	0.12764242	-0.31801012	-0.12255746	0.105818555	-0.31563348	0.027979054	-0.36520812	-0.2793325	0.26962575	0.037394267	0.17249158	0.015973495	0.06858415	-0.08647962	0.23952389	0.3356298	0.024172282	-0.35036296	0.1016651	0.371019	0.08309487	-0.21380939	0.023707414	0.27764016	0.14886828	-0.42034692	-0.29588947	-0.018934745	0.07777936	0.053490356	-0.30654705	0.06674887	-0.35836735	0.093406454	0.2859632	-0.2553769	-0.41893396	0.021283684	-0.3971309	-0.32810667	0.3891545	-0.043106824	0.21323268	0.18192816	-0.13778193	-0.3936336	-0.512013	-0.024716359	-0.810185	0.44420898	-0.28585023	0.017017666	-0.37807953	-0.097258754	0.08553489	0.048366513	-0.25326028	-0.2599818	0.020259092	0.19541952	-0.20082808	0.24332653	0.33080015	-0.12995382	-0.011427087	0.14650035	-0.15725332	0.5912319	-0.07442099	-0.09901864	0.95750415	-0.39323205	-0.22651076	-0.2815436	0.0009105938	0.26757422	-0.18210708	-0.124357864	-0.4485451	-0.04027263	-0.23586887	0.003732622	-0.41838086	0.4218978	0.27902454	-0.09213172	0.02857984	-0.058750425	0.25168827	0.21814355	-0.1996681	0.06220921	-0.30321953	-0.2213166	0.01202371	0.047584534	0.022438504	0.31456828	0.10864896	-0.25735474	0.0031206529	-0.2183267	0.080858484	0.06533581	0.17683539	-0.03262738	0.08433088	0.139343	0.38040027	-0.16925916	-0.12193061	0.116238296	-0.018885134	-0.1398519	0.20255637	-0.49052212	0.428772	0.18312448	-0.07864749	-0.077675365	0.15822768	0.054295104	-0.07258196	0.18105532	-0.41884914	-0.115301006	0.037013024	-0.1010309	-0.081435375	-0.24725987	0.0887884	0.031892963	0.40709773	-0.28952682	0.35398155	-0.25749394	-0.14546125	-0.13386087	0.3518737	-0.06094022	-0.104366824	0.21465331	-0.24907152	0.23976773	0.018119043	0.11676427	0.47417518	-0.10216698	0.18735369	0.078618094	0.01659053	-0.10492183	-0.011927857
CCKAR	-0.11591376	0.029695516	-0.05738697	-0.3040223	0.23916236	-0.20455311	-0.03897959	-0.37357435	-0.13582069	0.4110907	0.027195929	-0.15700167	0.113540925	0.1498685	0.1389635	0.034682587	-0.0840471	-0.3471518	-0.1508832	-0.3635306	0.21685545	0.08689939	0.0032050842	0.23463026	0.033490054	-0.25314128	-0.24837588	-0.18872741	0.114223644	0.013694838	0.4423635	-0.070928454	-0.048746068	0.2130905	0.21979025	-0.107725166	-0.08647009	0.0058208196	-0.10730636	0.20826754	0.024825228	-0.0039627603	0.053674035	0.461093	0.16594593	-0.2317432	0.007193342	-0.051990766	0.083014034	-0.26901746	0.2644208	-0.26113293	-0.3136131	-0.114961304	-0.2697422	0.14459379	-0.011582464	-0.017108956	-0.23338126	0.7260867	-0.059045665	-0.30018032	-0.04793076	-0.055834346	-0.08338766	-0.07082671	0.28225332	0.12681094	-0.32535884	0.095923886	0.13000955	-0.040800367	0.010372923	0.046312604	-0.5104167	-0.1813428	0.019259777	0.07233372	-0.072368376	-0.06041339	0.35855925	0.24558164	-0.21741161	-0.57268465	-0.06418452	-0.63173985	0.0072707194	0.31259096	-0.14186336	0.10546757	0.4351812	0.052023962	-0.18637916	-0.56904906	-0.08513506	-0.25343737	0.1952222	0.2300338	0.20995575	-0.1715495	-0.27530366	0.07621867	0.023096846	0.3168894	-0.20861377	0.09099792	-0.052732207	0.23612897	0.21628067	0.07044967	-0.27422234	-0.20563284	0.2579319	0.10309786	0.5975529	-0.13406281	-0.40884307	0.348033	0.072084464	-0.32864782	-0.36331436	0.1757787	0.08160892	0.2779794	0.2659965	-0.055992194	0.15864275	-0.22151984	0.1470889	-0.3538935	-0.23349132	0.1409685	-0.22923994	-0.05058178	-0.24821761	0.1509271	-0.04973464	-0.38782504	0.31155214	-0.27579784	-0.0052923197	0.04400257	0.21574107	0.09527821	0.24624659	-0.22944649	-0.02309766	0.34465447	0.12948337	0.16547789	-0.27913642	0.2244275	0.21026316	0.29084796	-0.3084764	-0.1773189	-0.35048553	0.0863151	-0.27181885	0.19043969	-0.059874836	0.20534416	-0.4385404	-0.031554833	0.45050532	-0.360463	0.422396	0.15680334	-0.038884602	-0.19366094	0.04613606	-0.71866095	0.11424599	-0.3485411	-0.17529857	-0.07646649	-0.19269982	0.17046952	-0.1687159	0.23105866	-0.34742832	0.19476338	-0.010023119	-0.005737824	-0.15009975	-0.06556118	-0.08553244	-0.3197082	0.14034857	-0.1681617	0.30613062	-0.24706006	0.09072935	0.103124686	-0.072220504	0.18907146	0.048396982	0.07445904	0.0710584	0.36358735
CCR5	0.4291694	-0.1761623	-0.08419887	-0.329408	0.20263873	0.21309353	0.19626287	0.1402909	0.08698603	0.1865432	0.15287775	0.15479632	0.099608384	0.4781442	-0.22252193	0.038273934	0.05539598	-0.5762276	-0.14935552	-0.14302672	-0.09758155	-0.12312248	-0.39009765	0.00845978	0.48278826	-0.73616916	-0.26091596	-0.15682983	-0.15835074	-0.20298263	0.38033605	-0.03662655	0.3867076	0.09715204	0.33092284	-0.34937653	0.052208237	0.051712215	-0.36539727	0.14925294	-0.3591947	-0.008077226	-0.04884301	0.11131433	0.23098953	-0.62490684	-0.4377393	0.043383572	-0.09778	0.036225364	-0.3510467	-0.17039406	-0.05713743	-0.37257874	-0.3713004	0.010144436	0.11944054	0.5040939	0.31639236	0.33293158	0.08275366	-0.27870968	0.1995535	0.34948856	0.1644256	0.2602016	0.30950826	0.30238712	0.10695226	0.083140954	0.2827837	-0.14082895	-0.13291264	0.21953528	0.17367771	0.1961849	-0.4331077	0.3368723	-0.060133476	0.36566424	-0.41139197	0.021967078	-0.29455566	0.010343943	0.0707098	-0.01441612	-0.31383497	-0.10602714	0.031671487	-0.30315042	0.21783265	-0.16101684	-0.0029582758	-0.21569678	0.29049128	-0.17271382	0.3974737	-0.1835104	0.005226411	-0.15123293	0.11309292	0.031660877	0.055282965	0.28142107	-0.10173769	0.1931476	0.21882264	0.5044894	0.18118964	0.3019652	-0.1786548	0.26571834	-0.1493092	0.086727545	0.4404139	0.18044747	-0.094174854	-0.1057439	0.22378607	-0.14645135	-0.46939632	0.18094596	0.21482377	-0.160097	0.04278503	0.093709685	0.106584005	-0.36594695	-0.11856136	-0.14492713	-0.11716251	0.45940107	0.2249101	0.109628946	-0.3244842	0.0921922	-0.031476	-0.43851548	0.25292817	0.39011085	-0.17034017	0.41312477	-0.19590858	-0.022790229	0.05559075	0.18486395	0.10303811	0.17021783	0.16052118	0.12983082	0.042049736	0.26163182	0.07345174	0.3036155	0.057207372	0.13618492	0.24851714	-0.19418153	-0.37215373	-0.23942508	-0.050066087	0.2654318	-0.09828415	0.3290414	0.3395796	-0.36874816	0.24963337	-0.15131892	0.09133765	0.085889235	-0.1004276	-0.2451521	-0.07043915	-0.004683548	-0.2443033	-0.32499632	-0.13396275	0.14454037	0.13146318	0.06872124	0.05365015	0.31629276	-0.3757859	-0.089088544	0.11807823	-0.27712056	-0.27286983	-0.17950414	0.157905	-0.09552341	0.1766516	-0.3714956	0.40152144	0.38256672	0.2823553	0.19522445	-0.41565284	0.07025996	0.24542242	0.1634649
CD19	0.48738647	-0.22329728	-0.06055622	0.19588923	-0.09760393	0.30335376	0.05333395	0.43029672	-0.04099204	-0.36559087	0.15525214	0.07111229	0.5368172	0.59974647	-0.5445235	-0.20977427	0.1226132	-0.9158445	0.19715855	-0.25107482	0.30194598	-0.47990644	0.081532344	0.33324033	0.39352715	-0.8564938	-1.0701485	0.2187269	-0.30205622	-0.2509229	0.05073515	0.07781573	0.033384725	-0.14115761	-0.1986675	-0.86290634	-0.079770826	-0.15076768	-0.43412578	0.19107541	-0.20412804	-0.097538434	0.042894375	-0.113425165	0.5747175	-0.5197989	-0.43110254	0.034349058	-0.11294527	0.41782412	0.2108482	0.17351882	0.0702675	0.35525498	0.42511243	0.07555349	-0.23645246	0.51051253	0.021209357	-0.11526862	-0.09067549	-0.13265158	0.7418058	0.16219793	0.2375681	0.13283803	0.0029247808	0.008589711	0.001782782	0.15019925	0.19388917	-0.086996205	-0.21288899	-0.14065085	0.08207691	0.26552176	-0.76784974	0.43313587	-0.17378066	-0.06515375	-0.07802453	-0.4324223	-0.2032105	0.12283226	-0.3535123	-0.13137521	-0.3840743	-0.097725555	0.007175953	-0.56147164	0.10458126	-0.000842608	0.09212363	0.12380693	0.53659576	-0.3602259	0.054124266	0.21759672	0.10104486	-0.3205104	0.14359318	0.34274742	0.26313174	0.66871095	-0.21812798	-0.21377279	0.13836484	0.19159174	0.6201456	-0.2008899	-0.32231617	0.028956925	-0.12840591	-0.031086735	0.24301834	0.043222476	0.3472685	-0.20616618	-0.18522559	0.21731919	-0.11829164	0.052717395	0.2408471	-0.45196933	0.31782642	-0.099271044	0.15395996	-0.0007625298	-0.4506693	-0.08275696	-0.30200922	-0.14786306	0.042880192	0.10666219	-0.4326568	-0.25483328	-0.13773857	-0.10653569	-0.021756181	0.24032961	-0.2695668	0.29007205	-0.013255714	0.3584787	0.012708693	0.011007397	0.13643312	0.0085510025	-0.28884128	-0.11572899	-0.15661234	0.065837234	-0.36538443	0.2960736	-0.13345826	0.21354663	-0.1937754	-0.28816456	-0.10096918	0.29504165	-0.23343539	0.43229488	-0.47510877	-0.15707265	-0.06339687	-0.211987	0.0232936	-0.010671633	-0.32314372	0.032987572	-0.28180152	-0.46318743	0.0539506	0.019878222	-0.30333084	-0.04478212	-0.4507351	0.613751	-0.4725298	-0.20370612	0.35607082	0.193532	-0.30322647	0.24627355	-0.107876174	0.0807843	-0.57874894	-0.49713293	-0.20210369	-0.1313019	-0.21296577	-0.29297838	0.120893024	0.1313468	-0.09007095	0.32373086	-0.031114705	0.30605695	-0.07595085	0.2486292
CD2	0.47766772	0.10786642	-0.031764887	0.14464562	0.02655326	0.59259206	0.018394146	0.21148145	-0.15733647	-0.038902044	0.27898145	0.08800977	0.27067074	0.4490326	-0.39707917	-0.20196888	0.00034139765	-0.78575665	0.30905265	-0.18823762	0.015657254	-0.22197664	-0.13826269	0.20709682	0.1788741	-0.75312304	-0.36032248	-0.01062801	-0.076104045	-0.1822718	0.15948309	-0.0032439972	0.1427042	-0.10754593	0.088447526	-0.7599957	0.29437172	-0.21771286	-0.44053856	-0.1414107	-0.13071164	-0.10990471	0.21490782	-0.05528778	0.3533118	-0.4122811	-0.30563748	0.05206705	-0.1621186	0.10359008	0.063654274	0.33073336	0.05392189	0.22695555	-0.03920451	0.1839875	-0.15884721	0.48952693	0.016967343	-0.008174313	-0.29504094	0.0005288754	0.33315876	0.100545906	-0.005029591	0.4265118	0.24811065	-0.15363151	0.043623574	0.063038655	-0.024289578	-0.022974335	-0.07554293	-0.22028314	0.28842184	0.32120723	-0.6714567	0.23645887	-0.16060987	0.09860618	-0.06375533	-0.2649789	-0.43921575	0.10692073	-0.27222174	-0.121983185	-0.5318845	-0.07018234	-0.024025617	-0.37790522	0.12102088	-0.1634402	0.109157205	0.022020252	0.29452258	-0.15911661	-0.03236079	0.16566616	0.067076385	-0.2786658	-0.063047834	0.19625834	0.01405762	0.77024347	-0.1661643	-0.23401932	-0.10630734	0.34907052	0.46373707	-0.167972	0.0749123	0.032349993	-0.13712981	-0.10843988	0.20469216	0.06307699	0.096455015	-0.06568354	0.12138925	-0.30345547	-0.06096781	0.040099166	0.28399244	-0.28167018	0.107940525	-0.14801484	0.21728076	-0.35470816	-0.2732246	-0.18103096	-0.29530326	-0.20112842	0.22547717	0.07093201	-0.5171659	-0.101426825	0.16137412	-0.23767023	-0.19164789	0.21161538	-0.074142456	0.47790185	0.0055259583	0.20446937	0.22685532	0.13008507	0.009685957	0.057771325	-0.36470568	0.09797167	-0.23700643	0.24835023	-0.22981454	-0.03868906	-0.28574505	0.1329707	0.015625091	-0.013693168	-0.08656124	0.17263624	0.039524626	0.044261348	-0.32769722	-0.124396324	-0.043559358	-0.061066546	-0.13639952	0.07955292	-0.32250875	0.032452464	0.02319869	-0.35540864	-0.27885434	0.06954697	-0.1637063	-0.19361427	-0.21155968	0.45585054	-0.09674417	-0.14391385	0.22683759	0.13662425	-0.19128759	0.14563686	-0.078616954	-0.1309667	-0.46006086	-0.44367993	-0.26520762	-0.29518658	-0.256795	-0.20485897	0.08378513	0.21345218	0.12245776	0.13441752	0.041640274	0.24891284	-0.12770085	0.3230338
CD33	0.41487065	-0.08472394	-0.20073195	0.123443276	-0.7144645	0.12063749	-0.11524292	0.17639618	0.19855583	-0.13797487	0.31566086	-0.06704074	0.620352	0.63762087	-0.7160426	-0.111540735	0.17060855	-0.8244406	0.08352034	-0.3126349	-0.06891545	-0.31213203	-0.21746053	0.2849761	0.29512152	-1.041283	-0.66142935	0.29778478	-0.17415383	0.030082615	-0.36411738	0.1313888	0.15756275	-0.00166999	-0.10930364	-0.83928597	-0.009317559	-0.07588813	-0.50005585	0.20354027	-0.16769277	-0.17174989	0.14661588	-0.6672105	0.60659736	-0.4702315	-0.2742001	0.08861698	0.117550485	0.19916475	0.39567417	0.02023137	-0.18952158	0.3898933	0.12753078	0.1510863	-0.16749127	0.4833148	0.10989201	0.02506272	0.12306841	-0.007702919	0.56084484	-0.047207467	0.18923336	-0.22323106	0.16284035	-0.1303648	0.3206548	-0.17110324	0.092268795	0.02308666	-0.09234301	-0.06831534	-0.20195612	0.6246714	-0.21207803	0.5759502	-0.20804161	-0.21085438	-0.105429314	-0.4975299	-0.2325302	0.15963654	-0.5322408	-0.3550261	-0.6652946	-0.3023125	-0.13066722	-0.14831723	-0.08347576	0.14053531	-0.19605905	0.07884552	0.6229778	-0.49308303	-0.0005859676	-0.394419	0.0019377262	-0.15124561	0.12802716	0.4672958	0.24408588	0.4315178	-0.35375562	0.057514235	-0.058285695	0.21127017	0.7004974	-0.16611071	-0.49822912	0.26537216	-0.18397552	0.02554956	0.6011661	-0.22031116	0.23794436	-0.113501176	-0.06328228	0.52217776	-0.42912713	0.17775977	0.074180074	-0.21365607	0.4657212	0.12186437	0.2597096	0.018284224	-0.37154156	-0.22929305	-0.29391792	-0.3456859	0.22524701	-0.08101475	-0.34498	-0.23521091	-0.22370692	6.8644404e-05	0.071260035	0.0011659934	-0.22128792	0.038728487	0.07315322	0.18837945	-0.14487456	0.053082407	0.22570498	-0.15953852	-0.0710736	0.04293477	-0.07028742	-0.032059852	-0.4343164	0.39582318	-0.004732148	0.07213412	0.08734665	-0.07906324	0.39617172	0.24240164	-0.23448725	0.4042843	-0.42581564	-0.25296357	-0.28572842	-0.26134357	0.08593936	-0.06882901	-0.23748995	0.18453754	0.017679317	-0.38449368	-0.0049955826	-0.0018309893	-0.3847444	0.09268842	-0.3618984	0.7169154	-0.5283511	-0.2640938	0.4362558	0.13201329	-0.24822612	0.25542712	-0.28600052	0.22684582	-0.7783207	-0.7533445	-0.030382225	0.009015668	-0.24062745	-0.23676977	-0.17650063	-0.08022337	-0.26182616	0.46019724	-0.31396604	0.28506458	0.050334625	0.15084396
CD3G	0.5225559	-0.19396397	-0.16496116	-0.02072912	0.066084154	0.35746643	-0.3394113	0.39275995	0.07581968	0.012384558	-0.11204169	-0.39889044	0.25862008	0.38460237	-0.08244639	0.16925532	-0.114840396	-0.2749184	-0.07836199	-0.038765963	-0.1609378	-0.2840491	-0.45318004	0.12790279	0.13987072	-0.52707523	-0.30134636	0.527017	-0.0026796747	-0.47788653	0.20876865	0.32375494	-0.1198925	0.16985671	0.08882587	-0.1265133	-0.15610719	-0.28296104	-0.41339666	0.16040829	-0.128588	-0.30051807	0.115547225	0.25329953	0.39197433	-0.40198985	-0.41465136	-0.41550228	-0.43271595	0.16626784	0.27406764	0.020337325	0.1277617	0.18671456	0.032583937	-0.24668014	-0.28316957	0.15282148	0.2914875	0.25208834	0.035786815	-0.035166185	0.12840664	0.07100152	-0.14661337	-0.16728483	0.21735115	0.053030513	0.047582444	0.1075691	-0.029750602	-0.08720219	-0.0645972	-0.26347092	-0.06802437	0.011195868	-0.41488394	0.23478459	-0.19237216	0.14492466	0.36096936	-0.21405487	-0.2736051	-0.32901633	-0.0050397306	-0.6284871	-0.61825633	-0.17757583	-0.05375196	-0.20218651	-0.18670014	0.24036212	0.0067001674	-0.14979951	-0.014672392	-0.2257637	0.19964476	-0.078063935	0.11590682	-0.33451068	-0.2709031	0.54722863	-0.052453164	0.15973663	0.08936287	-0.51142246	0.03482885	0.088644534	-0.019289656	-0.1764108	-0.22194149	-0.013211051	0.21514802	-0.3052555	0.32815617	-0.47215623	-0.122191586	0.21071157	0.26024508	-0.34065476	-0.15409811	0.15329513	0.28998247	-0.17713936	0.089063756	-0.04497364	0.25103664	0.1154679	-0.40101483	-0.2204819	-0.1369957	0.193404	-0.2547817	0.015666468	-0.021455955	-0.33222625	0.030274019	-0.23556368	-0.11254267	0.46288723	-0.082277305	0.20853128	-0.053947933	0.018165007	0.2590731	0.13654365	0.19441384	0.3324119	0.08133923	0.31203204	0.05112919	0.26369956	0.10565558	0.21470606	-0.04170478	0.1654372	-0.41514507	-0.2846634	-0.28244412	-0.004561487	0.059644375	0.43074185	-0.45235196	0.11547854	0.31643876	-0.04483568	0.032689627	0.22382346	0.06938655	0.017595995	-0.17522657	-0.15164165	-0.023414318	0.17942667	-0.13720606	-0.11359394	-0.27141887	0.55892986	-0.44340256	0.07942793	0.25000343	0.018434776	0.016956717	-0.053984698	0.38999674	0.007239125	-0.13503972	-0.09125379	0.06638227	-0.1372097	0.23933542	-0.05199954	0.12298462	0.39523113	-0.16386706	0.21318874	0.034115933	0.11992347	-0.07317045	0.1244104
