	0	1	2	3	4	5	6	7	8	9	10	11	12	13	14	15	16	17	18	19	20	21	22	23	24	25	26	27	28	29	30	31	32	33	34	35	36	37	38	39	40	41	42	43	44	45	46	47	48	49	50	51	52	53	54	55	56	57	58	59	60	61	62	63	64	65	66	67	68	69	70	71	72	73	74	75	76	77	78	79	80	81	82	83	84	85	86	87	88	89	90	91	92	93	94	95	96	97	98	99	100	101	102	103	104	105	106	107	108	109	110	111	112	113	114	115	116	117	118	119	120	121	122	123	124	125	126	127	128	129	130	131	132	133	134	135	136	137	138	139	140	141	142	143	144	145	146	147	148	149	150	151	152	153	154	155	156	157	158	159	160	161	162	163	164	165	166	167	168	169	170	171	172	173	174	175	176	177	178	179	180	181	182	183	184	185	186	187	188	189	190	191	192	193	194	195	196	197	198	199
2-mercaptoethane	-0.06843713	0.29688862	0.015993094	-0.26916295	0.49483287	-0.027179142	-0.17783104	-0.015855992	0.44045046	-0.0763017	-0.07709787	-0.07055026	0.07729237	0.21330103	0.09022209	0.16916482	-0.2839787	-0.031716246	-0.111817524	-0.23979397	0.2512801	0.024656132	0.24253008	-0.094375044	0.32358074	0.05606874	0.16252482	0.46161973	-0.016207619	-0.33620864	0.10053984	-0.007145413	-0.36452118	0.07037012	-0.15395212	-0.3417602	-0.21081081	0.14313069	-0.2575606	-0.052007567	-0.23871666	-0.13713641	0.044234883	0.16789499	0.22760032	0.155833	0.079009674	0.6657269	0.21477203	-0.30033875	0.3872119	-0.06989034	-0.14125244	-0.2115711	0.008203948	0.018246992	0.38045475	-0.65086186	0.17981881	0.2581711	0.09037979	-0.07953018	0.18355648	0.014413302	-0.61091346	0.028358785	0.21092132	-0.0031825763	0.10343412	-0.36647028	-0.10051695	-0.16709279	-0.10662317	-0.41847995	0.2760001	-0.3071694	0.25212744	0.1971812	0.19965886	0.17623505	0.11143944	-0.21880847	0.32366735	0.065700985	-0.3597926	0.3191226	-0.29686505	-0.18439004	-0.08718642	0.34379375	-0.4472601	0.3999188	0.31726936	0.26537997	0.23814747	0.006681719	0.15243681	0.047479197	0.07553396	-0.076283544	-0.10754985	0.24464372	0.14708868	-0.1359934	-0.25404787	0.44277012	0.2595229	-0.29485956	-0.36442894	-0.19376482	0.010062774	0.14132877	-0.08360759	0.25856006	0.44443545	0.15687703	0.20292458	0.27289325	-0.10122809	-0.118280165	-0.05259889	0.04260425	-0.041171916	-0.36731863	0.7749688	-0.14148064	-0.025561903	0.11096946	-0.067060456	-0.3207982	0.2891275	-0.11661945	-0.032080375	-0.39308316	0.079828255	-0.1507719	-0.12129767	0.1819794	-0.11496313	0.14353654	0.13690063	-0.3266734	-0.21545097	-0.20624557	0.095919095	0.1680332	-0.35189116	-0.13360323	0.24343894	-0.14611153	-0.07599016	0.39210182	-0.28267086	-0.045734193	0.8353649	0.070721276	0.006413639	0.23853227	-0.3128617	0.5930675	-0.046710357	0.49741665	-0.1730402	0.07729416	-0.20512918	0.41742948	0.42809874	0.26066732	0.12520209	-0.31011173	-0.51241654	0.43345279	-0.17459172	0.6874777	0.22486115	-0.41038284	-0.16546223	-0.17571974	-0.022636801	-0.32162917	-0.11762975	-0.54539347	-0.2581096	-0.51057446	-0.43626434	0.2523466	-0.19928238	-0.22546935	-0.5405245	0.21888587	-0.027471686	0.11996674	-0.074505426	-0.3258709	0.30614662	0.0884003	0.035131045	0.033540342	-0.12307961	0.38636416
5'-phosphate	0.23615114	0.058918826	-0.06705726	-0.1967291	0.46442914	0.039194487	-0.7221156	-0.071847156	0.25275186	-0.23209958	-0.42678156	-0.19598089	-0.2939877	0.0068153506	-0.4034245	-0.27734607	-0.50915164	-0.076496065	-0.0074612233	-0.21695298	0.02612766	-0.01639618	-0.09609067	0.6368035	0.2652294	-0.15114531	0.12406418	-0.083691545	0.014651532	-0.2395683	0.47664782	-0.46820217	0.10770204	-0.18003695	0.1005932	0.55549043	-0.019586131	0.43526396	0.44616687	-0.3062891	-0.24719824	0.37669334	0.07467409	-0.5051763	0.017014539	0.16423772	-0.43783006	-0.042555317	-0.28163072	-0.08845224	0.015459933	0.011011854	-0.17598356	0.07336872	-0.074250065	-0.28412694	0.540769	0.014300916	0.17471173	-0.18845153	0.039988294	-0.056115188	-0.44942078	-0.35885847	-0.20235479	0.29394886	-0.51015335	-0.11940083	-0.106223874	-0.7657282	-0.074558094	-0.479898	-0.070712455	-0.2981137	0.58733106	0.55178225	0.148512	-0.13835493	0.039330255	0.55760777	-0.07517083	-0.23343632	0.18721922	0.19655499	-0.036603183	-0.12526946	0.09862406	-0.24753273	-0.09287096	0.45007062	-0.11092328	-0.0732004	0.4664439	0.1613462	0.0126166865	-0.30302808	0.0498537	-0.3316896	-0.61703897	-0.2607993	-0.22528711	0.5763474	-0.036176562	0.07571249	0.095005654	-0.021107396	-0.4980551	-0.048581753	0.1692777	-0.16245595	-0.08756841	0.06517514	-0.13858454	-0.1326578	0.1977257	-0.047984853	-0.53406465	0.40481222	-0.039315365	0.035113573	0.0018670893	0.0582389	-0.095382504	0.39550507	0.20014565	-0.5054297	-0.03493722	0.14092709	0.29459688	0.41825667	-0.67137474	-0.008428902	0.15452017	0.48844177	-0.06602646	0.385817	0.09589258	-0.34308076	0.5200752	-0.19543085	0.019212553	-0.18154941	0.48115754	0.010392097	0.17828055	0.4176097	-0.25115544	-0.15541548	-0.6657775	-0.6161064	0.051017977	-0.73833776	-0.4811813	-0.59649867	0.79072374	-0.33293658	-0.18197308	0.35738686	0.43762934	-0.18079513	0.12849379	0.03359099	-0.7124763	0.2293971	-0.18316992	-0.12511556	0.18096091	0.18842414	-0.4779102	-0.4137849	-0.02367047	-0.16436356	-0.8654839	0.20071726	0.25055003	-0.20072278	-0.26581174	0.41388726	-0.35130173	-0.02173535	0.3278826	0.08810134	-0.2799817	-0.30007067	0.13192707	-0.12052128	-0.11721656	0.29858914	-0.5101063	0.9067245	-0.10620855	0.04896378	-0.114308335	-0.22547017	0.1510577	0.24273592	-0.2591156	-0.07416146	0.072838664	0.054318056
90	-0.18281592	-0.0436537	0.2600334	-0.046224743	-0.14248888	0.057017826	0.20740505	0.078858875	0.010487674	0.31693813	0.026705844	0.11574735	0.15659316	-0.12296208	0.026375968	-0.123729035	0.17745872	0.20798734	0.0028557926	-0.061013427	0.112997875	0.19272296	-0.11252949	-0.2283629	0.045051023	0.06930169	-0.15112403	0.3595467	-0.121254906	0.02031303	0.12152217	-0.008231923	0.026971526	-0.35698685	0.37872908	0.023384834	-0.02125757	0.19260482	-0.06623701	0.0027404479	-0.043371335	-0.13622223	0.23579493	0.065404095	-0.0918083	-0.05099855	0.025191866	-0.18293212	0.08446612	-0.015423259	-0.10172377	0.023677852	-0.25332722	-0.20007987	-0.026730055	-0.20955291	0.098896496	-0.021048995	0.1727931	0.037547253	-0.28635445	-0.107234135	-0.051066607	-0.15129419	-0.08676379	-0.020232372	0.04751195	0.011758022	-0.03818176	-0.3019166	0.033209816	0.115907334	0.08339243	-0.03912638	0.081633486	0.08342382	-0.17701676	-0.1352623	-0.18582991	0.021532701	-0.18519887	0.06761549	0.11738088	0.08060437	-0.05455875	-0.0065640784	-0.28292993	0.019788422	-0.021397172	0.09803116	0.11558028	-0.35744932	-0.3476565	-0.09068614	0.20431148	0.14069499	0.14655803	0.1567888	0.073594786	0.1637567	0.31649676	0.061358236	-0.046514157	0.09927144	0.04583199	0.031914037	-0.004117537	-0.20440812	-0.17489415	-0.0048386324	-0.04844873	-0.08094243	0.5500385	0.22330718	0.07425665	0.014088811	0.17482539	-0.048005927	-0.05444281	-0.040987488	-0.063279904	0.015475936	-0.15680134	-0.35843903	-0.6915034	-0.1061676	0.009786161	-0.29496738	-0.23449169	0.09701113	-0.23745248	-0.11662535	-0.15030548	-0.37255284	-0.0061746747	0.2877569	-0.107873656	-0.018264044	0.043893464	-0.27880463	-0.05199545	0.3381283	-0.08262787	0.18935592	0.06816515	-0.033645324	-0.0653306	-0.1646825	0.38476837	-0.064265266	0.12570144	-0.20602539	-0.23122065	-0.055949673	0.096509926	0.1699947	0.3289645	-0.1426382	0.014575385	0.11175096	0.19648911	0.05694118	0.09110374	-0.1721044	0.1017253	0.036187485	-0.30333027	0.2761429	-0.1883297	-0.12569822	0.12516958	-0.18697463	0.06831304	-0.22993828	-0.018607905	0.2303173	-0.032071713	-0.025498843	-0.07121486	-0.11336458	0.14926681	-0.043533895	-0.09964152	-0.17809294	0.10973844	0.13757886	0.06941867	0.04377893	-0.126427	0.041168768	-0.13721798	0.07940982	-0.16068326	0.23872223	-0.029722292	-0.16332099	-0.043282036	0.12460965	0.075237684	0.15695943
a	-0.11973481	-0.1170614	0.13836469	0.031939726	-0.0014992214	0.018906353	-0.12137138	-0.022017207	-0.07679034	-0.05317554	-0.19014783	-0.2446853	0.08304848	-0.0063025164	-0.054150116	-0.07712795	-0.025476562	-0.27534682	0.057767715	0.23349111	0.098666325	-0.04849981	0.09197145	0.10120852	0.0841772	0.07317156	-0.001382479	-0.09917982	0.114578046	0.17817104	0.08332647	-0.2110164	0.13087681	0.02585075	0.18179251	0.06727538	0.0043209484	0.19128942	-0.087465286	-0.14114195	0.028995598	0.16107927	0.0780914	0.022477003	-0.0261612	0.009060043	-0.121141896	-0.28919145	-0.006701839	-0.08077881	-0.052804153	0.026800035	0.0002476075	-0.025049528	-0.036930796	0.13109954	0.011203611	0.01535049	0.08402532	-0.08619639	0.13775769	-0.27415168	0.021804724	-0.073870994	-0.07285122	0.13943799	-0.027034188	0.03871963	0.16623509	-0.016946835	0.048895568	-0.048061516	0.07733199	-0.041330483	0.031402715	-0.12928623	-0.027976118	0.20337799	0.055786293	-0.07843766	-0.08979375	-0.14217754	-0.059054364	0.021698544	-0.10900249	-0.10386438	-0.17536205	-0.10141819	-0.12648274	0.070682116	-0.056242254	0.053686634	-0.0015814045	0.0133257145	0.026545672	0.15816297	0.06966799	0.029099204	0.18929988	-0.10009594	0.06618334	-0.09327375	-0.025230344	-0.09955117	0.05822877	-0.080277674	0.08970641	0.21414265	-0.09325097	0.109745346	-0.06265229	0.0074483985	0.01714289	-0.059182458	0.14155492	0.041668613	0.007857002	0.12636769	-0.18001878	-0.16770981	-0.016183706	0.036817595	0.004368507	-0.29859242	-0.056085024	-0.099852495	-0.08769604	0.058145113	0.056883983	0.16787346	0.17476983	-0.014274322	0.06369853	-0.07687075	-0.10568417	0.0885785	0.036788642	0.034524128	-0.07797749	-0.04181919	0.044940848	0.13983108	0.0560773	-0.04012479	-0.26834965	-0.08324106	0.19477078	-0.0023287772	0.0410002	0.12519856	0.17632115	-0.039531786	-0.024880713	0.04490157	0.09868569	-0.19130647	0.16244479	0.036073197	0.085250415	0.09173696	-0.042444706	-0.17781304	0.05143787	0.067484386	0.044638664	0.08590244	-0.34479886	-0.12706457	-0.106347464	-0.08397296	0.0017905968	-0.109520525	-0.07924557	0.039836064	0.008950111	0.059370156	0.057658613	-0.22463995	0.089836046	-0.04099972	-0.06548397	0.07775395	0.028673938	-0.1453865	0.07775579	0.0002734014	0.13653216	-0.047207046	-0.027197368	-0.10807322	-0.11607319	-0.012562368	-0.11059388	0.13005792	-0.037761457	0.05526964	0.093516685	0.41053352	-0.0494159	0.17153479
abarelix	-0.10516387	0.35150135	0.047296498	0.26529452	0.18715094	-0.065108486	0.3953664	-0.3582882	-0.04273736	-0.03060262	-0.0036308398	-0.21527381	0.040848292	0.07287364	-0.010086865	-0.21004198	-0.11701187	-0.23205906	0.09730654	-0.30766782	0.11770095	0.24488923	0.11470114	-0.023507813	-0.31329995	0.21725246	-0.18589291	0.35031697	-0.21057525	-0.05494571	0.16623686	0.008311407	-0.28476784	-0.061525118	0.26668492	0.06553363	-0.44228646	0.18517198	-0.14054501	0.09774056	-0.2930927	0.13398305	-0.079706125	0.31943822	0.32518524	0.03609148	0.16471809	0.46334764	0.041753627	-0.029715441	0.2838227	-0.011812961	0.17711274	-0.13372594	-0.2505048	0.12746835	0.3236697	-0.08992576	0.1496571	0.3126115	-0.0045394953	0.12521143	0.20980377	-0.10243577	-0.7217667	0.13792177	-0.23125882	-0.3432791	-0.0652678	-0.018549846	0.13259265	0.064322695	-0.6329026	0.12907587	-0.11325348	-0.12286725	0.22854432	-0.050779972	-0.20810619	0.10367054	-0.15284087	0.30012783	0.16492788	-0.060051795	0.0059445733	0.041102007	-0.15774317	0.26054502	0.20971125	0.11639811	-0.18118472	0.356945	0.0897348	0.14530313	-0.05880588	-0.07287393	0.097093135	-0.20224537	0.12964489	0.3795262	-0.16337697	-0.33703196	0.20049192	-0.12162553	0.24365051	0.21328327	0.41473693	-0.026919695	0.06505905	0.021370802	0.2687994	0.053763337	-0.09609574	-0.15587336	0.050678685	0.2527459	-0.20521829	0.09937232	0.021145055	0.14374264	-0.077258945	-0.30055413	0.2557849	-0.043122217	-0.18903744	0.33130524	-0.042789947	0.0205349	0.05647346	-0.14204593	-0.281255	0.6436816	0.09017765	-0.029505517	0.07606315	0.13744593	-0.16194198	-0.04564707	-0.038534693	0.32453743	-0.06312326	-0.09207816	0.00885728	-0.20505568	-0.069774695	0.08523329	0.39379144	0.06748485	0.27058426	-0.013028459	-0.079113156	0.12018158	0.16953206	0.109212466	0.37315637	-0.25854254	0.21619351	-0.30306444	0.13121119	0.031102872	0.0034816116	0.1495962	-0.08829795	-0.096947454	-0.10930801	-0.043643564	0.37334538	-0.042783476	0.15563636	-0.20661393	0.08177667	-0.1774526	-0.16152753	0.037789654	-0.09960655	0.09568047	-0.10287191	-0.30127788	-0.24007826	-0.18488866	-0.16114952	0.030108258	-0.16773476	-0.22808824	0.055909757	-0.28031248	0.08329503	-0.04452232	-0.01226736	0.06270218	0.030086754	-0.3578968	-0.10201409	0.03362716	0.2050159	0.028440334	-0.115607455	-0.07648039	-0.47517958	0.16589178
abatacept	0.002331176	0.3234867	0.01153507	0.21396334	0.024010092	0.45159698	0.22425264	-0.19774368	0.23995046	0.17259802	-0.07406301	-0.09265627	0.18149875	-0.049107548	-0.08178611	-0.016793411	0.14819677	-0.29561	0.16105476	-0.34891778	-0.21583743	0.13255078	-0.1307687	0.012934757	-0.19921894	-0.2272356	-0.16285929	-0.24690136	-0.18276903	-0.3306618	0.1524622	0.1116013	0.02644073	-0.42622343	0.10152739	-0.31822014	-0.26876727	0.19633825	-0.26364338	0.045820873	-0.5666771	0.08019866	-0.29635304	0.15206073	0.31753573	-0.34360895	0.21128894	0.036310427	-0.26488736	-0.030625885	0.20373905	0.11390065	0.23525529	-0.023040568	-0.36878377	0.061844207	0.057486773	-0.22586057	0.61883605	0.13813548	0.017657064	0.17757042	0.2676665	0.12935568	-0.4300728	0.23207177	-0.17205492	-0.3066401	0.13917856	0.16482054	0.46506053	0.3990875	-0.40634662	0.10772342	-0.26285073	0.15609273	0.3811331	-0.36309168	-0.45307654	0.2682071	-0.18521723	0.21022141	0.3277911	-0.068402626	-0.62701833	-0.068197735	-0.48903182	0.2745771	0.11460259	0.19951276	-0.35042855	0.14456679	0.104171015	-0.006382383	0.6254714	0.3200535	0.20054486	-0.2916286	0.19021173	-0.25702754	-0.024012526	-0.43642345	0.3296187	0.28831828	0.3084888	-0.0467578	0.17274432	0.045820046	-0.13910396	0.20836306	0.50267386	0.009422947	0.034854442	-0.40505198	-0.06654235	0.5815636	0.015920922	-0.2421168	0.5330621	0.6196863	-0.22391184	-0.31255707	0.09856119	-0.2446664	0.00050166185	0.39746714	-0.02043037	-0.1691441	-0.16677126	0.12933795	0.01450341	0.1230329	-0.19092369	-0.32679304	-0.49168986	0.05834255	-0.27884874	0.33756095	-0.18358263	0.2754047	0.008185108	0.008502946	0.16886392	0.20944363	-0.18520541	0.15783007	0.37712178	0.119541064	-0.34234148	-0.006046558	0.17007671	0.065436445	-0.19750991	0.17209962	0.23012978	0.001618149	0.14012267	-0.2667326	-0.059599016	-0.0035498054	-0.22537908	-0.22774717	0.2769862	-0.20268865	-0.35201788	0.29343903	0.5473329	0.5364957	0.31369072	-0.48923868	0.06320999	0.029211221	-0.43743053	0.051376667	0.060713217	0.32852063	-0.3072689	0.16540916	-0.013321968	-0.5435379	-0.00973097	-0.13985299	-0.69584435	-0.058634747	0.19933566	-0.08758691	-0.14002164	0.34237927	-0.022360682	-0.29631317	-0.12885408	-0.30701223	-0.004503738	-0.18134698	0.19983993	-0.4898047	-0.08221413	0.08975256	-0.60236907	0.19185463
abciximab	0.087001	0.15056992	0.10575866	0.051661603	-0.03480916	0.029074645	-0.304426	-0.19946316	0.17841955	0.24920529	-0.51493084	-0.052398723	0.13641632	0.010462435	-0.14517477	-0.11231775	0.004152168	-0.2843608	0.2930548	-0.32018933	-0.10894499	0.28735897	0.20033969	0.18113047	-0.28258488	-0.37957668	-0.0639849	0.13555796	-0.28636762	-0.18277873	-0.1769188	-0.10482101	-0.07184928	-0.0899702	0.4339965	0.231406	0.010746188	0.387539	-0.549474	-0.2699074	-0.79672915	0.12900738	-0.65903854	0.51664263	0.07984952	-0.083941035	0.21695073	-0.023615802	0.20382403	-0.22197443	-0.13300335	0.0055334605	0.1965233	-0.34647584	-0.716234	-0.119723655	0.27240956	-0.47799355	-0.075002134	0.18451273	0.20910172	0.04393096	0.19387308	0.0011592039	-0.58660847	-0.6210041	-0.27751887	-0.19210614	0.1581903	-0.27368438	0.04427354	0.30725402	-0.018678172	-0.13263023	-0.2601401	0.34717706	-0.04841394	-0.1771097	-0.50580794	0.14827965	-0.013028502	-0.07969322	0.42025134	0.18732569	-0.10062513	0.19980761	-0.26487428	-0.24370182	0.31072882	0.19686028	-0.17658803	0.015737878	0.100206636	0.1937413	0.3372261	0.053589195	0.3977753	-0.09388498	-0.33960408	-0.5787459	0.043731406	0.04757678	0.5084432	0.24739969	-0.021549692	-0.2030697	-0.056096725	-0.060037225	-0.064730905	0.13735928	0.23854613	-0.0028774114	-0.49492115	-0.31987727	0.4564841	0.43215412	0.18776277	-0.26240432	0.08735111	0.45276153	-0.18074086	0.029512722	0.2574149	0.15807535	-0.10555757	0.5802208	0.2538101	0.063622475	-0.48791537	-0.37065563	-0.14168325	-0.03716564	-0.101608515	-0.26060075	-0.14667627	-0.021567183	-0.22526504	-0.1771761	-0.1042656	0.14432378	0.09464859	0.5035935	-0.06152165	0.07167968	-0.06445255	-0.062039986	0.33872768	-0.14534318	-0.16949621	0.37349692	-0.027318541	-0.15225452	-0.16875374	-0.061410505	-0.0274127	-0.289936	-0.4423091	0.05349095	-0.019457795	-0.31782848	0.042089928	-0.103131615	0.035144377	-0.15854117	-0.22340594	0.3313899	0.6702971	0.21068475	0.22634974	0.14581373	0.6506349	0.3062822	-0.05248811	0.21027172	0.1848014	0.25594348	-0.03856628	0.03802063	0.11689454	-0.14246236	0.18184617	0.19528128	-0.28389013	-0.37868214	0.06468738	-0.2364392	-0.0634586	0.27108628	-0.4167104	-0.10794628	-0.14165226	-0.22536947	0.016156137	-0.15060164	0.23766416	0.023798194	0.029043281	-0.23299974	-0.21519646	0.13293922
abiraterone	-0.17114338	0.5063398	-0.040486928	0.34828445	-0.0017098862	0.06383698	0.19916934	0.0034824274	-0.14992395	-0.48798764	-0.25519103	-0.3235944	-0.10831885	-0.021778047	0.1477744	-0.35692015	0.15711747	-0.5175493	-0.2945355	0.1831613	0.11592699	0.10164379	-0.045648385	0.3322067	0.028642453	0.030246718	-0.1464258	0.3816418	0.076259434	-0.08887568	-0.007710988	-0.16042584	-0.29297277	0.010570868	0.27638564	-0.30831608	-0.6060635	0.11107891	0.06500939	-0.025657445	-0.5932923	-0.23093818	0.06066852	0.26654145	0.29687586	-0.10318072	0.08819021	-0.15226182	-0.009296201	-0.15540047	0.36482313	-0.12002399	0.17028436	-0.14510971	-0.23836575	0.12993208	0.45144486	0.006864851	0.35144705	0.49122337	0.3568031	0.019414622	0.17537431	-0.28203464	-0.80525875	0.16976517	-0.15107402	0.22228219	0.0056457105	-0.058960166	0.7643797	0.14769064	-0.29666921	-0.069832556	-0.092081316	0.0077781207	0.14524287	-0.2962851	0.04743119	0.18555313	0.17440659	0.35374716	0.20790488	-0.20950058	0.28832433	-0.004860982	-0.1790118	-0.011626543	0.35587272	0.38441697	-0.48780218	0.5342743	-0.115181446	0.00033165567	0.010909068	-0.25018105	-0.059032783	-0.22539015	0.1367937	0.6726286	-0.0050874827	-0.034732647	0.44664547	0.1733096	0.31100875	0.32382068	0.20848963	-0.35706663	0.23182078	-0.026160795	0.34339014	-0.48751867	-0.015716141	-0.0723167	0.25717127	0.4943844	0.05514395	0.31644273	0.08464587	0.24200003	-0.46136895	-0.1904008	-0.23255035	-0.3879164	-0.24308068	0.37651974	-0.08531302	-0.1041682	0.0027227174	-0.120826535	-0.065742895	0.510909	-0.08967007	-0.10219425	-0.18649906	0.13310467	-0.3978057	0.4315491	0.17142768	0.05942612	-0.41299474	-0.17286569	0.21871157	-0.4911404	-0.17068595	0.24824665	0.60573786	-0.3650324	-0.009491985	-0.06418842	0.23086402	0.3081201	0.27888906	-0.20795123	0.07196214	-0.14317745	0.16208465	-0.2529895	-0.1926293	-0.4098802	-0.4239458	0.054755997	0.19078396	0.33041072	0.0078017237	-0.023432342	0.33100182	-0.1429916	0.1879322	-0.11996441	0.009576736	-0.11606045	-0.62979305	0.26983294	-0.110412665	-0.15858519	-0.19246478	-0.4620848	-0.117676705	-0.80991066	-0.39573604	-0.17507692	-0.7344849	0.22897367	0.13826291	-0.37472594	0.111605145	-0.0970521	0.025165392	0.5388115	0.02244432	-0.31356922	-0.25573003	-0.28975648	0.22856309	0.05811692	-0.45009786	-0.13477018	-0.28173319	0.27691743
abobotulinumtoxina	0.075117655	0.028424114	-0.09211461	0.079524934	-0.08485534	-0.005337912	0.061374765	0.03992409	0.004772839	-0.023785014	-0.12286472	-0.034629397	-0.019253256	-0.04754849	-0.120172024	0.07252398	0.028727876	0.059621952	-0.10758928	-0.09420185	-0.051783282	0.037476614	-0.0054808953	-0.026856177	-0.085139945	-0.04667873	0.0330774	0.068124205	-0.0475385	0.11347094	-0.02755694	0.055825558	-0.02993717	0.015667593	0.0355788	0.036956504	-0.12260304	-0.014270338	0.0016229784	-0.03274392	0.0203952	0.09022329	-0.06152465	0.01246039	-0.030169388	-0.014679016	-0.077184334	0.009844837	-0.0062093753	-0.048913382	0.10037033	-0.041292492	-0.009330439	0.0923355	0.03181464	-0.027317468	0.00486234	-0.03425111	0.06252681	0.005219723	0.14227754	0.010179216	0.18149236	-0.10537413	-0.071283825	0.051332414	-0.041568354	-0.09276695	0.08475949	0.13739695	0.03933912	0.042908464	-0.009433931	0.08980233	-0.17309222	0.08078744	0.018224213	0.015057917	0.07985507	0.041345492	-0.031524993	0.041698523	0.04338079	-0.09476387	-0.040031966	0.034101013	0.06260038	0.007234648	0.029211638	0.080264	0.04490925	-0.10939036	0.015490942	-0.029981734	0.0037555997	0.004342021	-0.10122378	-0.14681639	-0.055120423	-0.024032278	-0.17738442	-0.06070224	0.048226725	-0.009663891	0.04819259	0.08651265	0.027242107	-0.15879357	-0.002105248	0.031557076	-0.07407786	0.07072688	0.11240475	-0.034552116	0.012656879	0.060396746	-0.02012055	0.028751578	0.06260885	0.12408949	0.015536586	-0.083095215	0.044351764	-0.15965685	0.028801646	0.04445005	0.11107885	-0.02398205	-0.051798135	-0.08289641	-0.036388237	-0.011142413	0.023599712	-0.051017888	0.022839582	-0.02765683	-0.12564598	-0.028511636	-0.017193856	0.013589065	0.06352467	0.050654966	0.12657341	-0.046593968	0.20524436	-0.07317339	-0.032968774	0.10236128	-0.016852329	0.05032382	-0.04682084	0.08978686	0.016983634	0.053058825	0.088585645	0.030133372	-0.056872904	0.05880156	0.022385666	0.06373491	0.036769617	0.19561218	-0.00131773	0.001534769	-0.018905066	0.1016833	0.007121142	0.024625825	0.053215515	-0.09789809	-0.08864111	0.05998019	-0.057917047	-0.026517436	-0.0076943194	0.05100413	-0.050330356	0.04277536	0.0692296	-0.059299033	-0.06481759	-0.11543099	-0.08445086	0.040363796	0.12039693	-0.09989559	-0.012894472	0.013281711	-0.028194325	0.050810117	-0.037108153	-0.037317466	0.019555194	0.07512641	-0.066359304	0.0521717	-0.01533343	-0.085393384	-0.049001668	0.100148655
acamprosate	-0.15598544	0.3022873	0.14872412	-0.25770468	0.1338661	-0.08106185	0.18674229	-0.12305511	0.01471727	0.102466226	0.11680639	0.20735216	0.07127158	-0.1371369	0.093020946	-0.017016059	-0.030941064	0.010596986	0.06456076	0.1622323	0.38471863	0.061727423	0.16088092	0.2856364	0.07252685	-0.4969575	-0.15052418	-0.27891195	0.07262595	-0.2373038	0.02266606	-0.25330362	0.23204459	0.047541793	0.22322354	0.14814705	-0.48385897	0.23354618	0.012987992	0.0019603854	-0.2644744	-0.0291085	-0.1088993	0.48402795	0.41117296	-0.17825381	-0.008917597	0.006091143	0.17196012	-0.31443092	0.26948434	-0.5037642	0.19197984	-0.35494873	-0.28359535	0.21560033	0.466638	0.03155525	0.33828455	0.07878316	-0.0053011915	-0.23022161	0.30483836	0.029120667	-0.59390855	-0.35277846	-0.21940972	-0.20859285	0.15688209	0.17693803	0.19039933	-0.11933008	-0.13010646	0.05667638	-0.28325364	0.04609433	0.2949157	0.08077895	0.18614025	0.35273197	-0.011238862	0.103049874	0.25452834	-0.11657156	-0.24838838	0.1475154	-0.1657621	0.061929446	0.18832216	0.47407377	0.025836287	-0.18424034	0.043030564	0.0014389348	0.2149965	-0.18506104	0.15970196	0.2967444	-0.15116793	0.067130715	-0.3642578	-0.045166057	0.502066	0.31500298	-0.1081162	0.12695986	0.06765975	-0.07438029	0.19424845	-0.020782702	0.27244663	0.050292	-0.28393388	-0.72685516	-0.2186939	0.4155066	-0.1293965	-0.015201502	0.22704528	0.22787377	-0.13562405	-0.15120323	0.060161818	-0.1965901	-0.11039009	0.38229954	-0.12026486	-0.28493357	0.066753015	-0.14941876	0.14791945	0.21878728	-0.0073287343	0.12247004	-0.18683155	-0.36482096	-0.16020992	0.012596476	0.27546924	0.08202531	0.018557226	0.1453164	0.12692979	0.17540935	-0.033553805	0.3859327	0.08916572	-0.024752105	0.16010389	0.052872192	-0.2496216	0.08872281	0.052667487	0.3978098	0.56460786	-0.38286	0.20496587	0.27970925	0.10803157	0.053025723	0.15363926	-0.08925466	-0.36161867	-0.30448413	0.28998086	-0.19159044	0.4279079	0.3757668	0.29122677	-0.1796579	0.031150872	-0.14950162	-0.29860073	0.061039522	0.23317014	0.26850057	-0.19381289	-0.17936695	-0.16395003	-0.6079251	-0.22960578	-0.038063157	0.104616806	-0.13004185	-0.29126617	-0.10209818	0.22583403	0.081446305	0.030089956	-0.20298794	0.2991068	-0.15620087	-0.29917905	-0.07714211	0.03997954	-0.28780833	0.26629466	0.08445403	-0.30903453	0.13516368
acarbose	0.25983146	0.26801503	0.19929741	0.0828296	0.1743324	0.08182246	-0.084537074	0.27114084	0.067920946	0.075284	-0.10698964	0.106870785	-0.18657193	-0.03601914	0.12755507	0.12604938	-0.057658333	-0.1847609	0.1058702	-0.24606298	0.0924713	-0.015474462	0.07028478	0.22033101	-0.28323036	-0.19151314	-0.08316456	-0.14505588	0.17246623	0.082665116	0.09312849	-0.34855402	0.033368293	-0.2460226	0.17656393	0.14483109	-0.5076313	-0.06678711	-0.14236599	-0.47404096	-0.458859	-0.117343456	-0.050962735	0.053804494	0.12348249	-0.049491078	0.3434298	-0.07167803	-0.05089325	-0.3893123	0.16900104	-0.11499591	-0.2967216	-0.30861908	-0.4161259	-0.03155901	0.5579621	-0.32293603	0.32752788	0.49525484	-0.18022263	0.025614029	0.26103154	-0.3693843	-0.1699022	-0.24603875	-0.3008034	-0.3782564	0.71763575	-0.26550317	0.016298141	0.028344657	-0.24394712	-0.14337279	-0.05353416	-0.17420581	0.16167183	-0.28769606	0.21198882	-0.13482566	-0.34281942	0.020015793	0.3068704	-0.070260644	-0.3690565	0.14328744	0.18684207	0.07420928	0.024464227	0.10646187	0.16260721	0.121660605	0.085817255	0.14159603	0.1320036	-0.1928588	0.015639663	-0.0662648	-0.29452643	-0.10920622	-0.33790585	-0.1297797	0.33675963	-0.045145728	0.13686706	0.11599844	-0.1398392	0.17268512	0.115691826	0.31256697	0.13629918	-0.158068	-0.10595176	-0.5505056	0.2551329	0.46605197	0.059300553	0.0053958227	0.027267743	0.29402953	-0.17502597	0.09220143	-0.05221989	0.15264915	0.28458136	0.017914215	0.33984807	0.40330613	-0.29491463	0.20969771	-0.040105853	0.1507262	-0.27594376	-0.2287805	-0.17791903	-0.21496643	-0.32176286	-0.11075492	0.3308423	0.189492	-0.2187925	0.24761446	0.047744986	-0.2395999	0.052191824	0.029446952	0.18433546	-0.018610856	0.11475084	0.104185745	-0.12936002	-0.07197957	0.097141944	0.22808687	-0.118735544	-0.6162464	-0.024985462	-0.05251466	-0.18669659	-0.074672714	-0.08168615	-0.04968055	-0.024450215	0.13642403	-0.14054823	-0.20013247	0.4720326	0.047629774	0.04892005	-0.033596992	0.35256568	-0.032352306	-0.08129098	-0.061066	0.04305591	0.15686657	0.26096153	-0.17856838	-0.46729842	-0.4038185	0.18376924	-0.21420886	-0.30694687	0.06372545	0.17479517	-0.124142215	-0.09098075	0.26329997	-0.1383059	0.17174134	0.2381467	-0.1522825	-0.15331279	-0.027569663	0.02033648	-0.30694774	0.10010714	0.14654765	-0.45923164	0.0027140977
acetaminophen	-0.025663	0.35332888	0.10242561	-0.075263776	0.001496048	0.23190789	0.009182757	-0.033991914	-0.21036655	0.28631112	-0.14448059	0.006394723	-0.1259091	-0.18646398	-0.062936075	0.15303496	-0.2003976	0.25994262	0.30842274	0.111300565	0.33094522	0.13080159	-0.14147252	-0.14376177	-0.03536248	-0.16514312	0.09325441	0.023878278	-0.35027418	-0.12006904	-0.05349382	-0.19013226	-0.26417735	0.18111609	0.38270774	0.13236678	-0.07880142	0.015089762	-0.16882244	-0.118231595	-0.20853475	-0.104404554	0.17485231	-0.044173192	0.6163856	-0.030684277	-0.18990791	0.047526646	-0.35334483	0.03533808	-0.022238081	-0.22715549	0.24303705	-0.2353434	-0.21868749	-0.33418494	0.11704404	-0.18389621	0.42054483	0.25674152	0.2629734	-0.1441335	0.07132286	-0.1173992	-0.36076546	-0.0033893757	-0.034965873	-0.34971434	0.1965663	-0.25396428	0.19795345	-0.07092142	0.19720322	-0.103393644	-0.026281718	0.01833765	0.2980545	-0.032738883	0.031110322	-0.104058094	-0.17288059	-0.2742526	0.48481655	0.094285674	-0.20970614	0.1719924	-0.29625586	-0.058455598	0.16408011	0.22018167	-0.013656427	-0.115720086	0.1341725	-0.22096865	0.16953833	0.015683273	0.09992486	-0.06533617	-0.25438356	0.1461203	-0.4208005	0.20459516	0.38653842	0.072415106	0.0997077	0.2555093	-0.051897027	0.0993865	-0.21681455	-0.017967189	0.07300109	-0.0014116401	-0.16937405	-0.50426805	-0.06088932	0.32300618	-0.124824345	-0.28430015	-0.2349451	0.3764649	0.16145033	-0.054380134	-0.02932076	-0.07538642	0.09271231	-0.08682907	-0.061709344	-0.3062182	-0.008825045	-0.0062265364	0.07765882	0.15375113	-0.017590871	0.011892995	-0.19404605	-0.5225755	-0.49287236	-0.43012965	0.21582466	0.19333243	0.09953723	0.22461304	-0.105531186	0.17258129	-0.074858256	0.27950615	0.03197089	-0.039537385	0.2315342	-0.00048626124	-0.3330164	-0.012846563	-0.041290805	0.25622174	0.53086627	-0.19129832	0.15717292	-0.07432147	0.079416506	0.040451158	-0.077348575	0.18398044	-0.07690418	-0.2917057	-0.11603795	-0.079893805	0.34449238	0.14334223	0.36546463	0.041760605	-0.09256914	-0.022334583	-0.121322334	0.21097878	0.1014116	0.13894218	-0.22241713	-0.019220127	-0.06327757	-0.107725166	-0.07186159	-0.11091084	-0.02002626	-0.08450862	-0.20139237	0.1797566	0.1789192	0.24499579	-0.069105566	0.30304933	0.08260112	0.040140804	-0.15520409	-0.010651475	-0.06418659	-0.11540415	0.21594065	0.15784612	-0.1495879	0.16910389
acetate	-0.104746714	0.011304822	-0.045452025	0.1453658	0.31988323	0.13131768	-0.034071118	-0.19019923	-0.08057357	-0.45705608	-0.26974988	0.033147674	0.05699711	0.30660272	-0.15086758	-0.036935452	-0.011894419	-0.046260186	-0.25396872	-0.054592863	0.32249698	0.47323078	0.214046	-0.19420357	0.087800264	-0.22056341	0.079724826	-0.12171039	0.25692517	0.0069179344	-0.26225364	0.37194288	-0.16828263	0.012867437	-0.1673744	-0.2623128	0.004274789	-0.35591054	-0.1955927	-0.2214475	-0.21253788	-0.03029605	0.28140497	0.4176842	-0.10292081	0.12426016	0.14963134	0.19776502	0.004337185	-0.075172246	0.07893598	0.1146066	0.16257173	0.19061527	0.09672511	-0.17737256	0.69191337	0.18118584	0.19237778	0.40625167	0.033849295	0.078558296	0.07063633	-0.27692914	-0.42027274	0.16385865	-0.10398825	0.037742656	-0.088101454	-0.34241444	0.37309167	0.21566328	-0.35673204	-0.11258405	0.8163624	-0.21210884	-0.052725244	-0.12387201	0.022668036	0.23647551	0.0035872264	-0.21353595	0.34352356	-0.0045916084	0.13599612	0.27577427	-0.06608917	0.0162142	-0.20928293	0.33155325	-0.143615	0.15737459	-0.056789856	0.4687623	0.46103516	0.019346425	0.3688275	-0.22978747	0.11736796	0.2583348	-0.3226154	0.2763183	0.07524784	-0.081816114	-0.03899175	0.09346662	0.21669272	0.018620128	0.070488945	-0.06563554	0.31713519	0.07074431	0.118307784	-0.09685585	0.087369524	-0.027773205	0.78712493	0.3462426	-0.20236126	0.18274097	0.044686895	-0.08409147	-0.28335243	-0.38244408	0.18493964	-0.25310758	-0.14280921	-0.19865157	-0.05897779	-0.005514858	0.0029162867	-0.20157601	0.0245579	0.015468602	0.50485563	-0.22467953	-0.041709013	-0.15355474	0.4493923	0.3653308	0.056004755	0.12456517	-0.054693498	-0.00023861269	0.03291924	0.1260321	0.14544566	-0.33530825	0.19419335	0.02641516	0.10210342	-0.0047089527	0.3988511	0.15371108	0.6736757	0.14221378	0.09457151	-0.15146552	-0.07754144	0.009390891	-0.020117555	-0.007140882	-0.03572976	0.50106615	0.039109156	0.06504622	-0.0022784928	-0.11244675	0.15304212	-0.10880452	0.08450244	-0.07324713	-0.30662146	0.35211018	0.026025215	-0.35097688	0.06623806	-0.13469078	-0.28132278	-0.10726104	0.072106585	-0.046902664	-0.14249447	-0.51069474	-0.32584396	-0.064929634	0.21034434	-0.29608628	-0.5474855	0.5522046	-0.014860895	-0.036946226	-0.27591494	-0.058077775	0.044911843	0.011342984	-0.26921383	-0.027123002	0.1620954	0.17440586
acetates	0.0045363475	0.3748776	-0.4044454	0.0373817	0.41325903	-0.06583207	-0.17686658	-0.04050942	0.1010666	-0.50357145	-0.34805608	-0.16318148	-0.012199506	0.49230948	-0.43052486	0.28900632	-0.16296877	0.05620587	-0.08953485	-0.064589635	-0.10535194	0.28263387	0.08386377	-0.25796095	0.40511164	-0.22075011	-0.00807089	0.08012626	-0.23449312	-0.053942453	-0.41876572	-0.19311848	-0.09171902	-0.084074214	-0.10570108	-0.13354287	0.08730661	-0.33371124	-0.029167505	-0.08033181	-0.03967199	0.032967303	0.25767043	0.13125008	0.06781769	0.059386328	0.032498468	0.49927264	-0.081644736	-0.34776297	0.051401142	0.016978277	-0.16918148	0.11098642	0.25872403	-0.052152205	0.28969204	-0.24274	0.21350451	0.30478638	-0.0865818	-0.24462943	-0.21827433	-0.2855692	-0.46729007	0.06966867	-0.042719606	-0.2958342	-0.41328937	-0.36876136	0.3059074	-0.1785868	-0.5695721	-0.5876922	0.52984804	0.32466722	0.21487561	-0.16717668	0.21077803	0.7338905	-0.24151975	-0.24147981	0.17907463	-0.17253724	0.13775799	0.020234874	0.04474957	0.024013752	-0.23971608	0.18234183	0.21048965	0.502318	-0.13289045	0.11619649	0.5130346	-0.014035508	0.2742538	0.1429919	0.43059883	0.35036695	0.030677943	0.33999848	0.10297251	-0.04306098	-0.29688144	-0.23644345	-0.26558533	0.21628831	-0.031358503	-0.5077886	-0.09474654	0.14697789	0.19273724	-0.06678698	0.34949118	0.14387804	0.023357805	0.33448762	-0.3618466	0.34275746	-0.18431515	0.22723661	-0.4510907	-0.03346505	-0.1481999	-0.4407766	-0.12077067	-0.16544974	0.16080372	0.03769789	-0.12197468	-0.02269709	0.32885438	-0.08671518	0.2594356	-0.37068304	-0.36812514	-0.4085138	0.118701406	0.14210708	-0.28769854	-0.7160649	0.16813798	0.13895117	0.27001047	-0.04128072	-0.08375579	-0.099254	-0.20823316	-0.10125968	0.19288854	-0.033349913	0.047107715	0.09922456	0.25425887	0.19498879	-0.0314732	0.3701179	0.38661736	-0.16700749	-0.1988087	-0.2152892	-0.2331614	0.08894848	0.1226149	0.039102927	-0.2002066	-0.4980537	-0.12796122	0.25462967	-0.05990259	-0.15214747	0.08363448	-0.23756628	0.26261804	-0.29080674	-0.16845423	0.06124404	-0.20655662	-0.17983893	0.15645085	-0.4928707	-0.09742107	-0.19265673	-0.25717458	-0.09504197	-0.08743703	-0.061994046	-0.124281384	0.18546912	-0.09185804	0.025704924	-0.13091095	0.010031836	0.17301026	-0.22047676	-0.4115171	-0.15196802	0.014334705	0.073793024
acetazolamide	-0.18419693	0.014583617	0.116983406	-0.0446918	-0.03228914	-0.11112619	-0.047107384	-0.05808564	-0.06598656	0.21081717	-0.12939717	-0.2149363	0.102583624	-0.102706194	0.051532846	-0.16785195	-0.16136338	-0.031497832	-0.1701276	-0.21278022	0.13019378	-0.020603156	-0.19012856	0.1032096	-0.085826434	-0.1605572	0.16578892	0.20765947	-0.12800783	-0.16163696	-0.14015669	-0.2756695	-0.16299057	0.087669365	0.3484664	-0.36969405	-0.32347807	0.16153717	-0.26352933	0.013435367	-0.24569671	-0.109405816	0.2861188	0.32372227	0.40284353	-0.12203096	0.043920953	0.45645085	0.030775545	-0.24799524	0.041021936	-0.042072143	-0.16610909	-0.13340694	-0.2014479	-0.35626832	0.52531517	-0.2787073	-0.28399372	0.16106987	0.09292207	0.10540065	0.47456545	-0.35955215	-0.20920838	-0.21871753	0.06482545	-0.024549477	0.32401115	-0.2572004	-0.11703223	0.323873	0.2949368	-0.045163587	0.03868303	-0.11339355	0.16876498	-0.13756227	0.1494026	0.18773818	0.061199863	-0.081443444	0.35393623	0.057999402	-0.46193385	0.021271335	0.08394026	-0.059105568	-0.0036500131	0.17764959	0.04882727	0.14482205	0.27128094	0.25361276	0.21556474	0.2546432	-0.055309266	0.28317344	-0.09005901	0.020172162	-0.41303056	0.1061673	-0.013924267	-0.08307698	-0.01146734	0.16007808	0.026761025	-0.33037695	-0.1809099	0.21365966	0.14599884	-0.01884424	-0.43889531	-0.3801569	-0.024911024	0.2072407	0.2475633	0.02243964	-0.1483768	-0.022232633	-0.3043586	-0.05551632	-0.08150708	-0.07705913	-0.123829864	0.19271097	0.2879211	0.006681394	-0.26201484	0.13413796	-0.16908391	-0.02401014	-0.24142057	-0.13796733	-0.10459597	-0.13649037	0.027169086	-0.15081774	0.16428335	0.33381525	0.09339274	-0.15837719	-0.044850152	-0.02836252	0.028915588	0.19934535	-0.03378476	-0.3292623	-0.24145049	0.05220136	-0.10858646	0.15176691	0.109169416	0.057233583	0.3199442	-0.22167805	0.076056615	-0.05742523	-0.18046537	-0.047439434	-0.038726505	0.08145588	0.08859884	-0.28879496	-0.17721552	0.24164131	0.33442327	0.21942256	0.0548471	-0.23184778	0.30582792	-0.14088452	-0.4128182	0.38740402	0.13859296	-0.058352113	0.13412784	0.11524073	-0.3327507	-0.011889055	0.038068935	-0.11996117	0.12358937	-0.07378649	-0.0782891	-0.015482135	-0.1785711	0.29866266	-0.0047032153	0.22654109	0.2403838	-0.024838155	-0.34544143	0.060854625	-0.056608636	-0.056681115	0.26368308	-0.16805705	-0.12172472	0.426135
acetohydroxamic	0.20350525	0.32340813	-0.051736142	0.0264754	0.2804136	0.16529025	-0.13778505	-0.42174327	0.063031964	-0.23918091	-0.045239218	-0.15813437	-0.028025314	-0.073988184	-0.032283563	0.25653657	0.33958986	0.16134875	-0.20086695	-0.42275336	0.10270436	-0.30776295	-0.600305	0.29799262	0.12074732	-0.0160562	-0.019307218	0.11636475	-0.2656842	-0.06760175	-0.29281482	-0.18328466	-0.06332593	0.35056883	0.25879747	-0.07147233	0.11418019	0.21514131	-0.0038674397	0.19854239	-0.21677352	0.242953	-0.098068886	-0.011684525	0.043592874	0.16598353	0.39174125	0.058570135	-0.0023108686	-0.27971724	0.391563	-0.25562513	-0.41557318	-0.35978952	-0.41891328	-0.15663143	0.4075982	-0.12911884	0.40174037	0.0027754565	0.65227693	-0.19475724	-0.21241741	-0.082294405	-0.28607175	0.13774608	0.18887879	0.014485592	0.010336849	-0.30645692	-0.2700433	0.19342323	-0.69416285	-0.11464894	0.08939864	-0.24888861	0.2826741	-0.3276384	-0.05706748	0.21020496	-0.16376922	-0.4088685	0.45825934	-0.19035748	-0.36646003	0.20920344	-0.34327307	-0.015261908	-0.26765832	0.041651413	0.12553436	-0.07599758	0.11900763	0.07752698	0.319271	0.3733858	0.17309175	0.04002674	-0.23821107	0.44990593	-0.1302518	0.3234499	0.46103194	-0.18445648	0.37408403	-0.1843076	-0.28193814	-0.2221215	-0.31241766	0.0846995	0.025374763	-0.16963653	-0.12805074	0.06868729	0.4264677	0.048677	0.16606434	0.20439972	-0.3790859	0.23599097	0.031295385	-0.033708025	-0.15801702	0.23353687	0.74380213	-0.11211884	0.1763975	-0.27241823	-0.24253532	0.0037370159	-0.06327771	-0.08603389	0.24200934	-0.14673506	0.059089847	-0.084330305	-0.11977525	-0.28653026	0.3128726	0.32877675	-0.10197068	-0.6008987	0.13455278	0.017692193	0.30639657	0.36819836	-0.113351494	-0.20756957	0.127258	-0.012100955	-0.3363015	0.12066824	-0.1157328	0.23190893	0.12830994	0.42516723	-0.30880636	0.01161529	0.17530018	0.2641445	-0.27620715	-0.13251604	0.16950573	-0.12671113	0.35496596	0.045620125	0.42436695	0.14031716	0.11220042	0.028049743	-0.29699832	0.122004606	-0.24050869	0.24779305	0.01668248	-0.15484324	0.14256181	-0.2589019	-0.3421797	-0.2959141	0.17808816	-0.37518698	0.08652896	-0.40824732	-0.3842644	-0.07325594	-0.083640814	0.011329241	-0.51692533	0.42457187	-0.2407057	-0.17936069	-0.06265643	-0.16917609	0.0865968	-0.07112559	-0.26673335	0.36159697	-0.2617183	0.3467679
acetonide	0.07850386	-0.29364678	-0.6078253	-0.044778496	-0.33889034	-0.09735415	0.5653662	-0.37191212	0.2284245	0.27533734	-0.21802548	-0.0787152	0.77015126	-0.123934746	0.14411215	-0.52618927	-0.32850227	0.45664975	0.3202578	-0.6707806	-0.08688833	0.4795179	0.4524534	0.13477631	-0.1015656	-0.032719683	0.17526618	0.2494474	-0.30051106	0.12486376	-0.34446856	0.26472372	-0.07773986	-0.11255869	0.07530585	-0.46354362	-0.25901765	-0.5525695	-0.78235006	-0.45425504	-0.012852261	-0.4353167	0.11670559	0.47177374	0.13514124	-0.8318358	0.010621491	0.9549925	0.21702002	0.12023173	0.19114771	0.35925558	-0.014439649	-0.018559828	-0.0007187168	0.008613765	0.28938162	-0.33488575	0.20332506	0.13683106	-0.16828524	-0.27007028	0.4284597	-0.3578541	-0.49679595	0.24821499	-0.082548045	0.4839642	-0.07061611	0.17674185	-0.0061935214	0.1351007	-0.7208311	-0.10549625	0.06479196	-0.023967363	0.5741091	-0.25191122	-0.47844175	0.23276561	-0.26990354	-0.7975116	0.58847076	0.338879	-0.05297065	0.059666608	-0.6986141	0.79274225	0.53362507	0.41988713	0.26824442	0.58178455	-0.028934048	-0.068516985	0.5801673	0.617637	-0.045257952	0.031544752	0.061160665	0.15660933	-0.85377836	0.0027408388	-0.0582512	0.29783052	0.14783472	0.28484797	0.5547339	-0.38464472	-0.067664124	-0.33909735	-0.004770995	0.13098061	-0.24492262	0.09540426	0.19120152	0.3674139	-0.1530421	-0.20198105	-0.08027374	-0.061140794	0.019594312	-0.30479565	0.36266774	-0.028443262	0.019689722	-0.27176988	-0.7083902	0.6230675	-0.14963342	-0.026587414	0.11945356	0.35648188	-0.18544593	-0.12437093	-0.16125448	-0.04294022	-0.69471365	0.15445381	0.15455882	0.27297845	0.6360973	0.44323495	0.40850785	0.114312395	-0.30739468	0.006043532	-0.075510874	-0.0077433377	-0.4395432	-0.45653263	-0.016393038	0.27088425	0.52460235	-0.17840455	0.33228797	0.15869236	-0.052685603	-0.3273092	-0.79241556	0.08943025	-0.14458473	0.46503985	-0.004480497	0.4653609	-0.27376074	-0.388053	0.23131059	-0.6913545	-0.031556074	-0.84435916	0.36232248	-0.29540396	-0.5526464	-0.7626811	-0.31789088	0.5138064	0.028220598	-0.044311784	-0.3550259	0.28499204	-0.10332025	-0.11679202	0.1395069	-0.39249146	0.42109194	-0.4866355	-0.32221633	0.26244503	-0.782041	0.648199	-0.2303865	0.43511564	-0.16469109	-0.0874289	0.27703494	-0.18872641	0.052082714	-0.19368984	-0.39284396	0.64468
acetophenazine	-0.18033996	-0.059319966	-0.012885428	0.029591825	0.14749573	-0.032568157	0.072354525	-0.13350716	0.052470732	-0.011302554	0.08351895	0.025605712	-0.12552488	0.016813276	0.021848839	0.13695559	-0.08533301	0.133476	-0.061006267	-0.016400127	0.07738523	0.010656362	0.097473085	-0.09818695	-0.12813377	-0.22654037	-0.10315328	0.07097696	-0.19426234	-0.11473527	0.0028695678	-0.10618445	-0.010389674	-0.046810612	0.19775276	0.10044026	-0.15577957	0.0905091	0.03143457	-0.043501284	-0.121962756	-0.00920606	0.024071595	0.15679915	0.27146736	-0.13347855	-0.011856949	0.07612801	-0.0056443023	-0.019077934	0.1755692	-0.12969175	0.017998034	-0.018191606	0.07369263	0.031691935	0.038051058	-0.030397682	0.06525651	0.103392094	0.02264091	-0.19915593	0.06751906	-0.07062423	-0.07299379	-0.2601303	0.052090805	-0.21155146	-0.08107554	0.06807239	0.016048795	-0.13115071	-0.017246643	-0.078953564	-0.1539528	-0.13046804	0.09123374	-0.14383218	-0.014317723	0.21784788	0.088678256	0.005564351	0.1409144	-0.065621726	-0.095333576	0.064039014	0.06635686	0.112131976	0.037066933	0.10880928	0.018046914	0.02028401	-0.015278868	0.06313462	-0.08330415	-0.0060075982	0.05356928	-0.036864523	-0.08683291	0.0027715482	-0.2910973	0.1833763	0.12839562	0.03872371	-0.026243506	0.064455524	-0.018728746	-0.003958672	-0.095189415	0.006017898	0.10164703	0.08460541	-0.12042799	-0.23018606	0.036140937	0.32548314	0.008068178	0.024133466	0.029494531	0.052084178	-0.049065538	0.07079861	-0.036285374	-0.1550448	-0.14695665	0.1864612	0.056951545	-0.113004886	0.057392504	-0.019787574	0.055611573	-0.010013575	-0.061162595	-0.09650576	0.013891555	-0.16553433	-0.052819893	-0.116103984	-0.055308435	0.037031792	0.04436384	-0.09132015	0.0023792535	0.061716765	0.05273006	0.036931105	0.1652033	0.23147015	0.0007364851	-0.09969498	-0.025348358	0.14272402	-0.042092953	0.14930877	0.13988605	-0.02342901	0.011100687	0.02507059	0.059004366	0.030437488	-0.048212532	0.0047641187	-0.07639403	-0.0533099	-0.059431262	-0.043353833	0.111672536	0.11481783	0.11678691	-0.10541092	0.05556569	-0.15225495	0.05671785	0.09084984	0.09038666	-0.044169493	0.02306214	0.11581772	-0.05553014	-0.20924015	0.0925327	-0.10445264	-0.015847562	-0.26699832	0.04594092	-0.0036009168	-0.036411233	0.070508465	-0.13393898	0.13758714	0.21342142	-0.10220553	-0.114813186	-0.017820213	0.10053746	-0.13551213	0.19604848	-0.07584223	-0.2097368	0.0030830165
acetylcholine	-0.47903886	0.21500234	0.20560375	-0.0637403	0.23459718	-0.33653954	-0.012300588	-0.14810248	0.16268125	0.1548623	0.27002582	0.05184125	0.39011678	0.113359384	-0.35353395	-0.19148992	-0.5645482	0.04869912	-0.21499881	-0.22098419	0.06744903	0.24272615	-0.19551389	0.10282583	0.02506666	-0.5071451	0.009441863	0.26836014	0.29377276	0.113228165	0.18172748	-0.47855967	0.025205815	-0.016157411	0.21170363	-0.2668231	0.063867696	0.15901187	-0.09453573	0.005544877	0.35689664	0.21703066	0.12153821	-0.02648074	0.032960735	-0.3804895	0.06977265	0.27536193	0.42491704	-0.22757506	-0.29802483	-0.32257017	-0.26153138	0.2518174	-0.10997161	-0.28705743	0.25580132	-0.1051863	-0.30140352	0.3882545	-0.025954457	-0.3138934	0.24469572	-0.22924185	0.046764523	-0.39369276	-0.13459666	-0.08594001	-0.40555662	0.35198003	0.19145985	0.017953683	-0.067597665	0.047249805	-0.08308706	-0.36457992	-0.34902212	0.26148254	-0.19103639	0.5632963	0.52759534	0.023587294	-0.27962047	0.30357397	0.06297258	-0.009350114	0.015465567	0.7265921	0.17055961	0.05975126	-0.3948946	-0.12680641	0.4571994	-0.574706	-0.31134272	-0.34810275	-0.14195922	0.15224925	0.29667503	-0.33809674	-0.68994826	-0.06796942	0.11993865	0.35308567	0.07889083	0.25819072	-0.29921803	0.042368624	-0.12161852	0.35984865	-0.0057314653	0.325646	-0.35640484	-0.008433156	0.3652371	0.16348591	0.1442273	0.14616884	-0.40435982	-0.29975778	0.098406784	0.07462432	-0.18398239	0.33116078	0.13713408	0.39317092	0.1853252	-0.25402197	-0.15531409	0.0418027	-0.1726311	0.28526238	0.28232068	0.13273565	-0.595203	-0.40502757	0.22315815	-0.8135632	0.22692487	-0.24940072	-0.016924893	-0.008438195	0.5279278	0.056210984	-0.18931761	0.1374185	-0.044925503	0.015282274	-0.201253	0.20223281	-0.17347296	-0.0828749	-0.06445248	0.13419631	0.17092875	0.06805458	-0.27079034	-0.1150209	0.13232765	-0.051310986	-0.3793224	0.16357177	0.036229108	-0.14224756	0.30066276	-0.35339236	0.10474796	0.02966594	0.012544408	0.050985206	0.16622382	-0.18732563	0.11353358	0.1257492	0.4299305	0.04237403	-0.012064852	-0.07856043	0.19033276	-0.14479277	-0.015160859	0.105955414	0.045240164	-0.081412554	-0.10098486	0.18311505	-0.083577394	-0.042391095	-0.10553249	0.09747124	0.0028523295	-0.14228694	0.019959323	-0.022265652	0.3940406	-0.025318427	0.039922394	-0.19681129	0.052543685	0.4857816
acetyldigitoxin	0.19411732	0.041204955	-0.28718397	0.24656814	0.071213335	-0.2990913	0.13487646	-0.029637486	-0.118135504	0.110783644	0.054844484	0.14181408	0.078327864	-0.07258057	0.02390562	-0.019628212	0.037119403	0.24519679	-0.1543584	0.09603122	0.26793304	0.12311008	0.050003495	0.1283509	0.019665342	-0.2556008	-0.12491427	0.41180322	-0.4009016	-0.1535871	-0.027989844	-0.17537571	-0.12153357	-0.21384354	0.09554877	-0.17711374	-0.5272077	-0.127744	-0.27481642	-0.15789239	0.04636721	0.057354983	-0.055723622	0.13082202	0.09968351	0.14950655	0.21413225	0.3484795	-0.245993	-0.36731	-0.24457243	-0.19571155	0.01679391	-0.25442246	-0.017676948	-0.43316257	0.21219675	-0.38835195	0.23256436	0.18849045	-0.047146693	-0.21142028	0.09262314	-0.05019079	-0.20634225	-0.4585288	-0.07106599	-0.28857064	0.18633848	-0.018907944	-0.033843167	0.21147649	-0.06402362	0.120949596	0.18437427	0.072690554	-0.16802813	0.033155803	-0.069596395	0.101612926	0.15359804	-0.101652645	-0.006539509	-0.30377334	-0.1278307	-0.14973134	0.048242442	0.056771386	-0.1371856	0.0933984	0.04175509	0.18701263	-0.07593854	0.11049959	0.095100485	0.3033142	0.14458248	0.05857262	0.060515605	0.260884	-0.10126222	0.1001205	0.006495254	0.21437253	-0.102085434	0.09663697	-0.11017718	-0.21819177	-0.30398062	-0.105824016	0.25195432	-0.10265052	0.0039354716	-0.088359945	-0.021611424	0.11598903	0.09169267	0.034797113	-0.002295644	-0.022378344	0.016487647	0.026737247	-0.054126684	-0.12755221	-0.036661744	-0.024015978	-0.10120441	-0.16027734	0.16783915	-0.036940575	-0.106226265	-0.108916394	0.052461177	-0.15724768	0.12179291	-0.29201746	-0.036345467	-0.25132543	-0.18818015	0.051365335	0.012033263	-0.19910286	0.117925204	0.1039047	-0.013749399	-0.01555594	-0.008739738	0.028657652	-0.08075663	-0.34790468	-0.0823963	0.3100409	-0.0549764	-0.088545986	0.16774985	-0.013801408	-0.2276853	-0.27344373	-0.024063438	-0.10554748	-0.13620786	0.120484985	0.11174549	0.008526849	-0.047685668	-0.08939197	0.2414973	0.055456746	-0.05287503	-0.025743065	-0.004002981	-0.18201166	-0.122145444	0.26397297	-0.0562869	0.13229351	0.11764275	0.1087378	-0.10802654	-0.12327173	-0.11934992	-0.1878977	-0.107386395	-0.28434017	0.14208898	0.04800468	0.071249805	-0.019741828	-0.2874069	0.13969974	0.10407412	0.05078358	0.08224495	-0.024636678	0.11702159	-0.008005902	0.040113427	-0.1524845	-0.12607828	-0.048917275
acid	-0.015251374	0.25800097	0.037190497	-0.14128327	-0.0021982775	0.4642391	0.085863575	-0.07572366	-0.23652124	-0.0572078	0.13120337	-0.49387607	-0.26645613	0.014374738	0.25205463	0.3703944	-0.32466874	0.047223657	-0.20737483	-0.32992184	-0.2569671	-0.24000438	-0.33089116	-0.20355476	0.05549157	0.25214142	0.25720885	-0.06413037	0.0865138	0.10006615	0.16322075	-0.20914094	0.027208364	0.13191481	0.08823413	-0.046948396	0.27880085	0.11053392	0.42124063	-0.1279467	-0.052088667	0.07121716	0.027996486	0.17692992	0.21165015	-0.2522745	-0.041184623	-0.03299893	0.19128424	-0.059937004	-0.18858932	-0.087364666	0.04711021	0.028756507	-0.2378794	0.052366104	0.35240403	0.28148833	0.031376936	0.10439922	0.38785627	-0.052465636	0.010845635	-0.14109701	-0.19516002	-0.09335177	0.3208031	0.03680928	-0.22638144	-0.33239725	-0.05101245	0.0823667	-0.45417872	-0.14650705	0.26056147	-0.22098534	0.0641337	0.09191325	-0.3147181	-0.09729812	-0.5290302	-0.3802422	0.38489535	-0.16753894	-0.14639968	-0.10871403	-0.0081864055	-0.067966506	-0.0376403	0.21924135	0.10713244	-0.22062998	0.030143829	-0.10321191	0.15550728	0.24846388	-0.13978931	0.124234326	0.19004989	0.32781103	0.0026911965	0.49361232	0.38730127	-0.18916002	0.06242934	-0.036583774	-0.099593244	0.19350362	-0.061664883	0.07571056	-0.04795935	-0.22611696	0.084649466	0.22766934	0.7098137	0.25861087	0.17892502	0.28221023	-0.13088948	0.58945006	-0.018484069	-0.40297413	-0.44755584	0.092826255	0.36559877	-0.113200225	0.08135605	-0.33515292	-0.03063415	-0.08799231	-0.23501438	-0.38149145	0.055083856	-0.032637678	0.15071106	0.20691979	0.29969043	-0.25484872	0.31359863	0.20797372	0.018740969	-0.12762	0.14640357	-0.115903735	-0.06378234	0.40848964	-0.066138156	-0.024368195	0.21542743	0.03711791	0.037158865	0.07791482	0.055205736	0.046255015	0.14884165	0.30583072	-0.39850637	0.16119295	0.25911748	-0.07725197	-0.0680698	-0.08189264	0.16999032	0.013988838	0.2730017	-0.22440247	-0.040902607	-0.032312904	0.1778241	0.020509025	-0.1663969	0.14661165	0.33910078	0.0061204177	0.108324945	-0.23085342	-0.09213825	-0.053972516	-0.11283565	0.10933196	0.19000143	-0.08823862	-0.1940582	-0.5001099	-0.09096799	0.21226303	0.060184848	0.03328603	-0.60920197	0.23788807	-0.19032018	-0.08120268	0.0027972846	-0.20638384	0.2779301	-0.17852609	-0.28628886	0.07802046	-0.1457945	0.30570775
aclidinium	0.04552751	0.14724697	0.15631333	0.5064274	0.010457834	0.139707	-0.21292025	-0.072859205	-0.035843667	-0.23638752	0.017826503	-0.021420412	-0.07346395	-0.08704487	-0.060291756	0.23753709	0.3299462	-0.03911239	0.03537447	0.048097264	0.3766005	0.31508467	-0.10408761	0.011436679	-0.19640623	-0.34886318	-0.117511824	0.30920038	-0.027177703	-0.22731356	0.12429129	0.13167146	0.017001692	-0.19164991	0.5792394	-0.06879671	-0.47832587	-0.0017504536	0.19383676	0.23776914	-0.43222785	-0.23905562	0.13599451	0.4618033	0.71024495	-0.12905547	0.110101216	0.25826317	0.16450986	-0.28985384	0.34105206	-0.008245635	-0.009424184	-0.053839464	-0.5652825	-0.020457251	0.22890028	-0.4404837	0.27097827	0.18788293	0.13981701	-0.059863493	0.17485754	-0.2968927	-0.8719681	-0.09782086	-0.11358387	-0.37168348	-0.10138281	-0.03598691	0.4583523	0.47442344	0.0042394944	0.1934938	-0.0037394806	-0.088531874	0.6397284	0.11008552	0.032516543	0.3823878	-0.43756998	-0.7573188	0.46880996	-0.3477302	-0.28743708	0.4763402	-0.12242777	0.29685608	0.4355645	-0.062236276	-0.0059507904	0.12342384	0.08681131	-0.14677285	0.30740058	-0.0906577	0.054429244	-0.01694692	-0.046500202	0.40450293	-0.69228345	-0.53094065	0.24858625	0.25304946	0.20738716	-0.19738004	0.38736588	0.20136023	-0.3700931	-0.04176639	0.48057646	0.1522239	-0.19899847	-0.23355612	-0.23879202	0.07885204	-0.43554702	0.22511041	0.18195863	0.2855696	-0.053485658	0.12600315	0.1475116	-0.18524806	-0.22536804	0.3095589	0.49521974	0.05782474	-0.39491057	0.2820462	-0.15587336	0.33296388	0.033951018	-0.011554156	-0.08604862	-0.38385028	-0.34184113	-0.024566567	0.11518138	0.033676412	0.24629249	-0.23278157	-0.00819842	-0.044206887	-0.23729658	0.1060502	0.5522599	0.2815335	-0.4650128	0.2582114	0.11452916	-0.029461734	-0.2999149	0.21069907	0.4044362	-0.25515932	0.31875336	-0.20974778	-0.28655097	0.009818346	-0.19225712	0.08896022	-0.058412213	-0.06380654	0.03130066	-0.17607757	0.50892204	0.4710077	0.20810902	-0.16414788	0.21570243	0.0029724946	-0.15079436	0.10741223	0.022346832	0.38250852	-0.30379334	-0.032737274	-0.059433162	-0.5813715	-0.004351556	-0.256524	-0.21088938	0.12917793	0.19625652	0.123334184	-0.105108604	0.027241541	-0.17626189	0.3768509	-0.12857519	0.106425665	-0.03640994	0.18304406	0.25235704	0.010927815	0.07245657	-0.04619145	-0.13471717	0.44045734
acrivastine	-0.030529412	0.3598139	-0.049586535	0.20135717	-0.0073748403	0.06570206	-0.105789386	-0.4993927	-0.16568749	-0.12726237	-0.18598086	-0.29842708	-0.14234947	0.11722902	0.08046359	0.03011075	0.1160193	0.29548764	0.3139478	-0.056188755	0.47732806	0.080236256	0.16396825	-0.2045488	0.031653337	-0.21292353	0.12900609	0.4811411	-0.28029004	-0.2956679	0.078863166	-0.047322415	-0.059967518	-0.030766243	0.4933955	0.1176961	-0.5230524	0.08491736	-0.042545587	0.05533125	-0.2634402	-0.014027392	0.28448662	0.30440196	0.49068844	0.09604531	-0.2367891	0.08624082	-0.2831436	-0.1310684	0.42854723	-0.22567126	-0.29510057	0.09812542	-0.28107172	-0.30147734	0.02787301	-0.5204459	0.19265479	0.6845698	0.09367819	0.0063557904	0.13184954	0.056827053	-0.22373284	-0.018815482	0.054589067	-0.43844533	0.16228612	0.08612429	0.46744326	0.117141455	-0.061309583	0.072017305	0.040280238	-0.053877898	0.43901166	0.026746113	-0.1977778	0.22609168	0.108057305	-0.3283917	0.6886581	-0.12696853	-0.46159378	0.071704775	-0.28204724	0.36857122	0.36952603	0.038378257	0.12855355	0.13563785	0.074368626	-0.42529145	0.0132962875	-0.055634934	-0.027291404	-0.34684587	-0.03239259	0.10094762	-0.53373516	-0.09789195	0.23177223	-0.004917356	0.36095664	-0.044630155	0.2514253	0.20701021	-0.36914223	0.10916858	0.05215358	-0.012741901	-0.070156045	-0.5153989	-0.28097597	0.30512515	-0.05345635	0.08249625	0.28421733	0.052484725	-0.15474251	0.1523627	-0.68444306	-0.19295734	0.0031238152	-0.007800805	0.46666366	0.00065793993	-0.10697604	0.31117892	0.10658014	-0.03893624	-0.017740732	-0.10902307	-0.066001885	-0.094535135	-0.6014414	-0.410398	0.28105944	0.5306212	0.05240592	-0.22203921	0.16733709	-0.1036997	-0.17531013	0.2855902	0.09227952	0.09017048	-0.090722255	0.08674943	0.12681729	0.056509998	-0.3171165	0.13237539	0.13576071	-0.092015535	0.39863843	-0.28513333	-0.12848563	0.2557233	-0.22849838	0.19248047	-0.16653554	-0.16600353	0.13616548	-0.22743934	0.549622	0.12529874	0.20644121	-0.08167657	0.21587805	-0.16432251	-0.38649496	-0.20369484	0.1267022	0.52065736	-0.25186935	0.08536941	-0.05773354	-0.67392135	0.054915316	-0.43722084	-0.08348126	-0.24445023	-0.14007428	0.21464592	0.33708403	-0.17818889	0.27182633	0.26684096	-0.21495177	-0.14240232	-0.33207175	-0.19983193	0.36968702	-0.006134577	0.25870752	-0.17897284	-0.3729833	0.3492733
acyclovir	-0.07986139	0.38836074	-0.3176998	-0.04183683	0.072109446	0.07379284	0.3644449	-0.06750886	0.07521217	0.06668732	0.2988155	-0.036812883	0.13286857	-0.030187555	0.069468625	-0.07795282	0.014859514	-0.0011455717	-0.0048616095	-0.27106008	0.07608756	0.13019949	0.11889369	0.1495904	0.13548501	-0.16440736	0.17379713	0.29786232	-0.18062702	-0.08166988	-0.036067702	0.13228427	0.05030984	0.020695757	0.32477954	0.019572962	-0.2264779	0.18761761	-0.35975474	-0.27232337	-0.18243521	-0.29797184	0.11386269	0.08672407	0.41785267	-0.14163345	-0.08999755	0.22564031	-0.39071712	-0.472237	0.34924653	0.03235814	0.0026879602	-0.09440934	0.07460092	0.061975162	0.5978283	-0.41922584	0.40956712	0.10911462	0.22944275	0.0945247	0.10717991	-0.23995517	-0.43402463	0.10797065	0.18414758	-0.099030204	-0.03195396	-0.38078055	0.2717965	0.13034244	-0.026933616	-0.054934092	-0.05043908	0.2994907	0.31829652	-0.28292236	0.071894154	0.15274616	-0.37686777	0.037694506	0.6098784	0.0042460547	-0.35578376	-0.03717273	0.34743053	0.11700117	0.12524909	-0.030584946	0.012723562	0.19978532	0.3692403	0.10782579	0.08711578	0.3181697	0.029342037	-0.17662139	-0.3232206	0.009063886	-0.42096266	0.031315744	0.14081469	0.09355373	0.076394156	0.10293622	0.26934054	0.04104999	-0.18181667	-0.086448826	0.5432161	-0.035357006	-0.2317407	-0.369838	0.07223428	0.44670066	0.112840235	-0.13630623	0.1959313	0.17996487	0.013538252	-0.03462075	-0.030894263	0.10220647	-0.106748834	-0.047470685	-0.026925115	-0.094059	0.058970913	0.31025577	-0.08968703	0.19814807	-0.28326637	-0.13608533	-0.37101185	-0.13465762	-0.19805479	0.0386326	0.10757021	0.38778034	0.12117136	-0.05227897	-0.19475384	0.23782973	-0.08126037	0.14722419	0.15418014	-0.10941311	-0.24186939	-0.17202164	-0.017238528	-0.072909474	-0.09980471	-0.07436535	0.40272632	-0.16763109	0.22237398	-0.15050262	-0.25056082	0.020673033	-0.098987386	0.17791578	0.024429936	-0.0006752763	-0.4183597	0.032334693	0.41617298	-0.050225057	0.35474592	-0.25094226	0.20239273	-0.39781603	-0.67830837	-0.43349916	0.14542829	0.07897767	0.14987586	-0.070082895	-0.036162168	-0.22989999	0.3358534	-0.056920093	0.17844382	-0.57581806	0.13500945	-0.1524043	-0.044423647	-0.11174928	0.18674478	0.100406736	-0.459744	0.15732066	-0.1747901	0.06943312	0.084412225	-0.02279853	-0.18466276	0.020654775	-0.1782758	0.5959349
adalimumab	0.03752752	0.4665814	-0.44468373	0.11146276	-0.13666764	0.2835022	0.3434699	-0.015745716	0.26863766	0.17821014	-0.37054527	-0.018712671	0.23326488	-0.15295781	0.14671643	-0.15143926	0.41384977	-0.20274226	0.40459433	-0.45182768	-0.06020198	0.3430742	0.032257453	-0.08905777	-0.07892316	-0.37000418	0.16387333	-0.33042794	-0.109326065	-0.2731763	-0.080196425	0.034431335	-0.014362115	-0.5273372	-0.10993983	-0.12990502	-0.111546025	0.3643883	-0.15717039	0.08842486	-0.37954998	0.28688404	-0.07659486	0.27959606	0.42352548	-0.14891925	0.040947843	-0.10321999	-0.38148803	0.11121957	0.5501991	0.16111839	0.245836	-0.14465162	-0.4476572	-0.08365822	0.098934375	-0.23011172	0.58327454	0.11871544	-0.00069792545	-0.060643088	0.35427868	0.15042128	-0.19931152	0.16275756	-0.03279977	-0.2690618	0.14823274	0.109695554	0.43842375	0.15598325	-0.16434786	0.16478248	-0.11065244	0.17564803	0.42148492	-0.30447218	-0.18941179	0.30018556	-0.13394547	-0.048672568	0.57534665	-0.0040527014	-0.30892527	0.08734255	-0.21089764	0.41710743	0.16354576	0.08051752	-0.50375885	0.0576846	-0.13672526	-0.1504661	0.69409144	0.5370027	0.26058477	-0.55073875	-0.22346924	0.11591597	-0.14686862	-0.18237172	0.44146597	0.053465895	0.6498651	0.16942254	0.26178628	0.31200278	-0.0028607557	-0.0049129417	0.44536793	-0.022505123	-0.3392549	-0.40313688	0.020200538	0.5298906	0.12921748	-0.34056884	0.60994023	0.36195818	-0.2160945	-0.48171425	-0.004708957	-0.34518674	-0.10488718	-0.05292126	-0.03438037	0.11574004	-0.08626251	0.0034251758	0.04072154	0.14463414	-0.027427465	-0.36095363	-0.7772253	0.30239418	-0.24114463	0.3875517	-0.08852394	0.3313441	0.016047968	0.056937963	0.21555887	-0.007824868	-0.25025818	0.214469	0.41468135	0.019925734	-0.3413139	-0.071680926	0.060239907	0.29858196	-0.014641745	0.1686423	0.12533246	0.0064033256	0.18949066	0.039304323	0.09206799	0.12343249	-0.23177204	0.15183218	-0.047358435	-0.10775651	-0.3902979	0.122752845	0.5851139	0.750129	0.26222938	-0.3172054	-0.00040410654	-0.010241405	-0.24359958	0.009895799	0.103115074	0.4806005	-0.18159491	0.16001299	0.05266187	-0.6183922	0.0047087953	-0.40341648	-0.5115574	-0.08450917	0.1927265	-0.10879727	-0.26319307	0.3382142	0.35683632	-0.19654264	0.0070359325	-0.3613228	0.045392636	-0.023897713	-0.28788066	-0.2891874	-0.15787555	-0.049951486	-0.74308175	0.13197587
adapalene	-0.11266607	0.5037392	0.019141935	0.1794448	0.2056716	0.018516812	0.11143648	0.11607028	-0.2812729	0.021086767	0.030545281	-0.040967952	-0.38842943	0.12928495	0.49824902	-0.15379554	0.4162949	-0.1484909	-0.56459796	-0.3861033	-0.14365567	0.5042861	0.033915006	-0.58915114	-0.035236254	-0.62784016	-0.061303265	0.16184916	0.010489396	-0.04117946	0.0069587715	0.4094819	-0.47984952	-0.08512383	0.30077657	0.057784826	-0.13628286	-0.2833487	-0.32145458	0.0761003	0.0044929567	-0.1424195	-0.022823611	0.42225015	-0.16197276	-0.334207	-0.1665032	-0.10385003	-0.19500163	-0.26549926	0.42388287	0.64851576	0.14483343	0.072604366	-0.69352275	0.23066635	0.37950128	-0.09900456	0.7412104	0.88818103	-0.1293976	0.24384297	0.32958972	-0.07874218	-1.1870699	0.16032284	0.07805125	-0.58674186	0.18806882	-0.51311976	0.8354825	-0.4327024	-0.14804746	0.029887138	-0.10311374	-0.4964867	0.65175766	-0.115716025	-0.12723479	-0.06748048	-0.40359366	-0.14888555	0.23236081	0.40045774	-0.2604713	0.20048867	-0.15360618	0.49800894	0.0033125167	0.11227887	0.2229928	0.46782923	0.26649287	-0.13093422	0.089147896	0.6553896	0.23045641	-0.19000107	-0.32981926	0.3592332	-0.4221592	0.0261477	-0.034298085	0.20204444	0.6201472	-0.033142567	0.43354505	0.5726086	-0.14199409	0.14321199	0.41033167	0.14162375	-0.47736385	-0.27866006	-0.08671964	0.22763719	0.24145421	-0.073771976	0.17182161	0.42641616	-0.24856764	-0.5181141	-0.18274778	-0.26996717	-0.13475549	-0.050346073	-0.04675921	-0.21689686	0.26893762	0.27395165	-0.22448029	0.1098263	-0.5216815	0.025843337	-0.14388047	-0.23917168	-0.5101414	0.279097	0.59893656	0.5897197	0.42006278	-0.24270044	0.10599022	-0.11769332	-0.14619711	-0.10566883	-0.12764251	0.3240546	0.14087994	0.10336625	0.4102049	0.53250116	0.45986542	-0.049370907	0.7650604	-0.44920805	-0.04770281	-0.003467534	-0.08094938	0.39662308	-0.28538892	0.7639278	0.137698	0.27018347	-0.4675522	0.21782847	0.15086317	0.4964181	0.04581082	0.02018388	-0.15507354	0.19420452	-0.39728728	0.03155202	-0.19166268	0.24796522	-0.14610067	0.024442276	-0.26848465	-0.44348156	0.009997564	-0.21589088	-0.27904686	-0.41960862	-0.44477913	-0.3855994	0.11639593	-0.165014	-0.34965277	0.15564452	-0.356922	-0.07297753	0.018811	-0.2563199	0.50892174	-0.3706038	0.042089723	-0.18010794	-0.33457318	0.3586345
afatinib	0.04862706	0.30229902	0.09451736	0.17204678	0.059975117	0.12381802	0.24497509	-0.25011304	0.22598857	-0.24642687	0.002173865	-0.28521457	0.01938814	0.036918603	0.19344623	-0.34907165	-0.02364234	-0.10383013	-0.26932305	0.24478915	-0.06856419	-0.3072181	0.14039424	-0.20526776	0.35754585	-0.10165698	-0.19898239	0.24436761	-0.108268455	-0.09431848	-0.27205446	-0.19651905	-0.31389958	-0.32077107	0.26262882	-0.13796759	-0.6666822	0.49662	-0.1570927	-0.022695277	-0.41412145	-0.1424847	0.08853377	0.52118164	0.5146373	-0.18049651	0.32714793	-0.07957189	-0.092363395	-0.12719765	0.3429849	-0.23183501	-0.23169833	-0.59226286	-0.47931376	-0.10766021	0.22821732	-0.32194418	0.39422107	0.024281396	0.09343786	-0.045070007	0.04670539	0.07251317	-0.7511051	0.32671764	-0.032248944	-0.38258904	0.27821258	-0.19771424	0.14334588	0.48500234	-0.02011733	-0.10413306	-0.33282346	-0.16448893	-0.15480004	-0.15135527	0.08174602	0.16825552	-0.12132414	0.18455318	0.2000349	-0.16310434	-0.21451336	0.013834798	-0.060190417	-0.15147369	0.55975926	0.4171159	0.07663292	0.48696002	-0.020975487	-0.30586368	0.21102937	-0.07602619	-0.15844989	-0.12005112	0.06813751	0.10443085	0.022867925	-0.5420162	0.08619129	0.13172466	0.041203536	0.03587217	0.42140853	-0.42768818	0.08094953	0.23144658	0.29625785	-0.080975674	0.010232844	-0.493784	0.27445528	0.87374955	0.18738487	-0.23007333	0.49187633	0.05034328	-0.13915119	0.027114175	-0.015077777	-0.34207788	-0.14837007	0.27594087	0.10640672	0.2624591	-0.23371764	0.2159783	0.09015543	0.29069212	-0.35427698	0.034621906	-0.34087834	0.18092126	-0.0013730412	0.3710918	0.070653535	0.32672137	-0.28567296	-0.039553322	0.17946598	-0.3012076	-0.3733616	0.054104127	0.41514614	-0.060029875	-0.14098792	0.026160402	0.29308078	0.108248	-0.16928756	-0.08606904	-0.31967115	-0.3211215	0.0062596886	-0.27071643	-0.009478703	-0.16277602	-0.30537632	0.26477522	-0.16971663	-0.15566136	-0.16300738	-0.14923404	0.75421375	0.10195508	0.32352304	-0.29778865	0.28195086	-0.36019176	-0.4209536	-0.12557016	-0.046936404	0.53690916	-0.263322	-0.20984021	-0.029590439	-0.29492435	0.033780206	-0.41085365	-0.4468608	0.12779725	0.3250025	0.01358192	-0.36805403	0.13179679	0.14337558	0.39364877	-0.4225756	-0.46742338	-0.2843204	-0.20618859	0.034214377	-0.0073093935	0.007735876	0.07043516	-0.43974346	0.31254515
aflibercept	-0.14575474	0.18244916	-0.106580965	0.060994264	0.06531092	-0.019829286	0.32468462	-0.11111764	0.44029534	0.012607484	0.0651764	-0.15820877	-0.07398171	-0.089377046	0.287084	-0.42757407	-0.04291684	-0.23778613	0.20272325	-0.118567325	-0.10191692	0.081194684	0.1837537	0.13438547	0.08595651	0.2537584	-0.06517602	0.3614383	-0.2551113	0.07477905	-0.16099972	0.21484263	-0.08920483	0.0757061	0.095110804	-0.03503051	-0.60617256	0.27988353	-0.03686519	-0.1174368	-0.19857232	-0.024507573	0.09828752	0.20138605	0.63396287	-0.29808912	0.2371686	0.27632517	0.09529584	-0.092386335	-0.12366614	-0.0012822333	0.13213891	-0.29935578	-0.2783609	-0.044388678	0.37275487	-0.22079179	-0.027398458	0.123847984	0.21548526	-0.13602099	0.12244349	0.008211021	-0.42346197	0.09131455	-0.26296946	-0.17228195	-0.05208556	-0.02163744	0.09929612	0.14369574	-0.27252725	0.049713682	-0.28913268	0.15972553	0.37981272	-0.2384013	-0.2499479	0.1855223	-0.12079298	0.24809209	0.23951598	-0.16559535	0.087304525	-0.06661227	-0.69544137	0.11235107	0.56835055	0.3409048	-0.02236875	0.470488	0.06365698	-0.0049579698	0.2585648	0.06537432	0.05242863	-0.14461629	-0.28120574	0.02307727	0.0062031606	-0.2712591	0.35892445	0.30783883	-0.00074238394	0.051144768	0.56401765	-0.24393645	0.06392992	-0.067363165	0.32645732	-0.034624264	-0.10990583	-0.25460872	0.031062229	0.28660488	0.061124034	-0.20151398	0.52013797	0.17609301	-0.4398374	-0.21963096	0.042553704	0.08289842	-0.040006105	0.5131496	-0.05845981	0.30177876	-0.07481116	0.06253113	0.19405258	0.34950852	-0.20712034	0.07169771	-0.32802588	0.35499182	-0.24281709	0.3489844	-0.16509953	0.2721603	0.05447954	-0.038597938	0.279994	-0.10892112	-0.52422136	0.11066396	0.2567744	-0.21647285	-0.25612044	-0.24389254	0.2335569	0.33452383	-0.09532632	0.014711294	0.19828738	-0.50217825	-0.23034462	-0.016238641	-0.12340349	0.03671613	-0.07240581	0.4715803	0.2136683	-0.049346823	-0.12635136	0.1201168	0.4870101	-0.141272	0.25689986	-0.5346423	0.28200108	-0.26541892	-0.3959376	-0.043484688	-0.1668376	0.5413544	-0.39369717	-0.18018696	0.44656575	-0.12225845	-0.1420039	-0.30722797	-0.517251	0.09139491	0.6564732	-0.28813455	-0.20842342	0.029299377	0.25160983	0.36467287	-0.38795027	-0.2780174	-0.14986505	-0.17718387	0.25653955	0.0018399776	0.09553746	0.06923432	-0.36891142	0.21214676
albiglutide	-0.19277488	0.54693466	0.22202413	0.21163066	-0.22541146	0.049065385	-0.031014808	-0.01264479	0.3194676	-0.11602041	0.12158365	-0.08857667	-0.13056228	0.18438692	0.06251344	0.11446342	-0.19409004	-0.0009569018	0.19912712	0.06362989	0.24416892	0.15556303	0.026753478	0.33451772	-0.20081349	0.028255513	-0.031961385	0.17963754	-0.023982435	-0.28523526	0.028332923	-0.41553158	0.11645596	-0.07560147	0.40913716	0.03256197	-0.46796328	0.04743987	0.079521485	-0.30578256	-0.21606208	-0.39438593	0.16966644	0.30125472	0.29252428	-0.23289892	0.25382605	-0.030447064	0.049776334	0.040726624	0.31763065	0.005249009	-0.029137153	-0.12533662	-0.0160789	-0.40105543	0.1663406	-0.23514222	0.02698609	0.47114697	-0.18722162	-0.14707129	0.4444254	-0.118790336	-0.45210207	-0.12749343	-0.09945623	-0.40312865	0.3637028	-0.35089734	0.30000722	-0.005698505	-0.43831554	0.16721575	-0.26581225	-0.32151031	0.245315	-0.120165505	0.015945932	0.23297918	-0.55090725	-0.35340312	0.36865377	-0.08511378	-0.11525733	0.09906002	0.115541175	-0.17055888	0.13519086	0.10607922	-0.06641656	0.15155375	0.1571549	-0.1170772	0.203363	-0.14098914	0.09629313	0.08811853	-0.02682302	-0.06603229	-0.09705573	-0.5606566	0.573853	-0.0802611	-0.02749418	0.1380485	0.14231892	-0.114818156	-0.22893544	0.04424044	0.30790114	0.17863275	0.24619104	-0.59968174	0.02871211	0.3512435	-0.3586009	0.09468838	0.30022714	0.07576241	0.00882852	-0.167519	0.06223344	0.016733086	-0.12876472	0.49195942	0.057337485	0.25378442	-0.20395972	0.005535919	0.031236252	0.26823786	-0.014361286	-0.09595744	-0.10748378	-0.10084149	-0.54935646	0.02427831	-0.028757805	0.25962257	-0.25562263	0.3422658	0.054925624	0.08546033	0.20011055	0.0024098628	0.2742241	-0.3074149	0.13410147	0.22638974	-0.047120538	0.14663999	-0.029449066	0.20075363	-0.14995381	-0.3757254	-0.15885086	-0.012837206	-0.1943096	-0.06625144	-0.37719417	0.36610752	0.029157564	-0.15730038	-0.17532668	-0.14320375	0.6495569	0.16602732	0.20492923	-0.48422086	0.07791709	-0.013721055	0.16978884	-0.20511812	-0.11386533	0.24532807	-0.16095605	-0.034815066	-0.29752514	-0.07985965	-0.12755114	0.0111113675	-0.3480795	0.111484334	-0.09965179	0.13509367	0.15686864	-0.036286697	0.06127746	0.12252901	-0.00088588696	-0.42004907	-0.3085727	0.08304205	-0.14087191	-0.14443682	-0.041763514	0.07625726	-0.20762317	0.39235395
albuterol	-0.36055624	0.018634507	0.39228007	0.074148364	0.046758328	0.072107814	-0.11106668	-0.19811703	-0.11699857	0.19510292	0.08499426	-0.06555263	0.021902123	0.16546682	-0.042876724	-0.14356297	-0.12971434	-0.021063754	0.14826433	-0.031446964	0.5211147	0.53498435	-0.2205295	0.14367492	-0.3604493	-0.076557145	0.2686699	0.062658876	-0.43153974	-0.46696204	-0.005576623	0.08340787	-0.0017204279	0.16610178	0.37230593	0.17242269	-0.15890297	-0.36839268	-0.13933764	-0.14823066	-0.51888365	-0.02874276	-0.08744841	0.38468903	0.27158603	-0.10924439	-0.4372481	0.32075158	0.029433936	-0.23436731	-0.011194949	0.13722156	0.51516306	0.17040631	-0.321857	-0.5208865	0.1515594	-0.42604122	0.09645149	0.25037184	0.07759517	-0.09875997	0.18164322	-0.18788466	-0.6583194	-0.114303134	0.2719828	-0.11954114	0.10808801	0.122359864	0.39286312	0.28697488	0.07272442	0.006205312	0.14179714	-0.23031195	0.41480267	-0.13120116	-0.22213243	0.29329896	-0.29737058	-0.5666632	0.4187158	0.14422794	-0.47982603	0.21076266	-0.17791717	0.45404842	0.4793162	0.12849896	0.15938231	0.2704875	0.17236528	0.021198867	0.25138086	0.0175274	0.10660751	-0.17769054	0.07627856	0.1690905	-0.75808376	-0.40185297	0.0699346	-0.0807401	0.09690767	-0.1441632	0.37221703	0.0930045	-0.15932117	-0.20800592	0.35820934	0.3838214	-0.09679733	-0.37008345	-0.30177394	0.13950305	-0.09612986	-0.22380295	0.021137668	0.25615877	0.0979048	0.32452434	0.014609649	-0.520227	-0.40205783	-0.00983719	0.269046	-0.021167235	-0.08422325	-0.25296575	0.12409296	-0.22481711	-0.054443903	-0.08441257	-0.19080813	-0.15949056	-0.39973474	-0.36095515	0.2021865	0.31408536	0.2997957	-0.10361995	0.09354314	-0.15153801	-0.2926833	0.35054454	0.3336108	-0.1033923	-0.52904105	0.755351	-0.10014188	0.19318295	-0.14995128	0.2387141	0.1554219	-0.33094007	0.22330807	-0.26143837	-0.33103034	-0.07855045	-0.17530656	-0.04001718	-0.17640339	-0.01215507	0.12965012	0.2358801	0.59002763	0.30721107	0.2801283	-0.04330041	0.4314464	0.029603666	-0.45168033	-0.080558494	0.5201022	0.41508496	-0.07583038	-0.2042023	-0.13258784	0.038777877	0.14990397	-0.31833476	-0.11042306	0.009634689	-0.10542177	0.110533245	0.17719784	0.37049636	0.103847936	0.3599532	0.06999542	-0.08555229	-0.02786369	-0.17185724	0.4301205	-0.0052655945	0.04216436	-0.13280892	0.21216685	0.61962074
alcaftadine	-0.13260368	0.207033	0.18682186	0.2094201	-0.16541182	-0.16599356	0.061986994	-0.15759015	0.04750115	-0.042224973	-0.0112457955	-0.060642906	-0.24120918	0.0699601	-0.058634706	0.12139005	-0.14679328	-0.0056390306	-0.062456883	-0.28894925	0.1734516	0.22431803	-0.0116776265	-0.029579276	-0.16364612	-0.24544002	0.05144453	0.003984941	-0.10394037	-0.08617271	0.10002099	0.1350392	-0.1150276	0.06823402	0.12581772	-0.17437837	-0.20666274	-0.17480125	-0.13615334	-0.10245906	-0.18325536	-0.023752782	-0.13804	0.23389728	0.18462917	-0.23055825	0.0015777033	0.18951806	0.14716151	-0.22458008	-0.033379167	0.06722206	0.051147103	-0.10484548	-0.27972564	-0.030203544	0.43426287	-0.18284713	0.22840945	0.26464525	0.11187609	-0.022098668	0.16329294	-0.12160061	-0.24650264	0.055038154	0.024593176	-0.029394457	-0.051282473	-0.03769818	0.11844159	0.07898776	-0.050739188	0.02539974	0.046226535	-0.38540444	0.0853134	-0.20739564	0.048217166	0.22551915	-0.20633432	-0.25019068	0.18190531	0.20048171	-0.21300241	-0.017027706	-0.28796214	0.24617392	0.14616472	-0.06705724	0.1142382	0.1792337	0.24405496	-0.01995028	0.24086	0.14370196	0.13893892	0.0726905	-0.017428344	-0.14758588	-0.22647968	0.011636207	0.21054831	0.12940152	0.00662961	0.23865269	0.040621802	-0.010671969	-0.07752151	-0.23125172	-0.07984603	0.0073385774	-0.23134407	-0.22522442	0.009620709	0.22261335	0.06054177	-0.04451607	0.063528955	-0.15520538	-0.37100467	0.06731449	-0.15208024	0.14234196	0.096540764	0.17787054	-0.0464442	-0.033030048	-0.18557099	0.116685346	-0.029407963	-0.16741675	0.030796524	-0.16667579	0.021705985	-0.103215106	-0.2650939	-0.001291385	0.22733076	0.2728933	0.29210272	-0.33102623	-0.015333042	-0.011839148	-0.20421566	0.19070257	-0.019208528	-0.09441745	0.090508744	0.13985755	-0.045754798	0.4469079	0.033539966	0.10746219	0.26459867	-0.18538545	-0.069486976	-0.25170118	0.19526817	0.16988444	0.042262215	0.29406855	0.2906219	-0.082700126	-0.14354499	-0.021156352	-0.013863966	0.30434084	0.065904155	-0.1852266	0.007826855	-0.042884436	-0.071109295	0.029660305	-0.0101253055	0.028987559	0.03800658	0.14474466	0.064054325	-0.15358776	0.089865245	-0.12339031	-0.1857203	-0.22877043	-0.2139094	-0.08717	-0.21053322	-0.023228314	-0.12269568	0.14147896	-0.180877	-0.024002671	-0.0769307	0.04698174	0.20120771	-0.2261003	-0.10292708	-0.16955091	-0.18514007	0.25651708
alclometasone	-0.16509165	0.26241845	-0.012525533	0.14399993	-0.011015026	0.051618256	-0.08335973	0.06264623	-0.09973325	0.097711034	0.111799404	-0.101714395	-0.044479594	0.13377069	-0.14439103	-0.15807922	0.20718592	0.027081404	-0.22563353	-0.30586424	0.0042149485	0.06174478	0.040536564	-0.20797889	-0.18515347	-0.22645421	-0.032174103	0.23025018	-0.16276687	-0.090186544	0.0621499	0.041730084	-0.105191685	0.08368172	0.04444687	-0.13308258	-0.14483346	0.03375031	-0.025836414	0.0016484887	-0.22790395	-0.16526854	-0.042233776	0.14514293	0.11780456	-0.1515908	-0.14677253	0.11815343	-0.11492617	-0.051358555	0.1330042	0.11325394	0.06484526	0.041013528	-0.11892752	-0.027073089	0.10378986	-0.21988681	0.12123321	0.26933032	0.10765776	-0.026213618	0.08640564	0.12332886	-0.19150302	0.07532557	0.23414105	-0.35260537	0.04576508	0.12889531	0.25227594	0.14504012	-0.016997632	0.050555922	-0.09193838	-0.15339789	0.1002245	-0.0012416852	-0.036870215	0.046640478	-0.31003135	-0.3108921	0.15290163	0.13735697	-0.09189761	-0.09168352	0.011239318	0.16468382	0.16809723	0.08108915	-0.25355265	0.3155852	0.2823872	0.09370056	0.10814271	0.00837423	0.16261631	0.08278028	0.018895635	0.118376784	-0.1462443	-0.15843306	0.04710776	0.14175849	0.27395207	0.20680715	0.1780941	0.112002395	-0.11566305	0.21159424	0.10633304	0.0661035	0.19237074	-0.5076632	-0.07151873	0.13086851	0.012017321	-0.17266726	0.024685986	-0.057296038	-0.011473002	-0.078998424	0.023321852	-0.16112432	-0.48957142	0.17392498	0.17588364	0.16541643	-0.020657701	0.048871405	-0.21103436	-0.093424685	-0.18805674	-0.040808473	0.014332074	-0.04166919	-0.22365533	0.080518365	0.086093925	0.14576027	0.20943455	0.041579783	0.37946042	-0.0667879	-0.13328053	0.20028351	0.19688214	0.082060345	-0.23061056	0.07988107	0.006412151	0.22713022	-0.059320156	0.15786195	0.25824	-0.16681038	-0.14749965	-0.2755031	-0.010116789	0.11114228	-0.0064484114	0.22640972	-0.061264645	0.1972639	-0.37124726	0.012277904	0.22966608	0.22055872	0.16590215	-0.054811068	0.07167621	-0.024239026	-0.28262445	-0.027659833	0.0027571146	-0.07642688	0.022303436	0.22353333	-0.15082316	-0.28310743	0.14889932	-0.12505907	-0.13010053	-0.2005821	-0.060730293	-0.17039885	0.07371874	-0.21232823	-0.1729527	0.03750585	-0.15137559	-0.10957707	-0.18197747	-0.07683669	0.20972824	-0.02915106	0.21591114	-0.1814867	-0.10603531	0.44338512
alcohol	-0.17977396	-0.13429332	0.17500372	-0.34176496	-0.014014642	0.092367396	0.030594883	0.16940881	-0.15950936	0.17011069	0.002854791	-0.018812926	0.069749065	0.19998252	-0.10387467	0.11010703	-0.56193376	-0.3360233	0.41566437	0.1771523	0.4740376	0.24894693	0.15084395	-0.28106126	0.102019094	-0.3841906	0.02250412	-0.43602335	-0.026960008	0.16417809	-0.35686874	-0.2611835	0.049142346	-0.09118438	-0.10656948	0.006806892	-0.27905756	0.042511683	0.020198997	-0.09361758	-0.033814177	-0.07998627	0.29302266	0.21288107	0.15796658	-0.019682344	-0.14273885	-0.19734372	-0.38792807	0.056983765	-0.04716524	-0.013303835	0.058792323	0.11565925	-0.083268784	0.24661173	0.320609	-0.18405007	0.2838337	-0.25985444	-0.04663323	-0.45473716	0.025623327	-0.093040586	-0.34408686	0.03942029	-0.03451574	-0.19680992	0.26786014	0.28033945	-0.055844128	0.043444	-0.47988483	-0.12094269	0.19784363	0.025492543	0.11449341	0.18369731	0.26780373	-0.12086547	0.31979364	-0.0516866	0.19174281	-0.15557028	0.14189662	0.039715596	-0.026913578	0.17645673	0.00026426636	0.16785295	0.09527912	-0.3604597	-0.08391936	0.5630761	0.34256843	-0.10218345	0.33602792	-0.0155898295	-0.16044457	0.060611423	0.09002854	0.3229416	0.14824541	0.20629281	-0.12179451	0.26697755	-0.14159076	0.087350525	-0.27267858	-0.27719525	-0.11951634	0.04696548	0.14934193	-0.4147571	-0.12427804	0.35607514	0.15523514	-0.14958271	-0.25977725	0.24217154	0.4769948	-0.06847066	-0.15166537	-0.1825265	-0.040719956	-0.19712824	-0.33521348	-0.36726972	0.2938415	-0.23278986	-0.15277617	-0.20589222	0.028477637	0.18789162	-0.2317373	-0.35558504	0.00041139632	-0.13901092	0.026092777	-0.015490389	-0.29351756	-0.029322192	-0.18167782	0.32161108	-0.22639917	0.02447208	-0.20586349	-0.35707125	0.39816964	-0.020480452	-0.047120314	0.049088635	0.31654227	0.3112065	0.2064594	-0.17848623	0.39155254	0.21167867	0.07161237	0.31682724	0.08211815	-0.09652612	-0.11824383	-0.2698236	0.3904162	-0.2149714	0.05604528	0.08249766	0.3973271	0.06857595	-0.0024676665	0.049734376	0.085432194	0.027451625	0.014899795	-0.40590593	0.15982343	-0.18795133	-0.16489337	0.09712206	0.20218466	0.021098094	-0.024772514	-0.20848198	0.048204713	-0.06659838	0.5009316	-0.25570458	0.0641172	-0.12180274	0.22100867	0.07383545	-0.12730391	-0.17293017	0.14165647	-0.22437856	0.18673684	-0.038273614	-0.32493004	0.049364354
alefacept	0.05758192	0.21508355	-0.37154874	0.025194155	-0.10103251	0.47293076	0.19764897	-0.20335893	0.14891809	0.12890276	-0.1647069	0.10483923	0.16007093	0.09198572	0.16975686	-0.3821998	0.008658851	-0.06550722	0.16445993	-0.43279675	-0.2224129	0.08815683	0.032500353	-0.17385972	-0.068660624	-0.2789931	0.03768139	0.14604007	-0.19079058	-0.28972238	0.108207494	0.19228284	0.14097968	-0.5392594	0.005228539	-0.4960911	0.1195149	0.27140218	-0.18566689	-0.084320374	-0.4614161	0.08235532	-0.18705116	0.34496796	0.4996006	-0.3798877	0.11553604	-0.002028043	-0.4440086	0.037583366	0.45687324	0.24165499	0.3208978	-0.06457699	-0.36979392	0.07414464	0.19456325	-0.1655111	0.48350173	0.32379773	0.09465734	0.018900182	0.1842953	0.061181888	-0.31804466	0.007009871	0.009181105	-0.22062771	0.14673528	0.20485854	0.47053313	0.12026402	-0.09338068	0.32624954	-0.15164264	0.12978992	0.2856156	-0.2715074	-0.1855855	0.18746564	-0.33634773	0.080671534	0.2897958	-0.09337776	-0.4936492	0.24500191	-0.48707268	0.025697585	0.21103452	-0.025432508	-0.054500684	0.15318231	0.24665754	-0.04818892	0.35734037	0.3225701	0.1697204	-0.39578587	-0.32549205	0.10607094	-0.21339138	-0.000976672	0.51288444	0.11481011	0.6230586	0.03882942	0.20733567	0.4353448	0.15974809	-0.007706085	0.5158949	0.01348142	-0.32473728	-0.37160274	0.10556029	0.36916003	0.031458776	-0.27029395	0.5313771	0.36639163	-0.27418435	-0.2617826	0.09955907	-0.4557662	-0.30179358	0.3613106	0.12697248	0.1878711	-0.1761175	0.13952737	0.040670354	0.29141402	-0.08738947	-0.26770496	-0.32106978	0.057616066	-0.11933533	0.16898401	-0.16983008	0.36063948	0.09181441	0.17737912	0.12173354	0.031017	-0.10419694	0.18419985	0.26014826	0.24018018	-0.3520933	0.007735606	-0.020094147	0.55000466	0.19080912	-0.1619756	0.044664837	-0.13457048	0.16416423	-0.3101585	-0.0404618	0.16886114	-0.10991292	0.18177035	-0.2516039	0.12668069	-0.2944828	0.05042848	0.5488892	0.82571	0.33163005	-0.178017	-0.009202281	-0.052175045	-0.27312005	-0.054290514	-0.0003616226	0.17049716	-0.51368153	0.09863243	0.031402655	-0.6519817	-0.070038036	-0.35282722	-0.29599887	-0.17266762	0.37240344	-0.26128832	-0.35419783	0.38573363	-0.037306044	-0.06285723	-0.21248028	-0.25731778	-0.28251103	0.0964503	0.21212244	-0.22585809	-0.21095276	-0.030520141	-0.563213	0.37793598
alemtuzumab	0.025230775	0.5144576	0.027700044	0.08923231	-0.008041047	0.10432208	0.08768263	0.17540397	0.13909177	-0.074817725	-0.05663823	-0.10516916	0.043449514	0.20502043	-0.07899906	-0.24384442	0.1397546	-0.34846863	0.07847575	0.021008698	0.032886103	-0.0740307	-0.066188425	0.19123992	0.012913787	-0.3571476	0.04907519	0.26870614	-0.08540686	-0.0704945	0.13695832	-0.23486772	-0.3017821	-0.21407773	-0.0050298623	-0.21215846	-0.188678	0.29795256	-0.26416478	0.091196015	-0.68820506	0.11084074	-0.2861821	-0.10045167	0.2565051	-0.4103338	0.08770463	0.112996705	-0.41293433	0.18899968	0.471449	-0.059454776	0.034402758	-0.31969658	0.109393276	0.034910794	0.07200692	0.044288762	0.3812199	-0.030872306	-0.067098685	0.0012741815	0.3309945	0.07428872	-0.2524081	-0.098928936	0.21844001	-0.09666968	0.119051024	0.0916222	0.2744146	0.20574413	-0.38274345	0.15640993	-0.2220027	0.23562717	-0.22197725	-0.10934255	-0.20756207	-0.0004002602	0.07867228	0.080139704	0.2593871	-0.010865067	-0.5425658	0.23052311	0.040733494	0.15355235	0.04857491	-0.061583556	-0.25583863	0.14909382	-0.040525492	0.15571722	0.4558668	0.2321963	0.045223415	-0.17813002	0.097232334	-0.029959282	0.12749135	0.005711388	0.5471798	0.12777793	0.1462778	0.13232194	-0.036984023	0.0369867	0.2598732	-0.17458513	0.64226836	-0.097278	-0.055701297	-0.25628212	0.26416215	0.58456975	0.16648597	-0.248734	0.573501	0.33902416	-0.007452599	-0.22042702	0.5396536	-0.42674515	0.13230889	0.1632453	0.022120094	0.26112458	-0.00031319607	0.010311853	0.17949055	0.35990793	-0.028572304	-0.24651018	-0.50338346	-0.0109202	-0.03968842	0.2798566	-0.32268968	0.18406367	0.050069783	0.0107164765	0.0724255	0.18632683	-0.353611	0.0049581975	0.3902428	-0.33578286	-0.35145786	-0.08604443	0.37573346	-0.10587744	-0.067353785	0.09522448	0.20612705	-0.15703897	-0.3033462	-0.19741556	0.015155912	0.07366464	-0.04104176	0.19503692	-0.37324315	-0.22918148	-0.35736188	0.21158552	0.5669756	0.22864003	0.41878104	-0.2781509	0.035968658	-0.13167687	-0.63192433	-0.14176011	-0.12006356	0.41379794	-0.3820701	0.3025227	0.07722157	-0.1489122	0.15559506	-0.28000677	-0.2439254	-0.0780604	0.32054758	-0.06985542	-0.4953206	0.004495502	-0.0031354565	-0.31988585	-0.34176993	-0.3063842	0.034431655	-0.265165	0.25244507	-0.20532441	0.23861228	-0.000652854	-0.22284341	0.25691116
alendronic	0.1092807	0.26537415	0.22366187	0.31778416	0.10958515	0.26259467	-0.046226073	-0.13011156	-0.24697594	-0.68526554	-0.01444595	-0.16224831	-0.002328177	-0.039122354	0.3075783	0.3319938	-0.04370954	0.3016015	-0.44743362	-0.62459826	0.146626	-0.1403608	-0.24669607	0.047990266	-0.03878698	-0.06988586	0.17466754	0.21790873	-0.51408434	-0.13623013	0.028031461	0.0026393086	-0.10900795	0.17910998	0.3135744	0.06177778	0.23055306	0.41055584	0.18891497	-0.18071215	-0.16757286	0.05187793	-0.012287833	0.34414715	0.26844716	0.0049154	-0.20292921	-0.0072170324	-0.13734132	-0.22327313	0.6094515	-0.107276484	0.18914102	-0.19694594	-0.09802795	-0.24339667	0.33891177	-0.10408831	0.6964946	0.16955121	0.30941457	0.38052037	-0.09404194	-0.012204944	-0.7248283	0.22854297	-0.037442334	-0.22870517	0.0034643563	-0.38931173	0.03771595	0.36865863	-0.81833905	-0.058216903	-0.048327878	-0.7521107	0.3310531	-0.30376112	-0.20190255	0.07983712	-0.2917122	-0.11016562	0.85934985	-0.6333403	-0.3994815	0.034336396	-0.22243741	0.35197774	-0.41843677	0.1842614	0.18811792	0.17379808	-0.04663859	-0.2015507	0.42810798	0.23476322	0.025980512	0.020348491	-0.0821478	0.29515168	-0.5047713	0.10028544	0.5507857	-0.26505193	-0.015274707	0.0052020317	0.1466447	0.12262189	-0.43465766	0.23980896	0.25993967	-0.033270624	-0.27577484	0.050086107	0.3738211	0.34546942	-0.061515726	0.0024597729	-0.29233688	0.5954379	-0.46023193	-0.10932045	-0.25798288	-0.23922978	0.12468635	-0.1084653	-0.023845116	-0.08574611	-0.270102	0.3012468	-0.124567665	0.009620071	-0.041230693	-0.20964547	0.010840645	-0.026358392	-0.10402032	-0.17786695	-0.17310768	0.46552977	0.18991332	-0.520226	0.12389134	-0.07279911	0.107608624	0.51664907	0.047151133	-0.15073264	0.04847639	-0.18258898	-0.5190392	0.24029653	0.24154067	0.2007242	0.17094222	0.13077268	-0.02065921	0.15365778	0.30168492	0.1657778	0.19011411	0.59155345	0.14932933	-0.13974743	0.19709939	-0.0077789496	0.3962056	0.21143	0.62346864	-0.13581355	0.1131908	-0.047602683	0.00978271	-0.18954523	0.04187769	-0.1987563	-0.13088092	-0.065811954	-0.43039712	-0.23381723	0.29734036	-0.14632569	-0.2529733	-0.20418961	-0.18680868	0.12983488	0.01165541	-0.094222754	-0.61722285	0.581603	-0.338134	-0.293742	0.10599732	0.084517896	0.34219325	-0.31501976	-0.25317127	0.19369923	-0.15939386	0.43159366
alfa	-0.31335956	0.36632502	0.05825703	0.13672104	0.20409778	0.10933959	-0.037610766	-0.24232195	0.42533538	0.32898968	0.25350398	-0.014177129	0.12747748	0.038135458	-0.021730889	-0.13277262	-0.17473403	-0.274638	-0.27270123	-0.4773681	0.7069216	0.100292385	-0.07913725	0.09065193	-0.15628952	-0.18340844	0.53511935	0.43417418	0.09759818	-0.029115109	-0.24945375	0.022445064	-0.30346876	-0.21566397	-0.09606246	0.058523875	-0.32605347	-0.09300273	-0.11677461	0.15097567	-0.46908903	-0.03522593	0.38330492	0.5235543	0.74600023	-0.17141788	0.09729101	-0.15198223	0.18197139	0.20227882	0.028586831	0.49285567	0.19384755	-0.25263536	-0.37171963	-0.09359844	0.23589605	0.01836028	0.1779579	0.1522081	0.29358754	-0.20201373	0.4484516	-0.16009414	-0.3753809	0.32047728	-0.119573094	-0.3073479	-0.15028085	-0.1524605	0.23531593	0.625273	-0.41990766	-0.02149701	0.021159533	-0.05760196	0.13907357	-0.35040307	-0.46337086	0.19586541	-0.23587984	0.24930248	-0.033063933	-0.2572016	-0.006247596	-0.4752554	-0.39921728	-0.11457214	0.12860966	0.15748379	-0.48013332	0.6446915	-0.17362651	0.32890803	0.20912962	0.20180026	0.36323163	-0.901794	0.015247656	-0.2428375	-0.33681652	0.15698023	0.4066744	0.4297533	-0.07342206	-0.20416619	0.60626256	0.3678994	-0.065472126	-0.4129323	0.47668612	-0.50502604	0.069011	0.015096624	0.37802568	0.08339307	-0.12370233	-0.25069666	0.48244378	0.45184484	-0.16583668	-0.037348848	0.10567631	-0.07230724	-0.037090883	0.2299124	0.08424998	0.04462239	-0.17470033	-0.55557543	-0.2998429	0.3925994	-0.19545509	-0.20773444	-0.23722115	0.20651099	-0.08321727	-0.16639067	-0.44096857	0.25068265	0.15740304	0.08061021	-0.027447067	0.48310727	0.22901164	0.111229174	0.3908718	-0.60974425	-0.6361869	-0.07343209	0.18475506	0.4419305	0.24844758	0.35580125	0.44110885	-0.23372485	-0.31677714	0.16261658	-0.2537749	-0.22350124	0.28812072	0.20344639	0.36335686	0.3244388	-0.2231271	0.27186507	0.43612555	0.332696	0.2616728	-0.5202965	0.34067222	0.03465914	-0.43583417	-0.054112475	0.5849471	0.682056	-0.23103902	-0.10419206	0.41198963	0.04077814	0.07390376	0.013265754	-0.39719126	-0.023685709	0.44141173	-0.29566157	0.10150722	0.52584636	-0.18552321	0.051650096	-0.63801676	-0.8532944	0.04075687	-0.23219618	-0.34555712	-0.1209295	-0.45046005	-0.019613933	0.0067232973	0.48279822
alfa-2a	-0.29018044	0.6569609	-0.7176243	0.057059877	0.43853018	0.28189486	0.55121887	0.036203753	0.5086661	0.4158137	0.8320971	-0.12945239	0.5434351	-0.53200346	1.0151106	-0.2968432	0.5325065	0.2694065	-0.34925416	-0.091491655	0.24490619	0.15896411	-0.31226546	0.10837556	0.31784755	-0.60855395	0.4125591	0.83298385	0.7406527	0.18116894	0.20119947	-0.020616919	-0.38066182	-0.21988313	0.058197644	0.35893828	0.15417947	-0.00302171	-0.06890613	0.40683886	-0.71789956	0.47992745	0.2699274	0.35747477	0.40724552	-0.2899578	-0.1115221	-0.23689505	-0.48669115	0.36336252	-0.12235837	0.10482401	0.5782691	-0.03590515	-0.37865654	0.2171934	-0.16778935	-0.51575285	0.3580777	0.5753218	0.54170954	0.42718306	0.027063936	-0.059660856	-1.0846584	-0.06534476	0.43314064	0.13146809	0.049804788	0.024110388	0.47815278	0.28475234	-0.65532446	-0.19414714	-0.31802505	0.80435574	0.035099346	0.02203607	-0.05101215	-0.12090936	-0.6839572	0.15740772	-0.06585838	-0.6163313	-0.11180976	0.00016985126	0.00067233964	-0.17969018	-0.26146692	0.5021743	-0.46690017	0.8810078	0.003337904	-0.18082966	0.56272686	0.7121115	0.34217572	-0.28833494	-0.38409314	-0.0026636135	-0.18172403	-0.031602137	0.95124465	0.47323728	-0.011310298	0.19482996	0.52474505	0.49421093	-0.006915455	-0.0045628897	0.7308292	-0.27534065	-0.028079784	-0.20759849	0.70996034	1.2285329	0.25441685	-0.1482392	0.97573483	-0.010463724	0.18672302	-0.25599965	-0.01660051	-0.4763473	-0.308588	0.2141896	-0.12631236	-0.18109235	-0.19935434	-0.20145966	-0.29700124	0.70852935	-0.362492	0.19607785	-1.0265838	0.48678365	0.22864926	0.37162256	-0.25037804	0.39665744	0.23842618	0.43832487	0.23300779	0.57364684	-0.14383328	0.05168737	0.36792886	-0.507369	-0.45984697	-0.044144366	0.48365882	0.964023	0.04671446	0.042110167	-0.052344337	0.3637301	-0.12663913	0.12938428	-0.69794154	0.043246355	0.21645798	0.025405444	0.11174585	0.03988241	-0.21541578	0.16126601	1.2645851	0.3508379	0.38734576	-0.5199927	0.07743288	-0.07425081	-0.37884346	0.024160702	0.23721007	0.6491424	0.19642462	-0.21267295	-0.05009569	0.35985732	0.7369618	-0.23185797	-0.47509953	-0.26835668	0.5666194	-0.52800876	-0.37200174	0.07611203	-0.31598157	-0.46872568	-0.4701813	-0.36586052	-0.4288492	-0.32479087	-0.23046246	-0.3446507	-0.7543553	-0.02868338	-0.2678934	0.5742995
alfa-2b	-0.20366034	0.72184455	-0.6775024	0.033864267	0.39871094	0.15632732	0.50769347	-0.16467108	0.50404793	0.26899683	0.55646443	-0.26749983	0.34570312	-0.18627937	0.9350914	-0.3169177	0.21770714	0.31425458	-0.34074992	0.086580925	0.44589758	0.2358286	-0.22441228	0.032006603	0.3030142	-0.47842044	0.61539394	0.8303503	0.7676063	0.31059542	0.032698147	-0.1252332	-0.27800918	-0.29721	-0.14387223	0.33164895	0.19099975	-0.14080754	-0.1374442	0.25621676	-0.5545073	0.1405657	0.18301767	0.2655941	0.38514033	-0.42900357	-0.046034865	-0.2783513	-0.32410666	0.47983688	0.112672105	0.11347283	0.5601597	-0.11107175	-0.1942663	0.30406356	-0.01604891	-0.50376356	0.28680652	0.4638154	0.77158195	0.42646334	0.24177441	0.16613469	-0.8813416	0.2432735	0.5836941	-0.12408168	-0.034812335	-0.07773572	0.6631733	0.18790987	-0.722515	-0.23682679	-0.014911511	0.70220023	-0.13084584	-0.1434463	-0.083589055	-0.028748699	-0.6211229	0.14899701	-0.075649954	-0.6042101	0.06535297	-0.02329538	0.3323123	-0.16721125	-0.11098399	0.47012058	-0.49027503	0.89776367	0.093985304	-0.25399595	0.41453615	0.63281155	0.4675606	-0.37842032	-0.4849279	-0.021611685	-0.16614115	0.03087803	0.97131157	0.20344833	0.24143521	0.011187603	0.3484531	0.5277379	-0.05283423	0.059608456	0.9230221	-0.48889148	-0.04002271	-0.19556393	0.6694762	1.0175749	0.31251332	-0.17505443	0.8198833	0.067542896	0.1305866	-0.17111553	-0.07645388	-0.42177618	-0.3463515	0.17724343	-0.2344366	-0.3222288	0.01627162	-0.5161489	-0.32045278	0.3783686	-0.32631755	0.26390907	-1.1110183	0.3161945	0.26004195	0.27689886	-0.18036982	0.537278	0.1491796	0.2886478	0.35258532	0.53788245	0.02451746	0.12669902	0.2286032	-0.42667466	-0.45084307	-0.030846773	0.5900282	0.7843832	-0.017374327	0.11252633	-0.19708131	0.2598167	-0.30927733	0.23712914	-0.77796906	-0.056474455	0.07425997	0.03068681	0.021997212	0.11336563	-0.10382532	0.07530093	0.94164467	0.29062343	0.28748664	-0.54940766	0.1542762	-0.016545262	-0.19579794	0.09537691	0.4408791	0.46440595	-0.11080393	-0.21579005	-0.12274449	0.3386567	0.6444131	-0.06440902	-0.40521967	-0.43475348	0.35066324	-0.49848232	-0.26079214	0.13301966	-0.3292011	-0.4854999	-0.38521755	-0.4782217	-0.38594905	-0.5432882	0.012290286	-0.6603157	-0.56676424	0.20781662	-0.11617551	0.40136385
alfa-n3	-0.07596144	0.2647749	-0.40538764	0.05903707	-0.08116099	0.08642908	0.18459685	-0.08790282	-0.017045267	0.051495597	0.117234826	-0.16807926	0.06332389	-0.023516702	0.109607905	0.072383	0.22669615	-0.10422041	-0.026192155	-0.18670787	0.20317751	0.037168637	-0.17623758	-0.0204971	-0.14061952	-0.063938715	0.19731484	0.13023455	-0.042553686	-0.09250826	0.050926983	0.025092771	-0.1237829	0.008421794	-0.07291712	0.09911448	-0.1812174	0.032839593	0.07838313	0.0991629	-0.22652905	-0.079983845	-0.05648524	0.04878592	0.14288826	-0.20980531	-0.050909206	-0.1538957	-0.043155916	0.11813717	-0.03124265	-0.01395676	0.17638509	-0.09730207	-0.14467014	0.07373091	0.027017074	-0.1599459	0.043754395	0.2038988	0.1808941	-0.08976488	0.14185107	-0.029212443	-0.1548794	0.30419126	0.15220718	-0.13198827	0.081260465	-0.042805504	0.05569423	0.3185101	-0.22894867	-0.05784486	0.04425247	0.0913777	-0.058490217	-0.09777826	-0.09169904	0.04007897	-0.31764463	0.2159098	0.08685379	-0.111239225	0.13193671	-0.1499695	0.03543506	0.053075664	-0.040570054	0.254121	-0.22419396	0.18472667	0.13053302	-0.035806865	0.20089707	0.21988185	-0.078167	-0.09956909	-0.11764897	-0.03239886	-0.08884579	-0.09799089	0.345925	0.1970934	-0.10799572	0.09489473	-0.03572669	0.17841586	0.097491026	0.107698746	0.16166845	-0.11455419	0.20674826	-0.24114761	0.11511639	0.038342126	-0.12634657	-0.2779704	0.22446772	-0.011527492	0.02177066	0.1459398	0.0660549	-0.13177061	0.047673203	0.07073674	-0.020168895	-0.20285943	-0.056899346	-0.049483027	-0.045713246	0.17567858	-0.19326997	-0.034138147	-0.22860827	0.10001552	0.08154981	0.08744352	-0.23732314	0.097554155	0.0019632897	0.21659438	0.0044124485	0.09052207	0.14129482	0.3502791	0.08129401	-0.023367101	-0.047083974	-0.0009046495	0.14262863	0.19893141	0.031443052	0.0012754854	0.00046775094	-0.13578077	-0.06731404	-0.2016712	-0.08837953	-0.1410499	0.09485867	0.17643322	-0.0611323	0.072901785	-0.15701346	0.020826843	0.17458309	0.10527699	-0.035797827	-0.18286268	0.0415915	-0.11692665	-0.14716488	-0.031243477	0.15991464	0.106640644	0.061531156	0.06934874	-0.06975259	-0.05710838	0.17151375	-0.0024468952	-0.11621106	-0.21335417	0.11278334	-0.07588772	0.07990517	0.12654482	-0.14785495	-0.049354676	0.07999212	-0.31016144	-0.20892848	0.029232156	0.10682769	-0.24772605	-0.07748224	0.3126599	-0.007514613	0.16940294
alfacon-1	0.11930587	0.4618194	-0.47574311	0.18908271	0.26072353	-0.0031397995	0.672921	0.086729094	0.3037005	0.26495838	0.28524607	-0.13982533	-0.06571458	-0.0022108855	0.40589383	0.27890024	0.24647272	-0.097619854	-0.06760801	-0.24658543	0.15050326	0.30589038	-0.15789983	-0.050150067	-0.087064676	0.031702198	0.55363023	0.40250137	0.3207005	-0.051418114	-0.08093993	-0.21058454	-0.27741674	-0.31467345	0.15527971	0.292215	-0.12338597	-0.15475368	0.14318001	0.36428657	-0.5569945	0.28387907	0.06932198	0.34690014	0.21567743	-0.25629026	-0.33209544	-0.19904085	-0.11752537	0.099056825	0.07811104	0.03627318	0.5787401	-0.20070562	-0.26074156	0.021663431	0.13993292	-0.48372105	0.31142834	0.40218025	0.30498698	0.15808013	-0.013093163	-0.09408212	-0.3591382	0.19808954	0.027087681	-0.021770261	0.13162532	-0.14811714	0.057900686	0.3543231	-0.38834587	0.18691534	-0.07953827	-0.08490632	-0.024262145	-0.0044027623	0.0367436	0.22455484	-0.6844061	0.2022548	0.07576894	-0.14780994	0.22036728	0.17519288	0.14027958	-0.03617866	-0.011881611	0.44296074	-0.27679688	0.4356911	0.1946788	0.044859227	0.28350917	0.12441194	-0.072572336	-0.054844763	-0.16601446	-0.061147988	-0.38898495	-0.05402534	0.828781	0.2338034	0.1613619	0.13015857	0.048231013	0.21030012	0.07179617	-0.061533645	0.6268296	-0.12510557	0.26296118	0.07935132	0.27623117	0.41915804	0.0068792696	-0.3724781	0.32138732	-0.14592314	0.011026452	0.20899421	0.018904855	-0.6365893	-0.008450062	0.33794573	-0.057210103	-0.10624768	0.09438419	-0.035880793	-0.34407082	0.34659708	-0.10373348	0.19747777	-0.4061539	0.268911	-0.11861449	0.08572802	-0.244913	0.17712691	0.085157715	0.5137794	0.40931824	0.3072684	0.1639252	0.33402228	0.18687676	-0.06337458	0.0857315	0.036964275	0.39570585	0.5734572	0.29983577	0.021193234	0.06431425	-0.09929437	-0.18584535	0.057597626	-0.4711854	-0.17497718	0.20294537	0.08472497	-0.083634846	0.077303626	0.14588493	0.047471322	0.554679	-0.020432677	0.26542383	-0.2723461	-0.075442195	-0.25009835	0.05573582	0.10694461	0.4581504	-0.005007855	0.08648583	-0.018926665	-0.15371424	0.08886411	0.3899246	0.057646334	-0.08711992	-0.26817504	0.43485826	-0.0025952861	-0.09586847	0.30558914	-0.28516364	-0.3879162	-0.117843084	-0.50159544	-0.07330345	-0.18646334	-0.101781	-0.27398	-0.4636169	0.21887271	0.006875806	0.2814985
alfentanil	-0.35412598	-0.054610144	0.4528107	-0.054577928	0.0054003145	0.21476169	0.34186774	-0.41218874	-0.28633377	0.6276616	0.05846769	0.09914741	-0.35491145	0.2348912	-0.30649006	-0.47645533	-0.3040533	0.33549622	0.0066801272	0.009211606	-0.066729374	0.0904348	-0.4450843	0.6268551	-0.45498133	0.0071616597	0.021334201	0.27804112	-0.6119931	-0.12130553	0.07611273	-0.1569814	0.021096729	0.1399885	0.2441943	0.024843335	-0.1087866	-0.2628988	-0.54767746	-0.13847741	0.051699445	0.1712727	0.11586494	0.22130841	0.7397747	-0.032065373	0.23494382	0.53723085	-0.27781555	0.22222145	-0.2052259	-0.2442778	0.3306947	-0.021574818	-0.35897326	-0.6294474	0.30776164	-0.5289076	0.03310248	0.14225337	0.19905895	-0.51283485	0.61084443	-0.13680312	-0.4421875	-0.07739728	-0.12353489	-0.17954317	0.18330936	0.30130967	0.23769756	-0.041273266	0.42801	0.11935881	-0.022473581	0.13724226	0.53108513	0.03896993	-0.5077018	0.12745477	0.21326129	-0.31053782	0.5206517	0.1288152	-0.48093992	0.1422394	-0.018337334	0.25806227	0.7620224	0.62338805	0.2239994	0.094347	0.34233204	-0.17701633	0.06512888	0.0863275	-0.100749	-0.022639183	0.103404075	-0.2864879	-0.34724036	-0.3050669	0.6333874	0.14153653	-0.3139953	-0.048546113	0.03251798	-0.46451345	-0.4861233	-0.21089086	-0.050902996	0.0074032815	-0.20009978	-0.47643995	-0.25352287	0.38966635	-0.1873738	-0.12000951	-0.01676606	0.19073313	0.19961102	0.08766408	0.01627784	-0.22815911	0.00013845754	0.054901876	0.17657621	-0.0007995656	-0.13423344	0.13143545	0.14398545	0.17303678	-0.34529302	0.08579372	-0.06374052	-0.4850695	-0.3217654	-0.5094161	0.2789498	0.12378654	-0.06475465	0.33428302	0.046719547	0.44705462	-0.012919369	0.29118648	0.25627604	0.22065194	0.003379664	0.13618538	-0.10791852	-0.072892405	-0.124861576	0.25604752	0.29787105	0.02614535	-0.08048388	-0.15050362	-0.12488182	-0.13980742	-0.17122999	-0.116409086	-0.37047547	-0.26049927	-0.12868078	-0.091331236	0.26765057	-0.0027828815	-0.002601347	-0.18290034	0.22077401	-0.04981433	-0.09433829	0.3944056	-0.08222009	0.16179812	-0.38158333	0.35020605	0.015356564	-0.090791576	-0.11852085	-0.134109	-0.08806814	-0.33909705	-0.010537353	0.03926012	0.30991095	0.4845474	-0.076524034	-0.06256416	0.118380584	-0.09207826	-0.29342765	0.113353044	0.18357274	0.06317413	0.17778347	-0.2799604	-0.13226655	0.69256663
